<neuralNetwork>
    <neuron name = "0" type = "sensor" linkName = "01_Carput" />
    <neuron name = "1" type = "sensor" linkName = "02_Prothorax" />
    <neuron name = "2" type = "sensor" linkName = "03_Mesothorax" />
    <neuron name = "3" type = "sensor" linkName = "04_Metathorax" />
    <neuron name = "4" type = "sensor" linkName = "05_Abdomen_3" />
    <neuron name = "5" type = "sensor" linkName = "06_Abdomen_2" />
    <neuron name = "6" type = "sensor" linkName = "07_Abdomen_1" />
    <neuron name = "7" type = "sensor" linkName = "08_Abdomen_0" />
    <neuron name = "8" type = "sensor" linkName = "09_HL_CT_L" />
    <neuron name = "9" type = "sensor" linkName = "10_HL_Femur_L" />
    <neuron name = "10" type = "sensor" linkName = "11_HL_Tibia_L" />
    <neuron name = "11" type = "sensor" linkName = "12_HL_Tarsus_L" />
    <neuron name = "12" type = "sensor" linkName = "13_HL_Pretarsus_L" />
    <neuron name = "13" type = "sensor" linkName = "14_HL_CT_R" />
    <neuron name = "14" type = "sensor" linkName = "15_HL_Femur_R" />
    <neuron name = "15" type = "sensor" linkName = "16_HL_Tibia_R" />
    <neuron name = "16" type = "sensor" linkName = "17_HL_Tarsus_R" />
    <neuron name = "17" type = "sensor" linkName = "18_HL_Pretarsus_R" />
    <neuron name = "18" type = "sensor" linkName = "19_ML_CT_L" />
    <neuron name = "19" type = "sensor" linkName = "20_ML_Femur_L" />
    <neuron name = "20" type = "sensor" linkName = "21_ML_Tibia_L" />
    <neuron name = "21" type = "sensor" linkName = "22_ML_Tarsus_L" />
    <neuron name = "22" type = "sensor" linkName = "23_ML_Pretarsus_L" />
    <neuron name = "23" type = "sensor" linkName = "24_ML_CT_R" />
    <neuron name = "24" type = "sensor" linkName = "25_ML_Femur_R" />
    <neuron name = "25" type = "sensor" linkName = "26_ML_Tibia_R" />
    <neuron name = "26" type = "sensor" linkName = "27_ML_Tarsus_R" />
    <neuron name = "27" type = "sensor" linkName = "28_ML_Pretarsus_R" />
    <neuron name = "28" type = "sensor" linkName = "29_FL_CT_L" />
    <neuron name = "29" type = "sensor" linkName = "30_FL_Femur_L" />
    <neuron name = "30" type = "sensor" linkName = "31_FL_Tibia_L" />
    <neuron name = "31" type = "sensor" linkName = "32_FL_Tarsus_L" />
    <neuron name = "32" type = "sensor" linkName = "33_FL_Pretarsus_L" />
    <neuron name = "33" type = "sensor" linkName = "34_FL_CT_R" />
    <neuron name = "34" type = "sensor" linkName = "35_FL_Femur_R" />
    <neuron name = "35" type = "sensor" linkName = "36_FL_Tibia_R" />
    <neuron name = "36" type = "sensor" linkName = "37_FL_Tarsus_R" />
    <neuron name = "37" type = "sensor" linkName = "38_FL_Pretarsus_R" />
    <neuron name = "38" type = "motor"  jointName = "02_Prothorax" />
    <neuron name = "39" type = "motor"  jointName = "03_Mesothorax" />
    <neuron name = "40" type = "motor"  jointName = "04_Metathorax" />
    <neuron name = "41" type = "motor"  jointName = "05_Abdomen_3" />
    <neuron name = "42" type = "motor"  jointName = "06_Abdomen_2" />
    <neuron name = "43" type = "motor"  jointName = "07_Abdomen_1" />
    <neuron name = "44" type = "motor"  jointName = "08_Abdomen_0" />
    <neuron name = "45" type = "motor"  jointName = "09_HL_CT_L" />
    <neuron name = "46" type = "motor"  jointName = "10_HL_Femur_L" />
    <neuron name = "47" type = "motor"  jointName = "11_HL_Tibia_L" />
    <neuron name = "48" type = "motor"  jointName = "12_HL_Tarsus_L" />
    <neuron name = "49" type = "motor"  jointName = "13_HL_Pretarsus_L" />
    <neuron name = "50" type = "motor"  jointName = "14_HL_CT_R" />
    <neuron name = "51" type = "motor"  jointName = "15_HL_Femur_R" />
    <neuron name = "52" type = "motor"  jointName = "16_HL_Tibia_R" />
    <neuron name = "53" type = "motor"  jointName = "17_HL_Tarsus_R" />
    <neuron name = "54" type = "motor"  jointName = "18_HL_Pretarsus_R" />
    <neuron name = "55" type = "motor"  jointName = "19_ML_CT_L" />
    <neuron name = "56" type = "motor"  jointName = "20_ML_Femur_L" />
    <neuron name = "57" type = "motor"  jointName = "21_ML_Tibia_L" />
    <neuron name = "58" type = "motor"  jointName = "22_ML_Tarsus_L" />
    <neuron name = "59" type = "motor"  jointName = "23_ML_Pretarsus_L" />
    <neuron name = "60" type = "motor"  jointName = "24_ML_CT_R" />
    <neuron name = "61" type = "motor"  jointName = "25_ML_Femur_R" />
    <neuron name = "62" type = "motor"  jointName = "26_ML_Tibia_R" />
    <neuron name = "63" type = "motor"  jointName = "27_ML_Tarsus_R" />
    <neuron name = "64" type = "motor"  jointName = "28_ML_Pretarsus_R" />
    <neuron name = "65" type = "motor"  jointName = "29_FL_CT_L" />
    <neuron name = "66" type = "motor"  jointName = "30_FL_Femur_L" />
    <neuron name = "67" type = "motor"  jointName = "31_FL_Tibia_L" />
    <neuron name = "68" type = "motor"  jointName = "32_FL_Tarsus_L" />
    <neuron name = "69" type = "motor"  jointName = "33_FL_Pretarsus_L" />
    <neuron name = "70" type = "motor"  jointName = "34_FL_CT_R" />
    <neuron name = "71" type = "motor"  jointName = "35_FL_Femur_R" />
    <neuron name = "72" type = "motor"  jointName = "36_FL_Tibia_R" />
    <neuron name = "73" type = "motor"  jointName = "37_FL_Tarsus_R" />
    <neuron name = "74" type = "motor"  jointName = "38_FL_Pretarsus_R" />
    <synapse sourceNeuronName = "0" targetNeuronName = "37" weight = "0.10848858959559537" />
    <synapse sourceNeuronName = "0" targetNeuronName = "38" weight = "-0.35773112308021826" />
    <synapse sourceNeuronName = "0" targetNeuronName = "39" weight = "-0.7128660067281465" />
    <synapse sourceNeuronName = "0" targetNeuronName = "40" weight = "0.8466606778298154" />
    <synapse sourceNeuronName = "0" targetNeuronName = "41" weight = "-0.4538128649103681" />
    <synapse sourceNeuronName = "0" targetNeuronName = "42" weight = "0.9660252329131276" />
    <synapse sourceNeuronName = "0" targetNeuronName = "43" weight = "0.9603147377469139" />
    <synapse sourceNeuronName = "0" targetNeuronName = "44" weight = "0.038306573561128765" />
    <synapse sourceNeuronName = "0" targetNeuronName = "45" weight = "-0.33107129354385467" />
    <synapse sourceNeuronName = "0" targetNeuronName = "46" weight = "0.44655701904027856" />
    <synapse sourceNeuronName = "0" targetNeuronName = "47" weight = "0.9079842373246496" />
    <synapse sourceNeuronName = "0" targetNeuronName = "48" weight = "-0.4662528785043054" />
    <synapse sourceNeuronName = "0" targetNeuronName = "49" weight = "-0.15586732565374106" />
    <synapse sourceNeuronName = "0" targetNeuronName = "50" weight = "0.3031369700551294" />
    <synapse sourceNeuronName = "0" targetNeuronName = "51" weight = "-0.3641558840041277" />
    <synapse sourceNeuronName = "0" targetNeuronName = "52" weight = "-0.7523295919605197" />
    <synapse sourceNeuronName = "0" targetNeuronName = "53" weight = "-0.7012337126909605" />
    <synapse sourceNeuronName = "0" targetNeuronName = "54" weight = "0.4848867300571065" />
    <synapse sourceNeuronName = "0" targetNeuronName = "55" weight = "0.5470878641137817" />
    <synapse sourceNeuronName = "0" targetNeuronName = "56" weight = "-0.01763513233632641" />
    <synapse sourceNeuronName = "0" targetNeuronName = "57" weight = "0.14717036537266437" />
    <synapse sourceNeuronName = "0" targetNeuronName = "58" weight = "0.34402807635226207" />
    <synapse sourceNeuronName = "0" targetNeuronName = "59" weight = "0.25251632444791805" />
    <synapse sourceNeuronName = "0" targetNeuronName = "60" weight = "0.10108602468467698" />
    <synapse sourceNeuronName = "0" targetNeuronName = "61" weight = "-0.4896351826317522" />
    <synapse sourceNeuronName = "0" targetNeuronName = "62" weight = "0.7973596182170577" />
    <synapse sourceNeuronName = "0" targetNeuronName = "63" weight = "-0.7035237153675507" />
    <synapse sourceNeuronName = "0" targetNeuronName = "64" weight = "0.11309066297434267" />
    <synapse sourceNeuronName = "0" targetNeuronName = "65" weight = "0.3891481803957946" />
    <synapse sourceNeuronName = "0" targetNeuronName = "66" weight = "0.14510686240027515" />
    <synapse sourceNeuronName = "0" targetNeuronName = "67" weight = "-0.1976874101255326" />
    <synapse sourceNeuronName = "0" targetNeuronName = "68" weight = "-0.029856951155888156" />
    <synapse sourceNeuronName = "0" targetNeuronName = "69" weight = "-0.6093126379771712" />
    <synapse sourceNeuronName = "0" targetNeuronName = "70" weight = "0.6738247404896882" />
    <synapse sourceNeuronName = "0" targetNeuronName = "71" weight = "-0.9462432991787" />
    <synapse sourceNeuronName = "0" targetNeuronName = "72" weight = "-0.8715041739027456" />
    <synapse sourceNeuronName = "1" targetNeuronName = "37" weight = "0.29407580870411154" />
    <synapse sourceNeuronName = "1" targetNeuronName = "38" weight = "-0.12783991806875084" />
    <synapse sourceNeuronName = "1" targetNeuronName = "39" weight = "0.16858285745055612" />
    <synapse sourceNeuronName = "1" targetNeuronName = "40" weight = "0.4275724086380035" />
    <synapse sourceNeuronName = "1" targetNeuronName = "41" weight = "-0.5111962170210842" />
    <synapse sourceNeuronName = "1" targetNeuronName = "42" weight = "-0.21768394650982836" />
    <synapse sourceNeuronName = "1" targetNeuronName = "43" weight = "-0.015208247312087142" />
    <synapse sourceNeuronName = "1" targetNeuronName = "44" weight = "0.7585607277267497" />
    <synapse sourceNeuronName = "1" targetNeuronName = "45" weight = "-0.35719609653195405" />
    <synapse sourceNeuronName = "1" targetNeuronName = "46" weight = "0.8172710199914597" />
    <synapse sourceNeuronName = "1" targetNeuronName = "47" weight = "0.847722756420926" />
    <synapse sourceNeuronName = "1" targetNeuronName = "48" weight = "-0.44735599722865893" />
    <synapse sourceNeuronName = "1" targetNeuronName = "49" weight = "-0.05394354617845143" />
    <synapse sourceNeuronName = "1" targetNeuronName = "50" weight = "0.8062354619882042" />
    <synapse sourceNeuronName = "1" targetNeuronName = "51" weight = "-0.9589077642362893" />
    <synapse sourceNeuronName = "1" targetNeuronName = "52" weight = "-0.5103232456310445" />
    <synapse sourceNeuronName = "1" targetNeuronName = "53" weight = "0.7050363776453135" />
    <synapse sourceNeuronName = "1" targetNeuronName = "54" weight = "-0.36068588804233825" />
    <synapse sourceNeuronName = "1" targetNeuronName = "55" weight = "0.47608186280061493" />
    <synapse sourceNeuronName = "1" targetNeuronName = "56" weight = "-0.9691612447407421" />
    <synapse sourceNeuronName = "1" targetNeuronName = "57" weight = "-0.5016480067602382" />
    <synapse sourceNeuronName = "1" targetNeuronName = "58" weight = "0.8426245642798227" />
    <synapse sourceNeuronName = "1" targetNeuronName = "59" weight = "-0.18863538039230598" />
    <synapse sourceNeuronName = "1" targetNeuronName = "60" weight = "-0.8931841798453111" />
    <synapse sourceNeuronName = "1" targetNeuronName = "61" weight = "-0.47540925267807954" />
    <synapse sourceNeuronName = "1" targetNeuronName = "62" weight = "0.37670252968155116" />
    <synapse sourceNeuronName = "1" targetNeuronName = "63" weight = "0.4735447458390125" />
    <synapse sourceNeuronName = "1" targetNeuronName = "64" weight = "-0.0012663373345114248" />
    <synapse sourceNeuronName = "1" targetNeuronName = "65" weight = "0.6467573729689926" />
    <synapse sourceNeuronName = "1" targetNeuronName = "66" weight = "-0.575247550284973" />
    <synapse sourceNeuronName = "1" targetNeuronName = "67" weight = "0.19468597534425358" />
    <synapse sourceNeuronName = "1" targetNeuronName = "68" weight = "-0.7182732192681134" />
    <synapse sourceNeuronName = "1" targetNeuronName = "69" weight = "0.21578146448037083" />
    <synapse sourceNeuronName = "1" targetNeuronName = "70" weight = "0.02924062982044373" />
    <synapse sourceNeuronName = "1" targetNeuronName = "71" weight = "-0.7971815053255285" />
    <synapse sourceNeuronName = "1" targetNeuronName = "72" weight = "-0.45696038981404796" />
    <synapse sourceNeuronName = "2" targetNeuronName = "37" weight = "-0.8934284831066359" />
    <synapse sourceNeuronName = "2" targetNeuronName = "38" weight = "-0.669810209974548" />
    <synapse sourceNeuronName = "2" targetNeuronName = "39" weight = "-0.1740362047824464" />
    <synapse sourceNeuronName = "2" targetNeuronName = "40" weight = "-0.057637376993638245" />
    <synapse sourceNeuronName = "2" targetNeuronName = "41" weight = "-0.6224764891868295" />
    <synapse sourceNeuronName = "2" targetNeuronName = "42" weight = "-0.10556022713778401" />
    <synapse sourceNeuronName = "2" targetNeuronName = "43" weight = "0.7911351743439865" />
    <synapse sourceNeuronName = "2" targetNeuronName = "44" weight = "0.7871277046513818" />
    <synapse sourceNeuronName = "2" targetNeuronName = "45" weight = "-0.6591915313770316" />
    <synapse sourceNeuronName = "2" targetNeuronName = "46" weight = "0.7150172308351153" />
    <synapse sourceNeuronName = "2" targetNeuronName = "47" weight = "-0.5101605665111506" />
    <synapse sourceNeuronName = "2" targetNeuronName = "48" weight = "0.7358053133219447" />
    <synapse sourceNeuronName = "2" targetNeuronName = "49" weight = "0.09888792519636302" />
    <synapse sourceNeuronName = "2" targetNeuronName = "50" weight = "-0.8834183891499807" />
    <synapse sourceNeuronName = "2" targetNeuronName = "51" weight = "0.7403019183162878" />
    <synapse sourceNeuronName = "2" targetNeuronName = "52" weight = "0.9521957984107188" />
    <synapse sourceNeuronName = "2" targetNeuronName = "53" weight = "0.046310574704261365" />
    <synapse sourceNeuronName = "2" targetNeuronName = "54" weight = "-0.0016187307184065691" />
    <synapse sourceNeuronName = "2" targetNeuronName = "55" weight = "-0.5527241246226935" />
    <synapse sourceNeuronName = "2" targetNeuronName = "56" weight = "0.8626723670501717" />
    <synapse sourceNeuronName = "2" targetNeuronName = "57" weight = "-0.9689990375702375" />
    <synapse sourceNeuronName = "2" targetNeuronName = "58" weight = "-0.566527601449019" />
    <synapse sourceNeuronName = "2" targetNeuronName = "59" weight = "0.5784082979715774" />
    <synapse sourceNeuronName = "2" targetNeuronName = "60" weight = "0.19558826043419675" />
    <synapse sourceNeuronName = "2" targetNeuronName = "61" weight = "0.08101116168676392" />
    <synapse sourceNeuronName = "2" targetNeuronName = "62" weight = "0.3029271867594374" />
    <synapse sourceNeuronName = "2" targetNeuronName = "63" weight = "0.3254625232156805" />
    <synapse sourceNeuronName = "2" targetNeuronName = "64" weight = "0.48148317017049314" />
    <synapse sourceNeuronName = "2" targetNeuronName = "65" weight = "-0.11472139804055215" />
    <synapse sourceNeuronName = "2" targetNeuronName = "66" weight = "0.7353752147318457" />
    <synapse sourceNeuronName = "2" targetNeuronName = "67" weight = "-0.37888957581183047" />
    <synapse sourceNeuronName = "2" targetNeuronName = "68" weight = "0.6904630595803214" />
    <synapse sourceNeuronName = "2" targetNeuronName = "69" weight = "-0.8141200208039965" />
    <synapse sourceNeuronName = "2" targetNeuronName = "70" weight = "0.4573600392882231" />
    <synapse sourceNeuronName = "2" targetNeuronName = "71" weight = "0.907181302048121" />
    <synapse sourceNeuronName = "2" targetNeuronName = "72" weight = "-0.11556851483149666" />
    <synapse sourceNeuronName = "3" targetNeuronName = "37" weight = "-0.03531368259893619" />
    <synapse sourceNeuronName = "3" targetNeuronName = "38" weight = "0.23804285462835684" />
    <synapse sourceNeuronName = "3" targetNeuronName = "39" weight = "-0.26114260596053684" />
    <synapse sourceNeuronName = "3" targetNeuronName = "40" weight = "-0.7046648873499259" />
    <synapse sourceNeuronName = "3" targetNeuronName = "41" weight = "0.9871530899377761" />
    <synapse sourceNeuronName = "3" targetNeuronName = "42" weight = "0.08052429033340625" />
    <synapse sourceNeuronName = "3" targetNeuronName = "43" weight = "-0.0613225200834393" />
    <synapse sourceNeuronName = "3" targetNeuronName = "44" weight = "-0.6010346561617221" />
    <synapse sourceNeuronName = "3" targetNeuronName = "45" weight = "0.4109832879911348" />
    <synapse sourceNeuronName = "3" targetNeuronName = "46" weight = "-0.6239321338138915" />
    <synapse sourceNeuronName = "3" targetNeuronName = "47" weight = "0.11681306756411525" />
    <synapse sourceNeuronName = "3" targetNeuronName = "48" weight = "0.7370578284199225" />
    <synapse sourceNeuronName = "3" targetNeuronName = "49" weight = "-0.7561559718782096" />
    <synapse sourceNeuronName = "3" targetNeuronName = "50" weight = "-0.8240626502986808" />
    <synapse sourceNeuronName = "3" targetNeuronName = "51" weight = "-0.48225165014324234" />
    <synapse sourceNeuronName = "3" targetNeuronName = "52" weight = "-0.35942255697645775" />
    <synapse sourceNeuronName = "3" targetNeuronName = "53" weight = "0.22804531640674086" />
    <synapse sourceNeuronName = "3" targetNeuronName = "54" weight = "-0.6662074099373283" />
    <synapse sourceNeuronName = "3" targetNeuronName = "55" weight = "-0.41478168957377104" />
    <synapse sourceNeuronName = "3" targetNeuronName = "56" weight = "0.7113118800720803" />
    <synapse sourceNeuronName = "3" targetNeuronName = "57" weight = "-0.5302689510925691" />
    <synapse sourceNeuronName = "3" targetNeuronName = "58" weight = "0.8697073227333294" />
    <synapse sourceNeuronName = "3" targetNeuronName = "59" weight = "-0.7210992854426219" />
    <synapse sourceNeuronName = "3" targetNeuronName = "60" weight = "0.11467361081423788" />
    <synapse sourceNeuronName = "3" targetNeuronName = "61" weight = "-0.1728250385363903" />
    <synapse sourceNeuronName = "3" targetNeuronName = "62" weight = "-0.9622966370172399" />
    <synapse sourceNeuronName = "3" targetNeuronName = "63" weight = "-0.27201702202356026" />
    <synapse sourceNeuronName = "3" targetNeuronName = "64" weight = "-0.6619459117895496" />
    <synapse sourceNeuronName = "3" targetNeuronName = "65" weight = "-0.5776402763062602" />
    <synapse sourceNeuronName = "3" targetNeuronName = "66" weight = "0.7070846893524978" />
    <synapse sourceNeuronName = "3" targetNeuronName = "67" weight = "-0.3928668384126195" />
    <synapse sourceNeuronName = "3" targetNeuronName = "68" weight = "-0.26877107426038105" />
    <synapse sourceNeuronName = "3" targetNeuronName = "69" weight = "0.6208110475791437" />
    <synapse sourceNeuronName = "3" targetNeuronName = "70" weight = "0.43625899096491016" />
    <synapse sourceNeuronName = "3" targetNeuronName = "71" weight = "-0.01867348592150031" />
    <synapse sourceNeuronName = "3" targetNeuronName = "72" weight = "-0.18073196555385285" />
    <synapse sourceNeuronName = "4" targetNeuronName = "37" weight = "-0.4296019268728881" />
    <synapse sourceNeuronName = "4" targetNeuronName = "38" weight = "-0.5324858123694018" />
    <synapse sourceNeuronName = "4" targetNeuronName = "39" weight = "-0.14835614226166105" />
    <synapse sourceNeuronName = "4" targetNeuronName = "40" weight = "-0.7234188233800285" />
    <synapse sourceNeuronName = "4" targetNeuronName = "41" weight = "0.12201535319342716" />
    <synapse sourceNeuronName = "4" targetNeuronName = "42" weight = "0.09685376543259872" />
    <synapse sourceNeuronName = "4" targetNeuronName = "43" weight = "0.8246418962745792" />
    <synapse sourceNeuronName = "4" targetNeuronName = "44" weight = "-0.36991574961858165" />
    <synapse sourceNeuronName = "4" targetNeuronName = "45" weight = "-0.0760769685970295" />
    <synapse sourceNeuronName = "4" targetNeuronName = "46" weight = "0.1043435270669173" />
    <synapse sourceNeuronName = "4" targetNeuronName = "47" weight = "0.4396190591419413" />
    <synapse sourceNeuronName = "4" targetNeuronName = "48" weight = "0.6010143833486881" />
    <synapse sourceNeuronName = "4" targetNeuronName = "49" weight = "0.36049642905160306" />
    <synapse sourceNeuronName = "4" targetNeuronName = "50" weight = "-0.8751444188712982" />
    <synapse sourceNeuronName = "4" targetNeuronName = "51" weight = "0.17351188935196382" />
    <synapse sourceNeuronName = "4" targetNeuronName = "52" weight = "-0.3597013826230022" />
    <synapse sourceNeuronName = "4" targetNeuronName = "53" weight = "-0.2961955307953128" />
    <synapse sourceNeuronName = "4" targetNeuronName = "54" weight = "-0.09993735283581051" />
    <synapse sourceNeuronName = "4" targetNeuronName = "55" weight = "-0.9158609650385052" />
    <synapse sourceNeuronName = "4" targetNeuronName = "56" weight = "-0.8433333263317546" />
    <synapse sourceNeuronName = "4" targetNeuronName = "57" weight = "0.9923811746170221" />
    <synapse sourceNeuronName = "4" targetNeuronName = "58" weight = "0.38890509999487777" />
    <synapse sourceNeuronName = "4" targetNeuronName = "59" weight = "0.25716351940950966" />
    <synapse sourceNeuronName = "4" targetNeuronName = "60" weight = "-0.16219976143223125" />
    <synapse sourceNeuronName = "4" targetNeuronName = "61" weight = "-0.6605093381547096" />
    <synapse sourceNeuronName = "4" targetNeuronName = "62" weight = "0.12240748676910451" />
    <synapse sourceNeuronName = "4" targetNeuronName = "63" weight = "-0.186475107113812" />
    <synapse sourceNeuronName = "4" targetNeuronName = "64" weight = "0.47243303144509463" />
    <synapse sourceNeuronName = "4" targetNeuronName = "65" weight = "-0.7196715561007163" />
    <synapse sourceNeuronName = "4" targetNeuronName = "66" weight = "-0.1887538139922995" />
    <synapse sourceNeuronName = "4" targetNeuronName = "67" weight = "0.007611966854903951" />
    <synapse sourceNeuronName = "4" targetNeuronName = "68" weight = "0.19598589378879172" />
    <synapse sourceNeuronName = "4" targetNeuronName = "69" weight = "0.16082786323250797" />
    <synapse sourceNeuronName = "4" targetNeuronName = "70" weight = "-0.44024468400127703" />
    <synapse sourceNeuronName = "4" targetNeuronName = "71" weight = "-0.6198547003209036" />
    <synapse sourceNeuronName = "4" targetNeuronName = "72" weight = "0.13786037560321862" />
    <synapse sourceNeuronName = "5" targetNeuronName = "37" weight = "-0.760499617927425" />
    <synapse sourceNeuronName = "5" targetNeuronName = "38" weight = "0.9459805855336516" />
    <synapse sourceNeuronName = "5" targetNeuronName = "39" weight = "0.5328617616192441" />
    <synapse sourceNeuronName = "5" targetNeuronName = "40" weight = "-0.18715118672909625" />
    <synapse sourceNeuronName = "5" targetNeuronName = "41" weight = "0.6723551561904753" />
    <synapse sourceNeuronName = "5" targetNeuronName = "42" weight = "-0.569494458821318" />
    <synapse sourceNeuronName = "5" targetNeuronName = "43" weight = "-0.34915609881391974" />
    <synapse sourceNeuronName = "5" targetNeuronName = "44" weight = "0.38738292594134616" />
    <synapse sourceNeuronName = "5" targetNeuronName = "45" weight = "-0.23891875923875006" />
    <synapse sourceNeuronName = "5" targetNeuronName = "46" weight = "0.06572989027916742" />
    <synapse sourceNeuronName = "5" targetNeuronName = "47" weight = "0.5568170011980884" />
    <synapse sourceNeuronName = "5" targetNeuronName = "48" weight = "0.7170827912034334" />
    <synapse sourceNeuronName = "5" targetNeuronName = "49" weight = "-0.27953084284018437" />
    <synapse sourceNeuronName = "5" targetNeuronName = "50" weight = "0.368362406182152" />
    <synapse sourceNeuronName = "5" targetNeuronName = "51" weight = "-0.27686538825684526" />
    <synapse sourceNeuronName = "5" targetNeuronName = "52" weight = "0.7036075452404233" />
    <synapse sourceNeuronName = "5" targetNeuronName = "53" weight = "0.5594565584731463" />
    <synapse sourceNeuronName = "5" targetNeuronName = "54" weight = "-0.29939691591860385" />
    <synapse sourceNeuronName = "5" targetNeuronName = "55" weight = "0.8877100949965184" />
    <synapse sourceNeuronName = "5" targetNeuronName = "56" weight = "0.6173166490230377" />
    <synapse sourceNeuronName = "5" targetNeuronName = "57" weight = "-0.2821687470725469" />
    <synapse sourceNeuronName = "5" targetNeuronName = "58" weight = "-0.5736952058001141" />
    <synapse sourceNeuronName = "5" targetNeuronName = "59" weight = "-0.9128431886622161" />
    <synapse sourceNeuronName = "5" targetNeuronName = "60" weight = "0.9009335844019952" />
    <synapse sourceNeuronName = "5" targetNeuronName = "61" weight = "0.03608235593659881" />
    <synapse sourceNeuronName = "5" targetNeuronName = "62" weight = "-0.550983444831" />
    <synapse sourceNeuronName = "5" targetNeuronName = "63" weight = "0.3869511496902982" />
    <synapse sourceNeuronName = "5" targetNeuronName = "64" weight = "-0.47448064629766673" />
    <synapse sourceNeuronName = "5" targetNeuronName = "65" weight = "-0.6620542212196734" />
    <synapse sourceNeuronName = "5" targetNeuronName = "66" weight = "0.8194010536949012" />
    <synapse sourceNeuronName = "5" targetNeuronName = "67" weight = "-0.2829938508828609" />
    <synapse sourceNeuronName = "5" targetNeuronName = "68" weight = "0.7831260871285195" />
    <synapse sourceNeuronName = "5" targetNeuronName = "69" weight = "0.987017283310649" />
    <synapse sourceNeuronName = "5" targetNeuronName = "70" weight = "0.2061067099671985" />
    <synapse sourceNeuronName = "5" targetNeuronName = "71" weight = "-0.05245572309482682" />
    <synapse sourceNeuronName = "5" targetNeuronName = "72" weight = "0.1594015052766573" />
    <synapse sourceNeuronName = "6" targetNeuronName = "37" weight = "-0.022691754750711945" />
    <synapse sourceNeuronName = "6" targetNeuronName = "38" weight = "-0.05802898130826151" />
    <synapse sourceNeuronName = "6" targetNeuronName = "39" weight = "-0.28632642987798973" />
    <synapse sourceNeuronName = "6" targetNeuronName = "40" weight = "-0.914156019067998" />
    <synapse sourceNeuronName = "6" targetNeuronName = "41" weight = "0.6343833693349341" />
    <synapse sourceNeuronName = "6" targetNeuronName = "42" weight = "0.5603349985316515" />
    <synapse sourceNeuronName = "6" targetNeuronName = "43" weight = "-0.46514470189110213" />
    <synapse sourceNeuronName = "6" targetNeuronName = "44" weight = "-0.6535202022490691" />
    <synapse sourceNeuronName = "6" targetNeuronName = "45" weight = "-0.2867062078272482" />
    <synapse sourceNeuronName = "6" targetNeuronName = "46" weight = "0.16020913114836932" />
    <synapse sourceNeuronName = "6" targetNeuronName = "47" weight = "0.8965685273440522" />
    <synapse sourceNeuronName = "6" targetNeuronName = "48" weight = "0.9184523188448519" />
    <synapse sourceNeuronName = "6" targetNeuronName = "49" weight = "-0.24925026156769947" />
    <synapse sourceNeuronName = "6" targetNeuronName = "50" weight = "-0.1280736026561513" />
    <synapse sourceNeuronName = "6" targetNeuronName = "51" weight = "-0.8781062682923373" />
    <synapse sourceNeuronName = "6" targetNeuronName = "52" weight = "0.015441804440053497" />
    <synapse sourceNeuronName = "6" targetNeuronName = "53" weight = "-0.798368096227702" />
    <synapse sourceNeuronName = "6" targetNeuronName = "54" weight = "-0.5208500819403716" />
    <synapse sourceNeuronName = "6" targetNeuronName = "55" weight = "0.4580347974420922" />
    <synapse sourceNeuronName = "6" targetNeuronName = "56" weight = "0.9378521276689131" />
    <synapse sourceNeuronName = "6" targetNeuronName = "57" weight = "0.7409346859956032" />
    <synapse sourceNeuronName = "6" targetNeuronName = "58" weight = "0.12771543011756115" />
    <synapse sourceNeuronName = "6" targetNeuronName = "59" weight = "0.48379734821343257" />
    <synapse sourceNeuronName = "6" targetNeuronName = "60" weight = "0.9588765846267504" />
    <synapse sourceNeuronName = "6" targetNeuronName = "61" weight = "0.2374751895301057" />
    <synapse sourceNeuronName = "6" targetNeuronName = "62" weight = "0.9582382218649861" />
    <synapse sourceNeuronName = "6" targetNeuronName = "63" weight = "0.13491685529601805" />
    <synapse sourceNeuronName = "6" targetNeuronName = "64" weight = "0.1302932593749062" />
    <synapse sourceNeuronName = "6" targetNeuronName = "65" weight = "-0.5301151233708914" />
    <synapse sourceNeuronName = "6" targetNeuronName = "66" weight = "0.6913294178886733" />
    <synapse sourceNeuronName = "6" targetNeuronName = "67" weight = "-0.30791787873107235" />
    <synapse sourceNeuronName = "6" targetNeuronName = "68" weight = "0.10336794987786391" />
    <synapse sourceNeuronName = "6" targetNeuronName = "69" weight = "-0.04500552287831949" />
    <synapse sourceNeuronName = "6" targetNeuronName = "70" weight = "-0.6969977349505305" />
    <synapse sourceNeuronName = "6" targetNeuronName = "71" weight = "0.16980794516124775" />
    <synapse sourceNeuronName = "6" targetNeuronName = "72" weight = "0.259363705349523" />
    <synapse sourceNeuronName = "7" targetNeuronName = "37" weight = "-0.2837221818862792" />
    <synapse sourceNeuronName = "7" targetNeuronName = "38" weight = "-0.6906235252925714" />
    <synapse sourceNeuronName = "7" targetNeuronName = "39" weight = "0.7423400311650301" />
    <synapse sourceNeuronName = "7" targetNeuronName = "40" weight = "0.8474290578325223" />
    <synapse sourceNeuronName = "7" targetNeuronName = "41" weight = "-0.6107461110713541" />
    <synapse sourceNeuronName = "7" targetNeuronName = "42" weight = "-0.3890243260148629" />
    <synapse sourceNeuronName = "7" targetNeuronName = "43" weight = "-0.39060995867613446" />
    <synapse sourceNeuronName = "7" targetNeuronName = "44" weight = "0.5101106653031702" />
    <synapse sourceNeuronName = "7" targetNeuronName = "45" weight = "0.2884971391912967" />
    <synapse sourceNeuronName = "7" targetNeuronName = "46" weight = "-0.035770206922859815" />
    <synapse sourceNeuronName = "7" targetNeuronName = "47" weight = "-0.517193763521705" />
    <synapse sourceNeuronName = "7" targetNeuronName = "48" weight = "0.37579867251750376" />
    <synapse sourceNeuronName = "7" targetNeuronName = "49" weight = "0.6711106150948665" />
    <synapse sourceNeuronName = "7" targetNeuronName = "50" weight = "0.9883876072709439" />
    <synapse sourceNeuronName = "7" targetNeuronName = "51" weight = "-0.7449184651022775" />
    <synapse sourceNeuronName = "7" targetNeuronName = "52" weight = "0.8792146867186146" />
    <synapse sourceNeuronName = "7" targetNeuronName = "53" weight = "0.2410596464487167" />
    <synapse sourceNeuronName = "7" targetNeuronName = "54" weight = "-0.5745206902074804" />
    <synapse sourceNeuronName = "7" targetNeuronName = "55" weight = "-0.19854657343084448" />
    <synapse sourceNeuronName = "7" targetNeuronName = "56" weight = "0.38576834394325465" />
    <synapse sourceNeuronName = "7" targetNeuronName = "57" weight = "-0.2756871290286127" />
    <synapse sourceNeuronName = "7" targetNeuronName = "58" weight = "0.17215423671303576" />
    <synapse sourceNeuronName = "7" targetNeuronName = "59" weight = "0.2383040868029207" />
    <synapse sourceNeuronName = "7" targetNeuronName = "60" weight = "0.9798427714538138" />
    <synapse sourceNeuronName = "7" targetNeuronName = "61" weight = "0.16424766598702867" />
    <synapse sourceNeuronName = "7" targetNeuronName = "62" weight = "-0.8620230551565236" />
    <synapse sourceNeuronName = "7" targetNeuronName = "63" weight = "-0.5042230891484991" />
    <synapse sourceNeuronName = "7" targetNeuronName = "64" weight = "0.1676861980494797" />
    <synapse sourceNeuronName = "7" targetNeuronName = "65" weight = "-0.25178014994419406" />
    <synapse sourceNeuronName = "7" targetNeuronName = "66" weight = "0.41167681250702026" />
    <synapse sourceNeuronName = "7" targetNeuronName = "67" weight = "-0.7651081388304506" />
    <synapse sourceNeuronName = "7" targetNeuronName = "68" weight = "0.617424716355651" />
    <synapse sourceNeuronName = "7" targetNeuronName = "69" weight = "0.6450593124906652" />
    <synapse sourceNeuronName = "7" targetNeuronName = "70" weight = "-0.3161845406039996" />
    <synapse sourceNeuronName = "7" targetNeuronName = "71" weight = "-0.12856385759853728" />
    <synapse sourceNeuronName = "7" targetNeuronName = "72" weight = "-0.3817662461107467" />
    <synapse sourceNeuronName = "8" targetNeuronName = "37" weight = "-0.5588632449675208" />
    <synapse sourceNeuronName = "8" targetNeuronName = "38" weight = "0.6994432607503369" />
    <synapse sourceNeuronName = "8" targetNeuronName = "39" weight = "0.1814772895960559" />
    <synapse sourceNeuronName = "8" targetNeuronName = "40" weight = "-0.5123971097964626" />
    <synapse sourceNeuronName = "8" targetNeuronName = "41" weight = "0.19751680523801896" />
    <synapse sourceNeuronName = "8" targetNeuronName = "42" weight = "-0.8160117516123442" />
    <synapse sourceNeuronName = "8" targetNeuronName = "43" weight = "0.07251631837216332" />
    <synapse sourceNeuronName = "8" targetNeuronName = "44" weight = "-0.3529525189926066" />
    <synapse sourceNeuronName = "8" targetNeuronName = "45" weight = "-0.6004932571929056" />
    <synapse sourceNeuronName = "8" targetNeuronName = "46" weight = "-0.21055479702900648" />
    <synapse sourceNeuronName = "8" targetNeuronName = "47" weight = "-0.1637267806000291" />
    <synapse sourceNeuronName = "8" targetNeuronName = "48" weight = "-0.4705029308583355" />
    <synapse sourceNeuronName = "8" targetNeuronName = "49" weight = "0.3239647863541719" />
    <synapse sourceNeuronName = "8" targetNeuronName = "50" weight = "0.27375863774482734" />
    <synapse sourceNeuronName = "8" targetNeuronName = "51" weight = "-0.9100488253526671" />
    <synapse sourceNeuronName = "8" targetNeuronName = "52" weight = "-0.9580485547085127" />
    <synapse sourceNeuronName = "8" targetNeuronName = "53" weight = "-0.030922709919878777" />
    <synapse sourceNeuronName = "8" targetNeuronName = "54" weight = "-0.36295602272826977" />
    <synapse sourceNeuronName = "8" targetNeuronName = "55" weight = "-0.3129611217853461" />
    <synapse sourceNeuronName = "8" targetNeuronName = "56" weight = "0.5647491032777636" />
    <synapse sourceNeuronName = "8" targetNeuronName = "57" weight = "-0.28566817241923625" />
    <synapse sourceNeuronName = "8" targetNeuronName = "58" weight = "0.7973035793009067" />
    <synapse sourceNeuronName = "8" targetNeuronName = "59" weight = "0.6777960147611302" />
    <synapse sourceNeuronName = "8" targetNeuronName = "60" weight = "0.6652299176749406" />
    <synapse sourceNeuronName = "8" targetNeuronName = "61" weight = "0.1622552253215157" />
    <synapse sourceNeuronName = "8" targetNeuronName = "62" weight = "-0.32248418424437175" />
    <synapse sourceNeuronName = "8" targetNeuronName = "63" weight = "-0.6324591517009099" />
    <synapse sourceNeuronName = "8" targetNeuronName = "64" weight = "0.8642967597095925" />
    <synapse sourceNeuronName = "8" targetNeuronName = "65" weight = "0.8447464858321796" />
    <synapse sourceNeuronName = "8" targetNeuronName = "66" weight = "0.2826330803680308" />
    <synapse sourceNeuronName = "8" targetNeuronName = "67" weight = "0.07079452042869261" />
    <synapse sourceNeuronName = "8" targetNeuronName = "68" weight = "0.3301432617287656" />
    <synapse sourceNeuronName = "8" targetNeuronName = "69" weight = "-0.03772973575614014" />
    <synapse sourceNeuronName = "8" targetNeuronName = "70" weight = "0.47970764581088754" />
    <synapse sourceNeuronName = "8" targetNeuronName = "71" weight = "0.795967933061317" />
    <synapse sourceNeuronName = "8" targetNeuronName = "72" weight = "0.46490556311123754" />
    <synapse sourceNeuronName = "9" targetNeuronName = "37" weight = "0.7486726687036867" />
    <synapse sourceNeuronName = "9" targetNeuronName = "38" weight = "-0.6000167619544499" />
    <synapse sourceNeuronName = "9" targetNeuronName = "39" weight = "-0.847584722241524" />
    <synapse sourceNeuronName = "9" targetNeuronName = "40" weight = "-0.9572153191683821" />
    <synapse sourceNeuronName = "9" targetNeuronName = "41" weight = "0.45958007808172896" />
    <synapse sourceNeuronName = "9" targetNeuronName = "42" weight = "0.17580654524320427" />
    <synapse sourceNeuronName = "9" targetNeuronName = "43" weight = "-0.7737710944523755" />
    <synapse sourceNeuronName = "9" targetNeuronName = "44" weight = "-0.6469542024343604" />
    <synapse sourceNeuronName = "9" targetNeuronName = "45" weight = "0.6727049962564224" />
    <synapse sourceNeuronName = "9" targetNeuronName = "46" weight = "-0.401780939980116" />
    <synapse sourceNeuronName = "9" targetNeuronName = "47" weight = "-0.18542590338526255" />
    <synapse sourceNeuronName = "9" targetNeuronName = "48" weight = "-0.11971899467513625" />
    <synapse sourceNeuronName = "9" targetNeuronName = "49" weight = "-0.2117912781469764" />
    <synapse sourceNeuronName = "9" targetNeuronName = "50" weight = "-0.21865911024602802" />
    <synapse sourceNeuronName = "9" targetNeuronName = "51" weight = "-0.08696806522799361" />
    <synapse sourceNeuronName = "9" targetNeuronName = "52" weight = "0.8461558626849017" />
    <synapse sourceNeuronName = "9" targetNeuronName = "53" weight = "-0.3359297941684143" />
    <synapse sourceNeuronName = "9" targetNeuronName = "54" weight = "-0.2730334909552583" />
    <synapse sourceNeuronName = "9" targetNeuronName = "55" weight = "-0.6338515498431385" />
    <synapse sourceNeuronName = "9" targetNeuronName = "56" weight = "-0.2712831184797919" />
    <synapse sourceNeuronName = "9" targetNeuronName = "57" weight = "-0.032491345405305294" />
    <synapse sourceNeuronName = "9" targetNeuronName = "58" weight = "-0.03682422823147813" />
    <synapse sourceNeuronName = "9" targetNeuronName = "59" weight = "0.0915962981389169" />
    <synapse sourceNeuronName = "9" targetNeuronName = "60" weight = "-0.5914236037447742" />
    <synapse sourceNeuronName = "9" targetNeuronName = "61" weight = "0.8515991611688896" />
    <synapse sourceNeuronName = "9" targetNeuronName = "62" weight = "0.16935604481360134" />
    <synapse sourceNeuronName = "9" targetNeuronName = "63" weight = "0.993791035164864" />
    <synapse sourceNeuronName = "9" targetNeuronName = "64" weight = "-0.11244850953260466" />
    <synapse sourceNeuronName = "9" targetNeuronName = "65" weight = "0.33641535204936535" />
    <synapse sourceNeuronName = "9" targetNeuronName = "66" weight = "-0.541347132626373" />
    <synapse sourceNeuronName = "9" targetNeuronName = "67" weight = "-0.5690679231931557" />
    <synapse sourceNeuronName = "9" targetNeuronName = "68" weight = "0.3146365898387755" />
    <synapse sourceNeuronName = "9" targetNeuronName = "69" weight = "-0.2861822955202007" />
    <synapse sourceNeuronName = "9" targetNeuronName = "70" weight = "-0.5909063952539937" />
    <synapse sourceNeuronName = "9" targetNeuronName = "71" weight = "-0.25494750509320663" />
    <synapse sourceNeuronName = "9" targetNeuronName = "72" weight = "0.36248201332301533" />
    <synapse sourceNeuronName = "10" targetNeuronName = "37" weight = "-0.9375811159736014" />
    <synapse sourceNeuronName = "10" targetNeuronName = "38" weight = "-0.08011249203656323" />
    <synapse sourceNeuronName = "10" targetNeuronName = "39" weight = "0.03488356929155523" />
    <synapse sourceNeuronName = "10" targetNeuronName = "40" weight = "-0.6891108578544163" />
    <synapse sourceNeuronName = "10" targetNeuronName = "41" weight = "-0.4482586272890523" />
    <synapse sourceNeuronName = "10" targetNeuronName = "42" weight = "0.7560044722784958" />
    <synapse sourceNeuronName = "10" targetNeuronName = "43" weight = "-0.5873012233380073" />
    <synapse sourceNeuronName = "10" targetNeuronName = "44" weight = "0.5446849056470711" />
    <synapse sourceNeuronName = "10" targetNeuronName = "45" weight = "0.47193678118667703" />
    <synapse sourceNeuronName = "10" targetNeuronName = "46" weight = "-0.9210970708914925" />
    <synapse sourceNeuronName = "10" targetNeuronName = "47" weight = "-0.9452078070505836" />
    <synapse sourceNeuronName = "10" targetNeuronName = "48" weight = "-0.14567796703629332" />
    <synapse sourceNeuronName = "10" targetNeuronName = "49" weight = "0.9536467904713648" />
    <synapse sourceNeuronName = "10" targetNeuronName = "50" weight = "-0.46717209066721477" />
    <synapse sourceNeuronName = "10" targetNeuronName = "51" weight = "0.7027409142186309" />
    <synapse sourceNeuronName = "10" targetNeuronName = "52" weight = "-0.41246713712938066" />
    <synapse sourceNeuronName = "10" targetNeuronName = "53" weight = "-0.33382705401431045" />
    <synapse sourceNeuronName = "10" targetNeuronName = "54" weight = "0.12937852232600644" />
    <synapse sourceNeuronName = "10" targetNeuronName = "55" weight = "0.42308310029455387" />
    <synapse sourceNeuronName = "10" targetNeuronName = "56" weight = "-0.9797226348455814" />
    <synapse sourceNeuronName = "10" targetNeuronName = "57" weight = "-0.6963738998812827" />
    <synapse sourceNeuronName = "10" targetNeuronName = "58" weight = "-0.8861882568813133" />
    <synapse sourceNeuronName = "10" targetNeuronName = "59" weight = "0.3089047018242226" />
    <synapse sourceNeuronName = "10" targetNeuronName = "60" weight = "0.5222520242342303" />
    <synapse sourceNeuronName = "10" targetNeuronName = "61" weight = "-0.3939221013863712" />
    <synapse sourceNeuronName = "10" targetNeuronName = "62" weight = "-0.12074656756586544" />
    <synapse sourceNeuronName = "10" targetNeuronName = "63" weight = "0.30904204870950225" />
    <synapse sourceNeuronName = "10" targetNeuronName = "64" weight = "0.4852937019538335" />
    <synapse sourceNeuronName = "10" targetNeuronName = "65" weight = "-0.32434595620024576" />
    <synapse sourceNeuronName = "10" targetNeuronName = "66" weight = "-0.19559776652664884" />
    <synapse sourceNeuronName = "10" targetNeuronName = "67" weight = "-0.4220015535917423" />
    <synapse sourceNeuronName = "10" targetNeuronName = "68" weight = "-0.7904301414902732" />
    <synapse sourceNeuronName = "10" targetNeuronName = "69" weight = "-0.15350848013300022" />
    <synapse sourceNeuronName = "10" targetNeuronName = "70" weight = "-0.1158911388587176" />
    <synapse sourceNeuronName = "10" targetNeuronName = "71" weight = "0.3764358829607535" />
    <synapse sourceNeuronName = "10" targetNeuronName = "72" weight = "-0.7680283656371814" />
    <synapse sourceNeuronName = "11" targetNeuronName = "37" weight = "0.7471568406913089" />
    <synapse sourceNeuronName = "11" targetNeuronName = "38" weight = "0.9614747309185183" />
    <synapse sourceNeuronName = "11" targetNeuronName = "39" weight = "0.6856679070060527" />
    <synapse sourceNeuronName = "11" targetNeuronName = "40" weight = "0.6951922691664012" />
    <synapse sourceNeuronName = "11" targetNeuronName = "41" weight = "0.7027172950950362" />
    <synapse sourceNeuronName = "11" targetNeuronName = "42" weight = "0.28082700349562995" />
    <synapse sourceNeuronName = "11" targetNeuronName = "43" weight = "0.4579481228429545" />
    <synapse sourceNeuronName = "11" targetNeuronName = "44" weight = "0.42422120534585894" />
    <synapse sourceNeuronName = "11" targetNeuronName = "45" weight = "-0.9977378592322426" />
    <synapse sourceNeuronName = "11" targetNeuronName = "46" weight = "-0.29810326964739664" />
    <synapse sourceNeuronName = "11" targetNeuronName = "47" weight = "-0.6509093159067929" />
    <synapse sourceNeuronName = "11" targetNeuronName = "48" weight = "0.5180934874862475" />
    <synapse sourceNeuronName = "11" targetNeuronName = "49" weight = "-0.6759478610764511" />
    <synapse sourceNeuronName = "11" targetNeuronName = "50" weight = "-0.9691533144975772" />
    <synapse sourceNeuronName = "11" targetNeuronName = "51" weight = "-0.10583186369336328" />
    <synapse sourceNeuronName = "11" targetNeuronName = "52" weight = "0.9377845488348033" />
    <synapse sourceNeuronName = "11" targetNeuronName = "53" weight = "0.060976044087451164" />
    <synapse sourceNeuronName = "11" targetNeuronName = "54" weight = "0.6505226911860562" />
    <synapse sourceNeuronName = "11" targetNeuronName = "55" weight = "0.1354503905023421" />
    <synapse sourceNeuronName = "11" targetNeuronName = "56" weight = "0.36504142694813124" />
    <synapse sourceNeuronName = "11" targetNeuronName = "57" weight = "-0.19672217334411668" />
    <synapse sourceNeuronName = "11" targetNeuronName = "58" weight = "-0.3875987506620482" />
    <synapse sourceNeuronName = "11" targetNeuronName = "59" weight = "0.9459464142629359" />
    <synapse sourceNeuronName = "11" targetNeuronName = "60" weight = "0.02615282133528285" />
    <synapse sourceNeuronName = "11" targetNeuronName = "61" weight = "-0.7433072238611222" />
    <synapse sourceNeuronName = "11" targetNeuronName = "62" weight = "-0.6138995251126917" />
    <synapse sourceNeuronName = "11" targetNeuronName = "63" weight = "-0.7406708857266697" />
    <synapse sourceNeuronName = "11" targetNeuronName = "64" weight = "0.8487074291836543" />
    <synapse sourceNeuronName = "11" targetNeuronName = "65" weight = "-0.4442388708323184" />
    <synapse sourceNeuronName = "11" targetNeuronName = "66" weight = "0.10824799886339176" />
    <synapse sourceNeuronName = "11" targetNeuronName = "67" weight = "0.18727446320649466" />
    <synapse sourceNeuronName = "11" targetNeuronName = "68" weight = "0.5070715239224297" />
    <synapse sourceNeuronName = "11" targetNeuronName = "69" weight = "0.29873212302543717" />
    <synapse sourceNeuronName = "11" targetNeuronName = "70" weight = "-0.956077178440077" />
    <synapse sourceNeuronName = "11" targetNeuronName = "71" weight = "-0.6696358308780379" />
    <synapse sourceNeuronName = "11" targetNeuronName = "72" weight = "-0.673110288986384" />
    <synapse sourceNeuronName = "12" targetNeuronName = "37" weight = "-0.36371506711651147" />
    <synapse sourceNeuronName = "12" targetNeuronName = "38" weight = "0.5907260458897741" />
    <synapse sourceNeuronName = "12" targetNeuronName = "39" weight = "0.906527812596386" />
    <synapse sourceNeuronName = "12" targetNeuronName = "40" weight = "-0.861593505935554" />
    <synapse sourceNeuronName = "12" targetNeuronName = "41" weight = "-0.978929395525137" />
    <synapse sourceNeuronName = "12" targetNeuronName = "42" weight = "0.30561314912298143" />
    <synapse sourceNeuronName = "12" targetNeuronName = "43" weight = "-0.40064480825605586" />
    <synapse sourceNeuronName = "12" targetNeuronName = "44" weight = "-0.6438283002847531" />
    <synapse sourceNeuronName = "12" targetNeuronName = "45" weight = "0.4088402403704863" />
    <synapse sourceNeuronName = "12" targetNeuronName = "46" weight = "0.8688043344648688" />
    <synapse sourceNeuronName = "12" targetNeuronName = "47" weight = "0.6935122449746849" />
    <synapse sourceNeuronName = "12" targetNeuronName = "48" weight = "0.08297674111408204" />
    <synapse sourceNeuronName = "12" targetNeuronName = "49" weight = "0.6185816014604908" />
    <synapse sourceNeuronName = "12" targetNeuronName = "50" weight = "-0.28154215692068774" />
    <synapse sourceNeuronName = "12" targetNeuronName = "51" weight = "-0.3825886451339544" />
    <synapse sourceNeuronName = "12" targetNeuronName = "52" weight = "0.22665443048831002" />
    <synapse sourceNeuronName = "12" targetNeuronName = "53" weight = "-0.18163862228104333" />
    <synapse sourceNeuronName = "12" targetNeuronName = "54" weight = "-0.7809544442133716" />
    <synapse sourceNeuronName = "12" targetNeuronName = "55" weight = "-0.17270540655247935" />
    <synapse sourceNeuronName = "12" targetNeuronName = "56" weight = "-0.6906102175557995" />
    <synapse sourceNeuronName = "12" targetNeuronName = "57" weight = "-0.8359722168410575" />
    <synapse sourceNeuronName = "12" targetNeuronName = "58" weight = "-0.23340620717305538" />
    <synapse sourceNeuronName = "12" targetNeuronName = "59" weight = "0.20601233673139818" />
    <synapse sourceNeuronName = "12" targetNeuronName = "60" weight = "0.7032431672169002" />
    <synapse sourceNeuronName = "12" targetNeuronName = "61" weight = "-0.7138700207793218" />
    <synapse sourceNeuronName = "12" targetNeuronName = "62" weight = "-0.9236713848107587" />
    <synapse sourceNeuronName = "12" targetNeuronName = "63" weight = "-0.2834252862320199" />
    <synapse sourceNeuronName = "12" targetNeuronName = "64" weight = "0.5469184282690314" />
    <synapse sourceNeuronName = "12" targetNeuronName = "65" weight = "0.2823364478571462" />
    <synapse sourceNeuronName = "12" targetNeuronName = "66" weight = "0.9535477159439816" />
    <synapse sourceNeuronName = "12" targetNeuronName = "67" weight = "-0.38774265746754066" />
    <synapse sourceNeuronName = "12" targetNeuronName = "68" weight = "0.31073490333227016" />
    <synapse sourceNeuronName = "12" targetNeuronName = "69" weight = "-0.7584971873999793" />
    <synapse sourceNeuronName = "12" targetNeuronName = "70" weight = "0.4133689507442586" />
    <synapse sourceNeuronName = "12" targetNeuronName = "71" weight = "0.2561171927815733" />
    <synapse sourceNeuronName = "12" targetNeuronName = "72" weight = "0.8409078041728708" />
    <synapse sourceNeuronName = "13" targetNeuronName = "37" weight = "0.422477610393142" />
    <synapse sourceNeuronName = "13" targetNeuronName = "38" weight = "-0.42021727978058143" />
    <synapse sourceNeuronName = "13" targetNeuronName = "39" weight = "-0.2833102355247421" />
    <synapse sourceNeuronName = "13" targetNeuronName = "40" weight = "-0.060287595723763854" />
    <synapse sourceNeuronName = "13" targetNeuronName = "41" weight = "0.4708303705375312" />
    <synapse sourceNeuronName = "13" targetNeuronName = "42" weight = "-0.4870896513354144" />
    <synapse sourceNeuronName = "13" targetNeuronName = "43" weight = "-0.5794571376564459" />
    <synapse sourceNeuronName = "13" targetNeuronName = "44" weight = "0.21313228901576808" />
    <synapse sourceNeuronName = "13" targetNeuronName = "45" weight = "-0.5513594569902267" />
    <synapse sourceNeuronName = "13" targetNeuronName = "46" weight = "-0.48575696315909545" />
    <synapse sourceNeuronName = "13" targetNeuronName = "47" weight = "-0.5487755345182401" />
    <synapse sourceNeuronName = "13" targetNeuronName = "48" weight = "0.26302772811588415" />
    <synapse sourceNeuronName = "13" targetNeuronName = "49" weight = "-0.2846520208486387" />
    <synapse sourceNeuronName = "13" targetNeuronName = "50" weight = "-0.8229618169397965" />
    <synapse sourceNeuronName = "13" targetNeuronName = "51" weight = "-0.8377148520242332" />
    <synapse sourceNeuronName = "13" targetNeuronName = "52" weight = "-0.698192687661773" />
    <synapse sourceNeuronName = "13" targetNeuronName = "53" weight = "0.0067354538587851565" />
    <synapse sourceNeuronName = "13" targetNeuronName = "54" weight = "0.3692652847009701" />
    <synapse sourceNeuronName = "13" targetNeuronName = "55" weight = "-0.22058734547373327" />
    <synapse sourceNeuronName = "13" targetNeuronName = "56" weight = "-0.8127411788990611" />
    <synapse sourceNeuronName = "13" targetNeuronName = "57" weight = "-0.4410025785770697" />
    <synapse sourceNeuronName = "13" targetNeuronName = "58" weight = "-0.9699650361074401" />
    <synapse sourceNeuronName = "13" targetNeuronName = "59" weight = "0.7769069758630702" />
    <synapse sourceNeuronName = "13" targetNeuronName = "60" weight = "-0.37767775052477837" />
    <synapse sourceNeuronName = "13" targetNeuronName = "61" weight = "0.5570360023826593" />
    <synapse sourceNeuronName = "13" targetNeuronName = "62" weight = "0.07314579862555082" />
    <synapse sourceNeuronName = "13" targetNeuronName = "63" weight = "0.632600160738735" />
    <synapse sourceNeuronName = "13" targetNeuronName = "64" weight = "0.2044997292966375" />
    <synapse sourceNeuronName = "13" targetNeuronName = "65" weight = "-0.03732658117883858" />
    <synapse sourceNeuronName = "13" targetNeuronName = "66" weight = "0.5377186842618962" />
    <synapse sourceNeuronName = "13" targetNeuronName = "67" weight = "0.9404919599926316" />
    <synapse sourceNeuronName = "13" targetNeuronName = "68" weight = "-0.5467633334985604" />
    <synapse sourceNeuronName = "13" targetNeuronName = "69" weight = "0.43313704798013974" />
    <synapse sourceNeuronName = "13" targetNeuronName = "70" weight = "-0.3976938827845715" />
    <synapse sourceNeuronName = "13" targetNeuronName = "71" weight = "0.10647077579966302" />
    <synapse sourceNeuronName = "13" targetNeuronName = "72" weight = "0.6671726185723346" />
    <synapse sourceNeuronName = "14" targetNeuronName = "37" weight = "-0.7376797586848804" />
    <synapse sourceNeuronName = "14" targetNeuronName = "38" weight = "0.5474250013067656" />
    <synapse sourceNeuronName = "14" targetNeuronName = "39" weight = "-0.4895429511946561" />
    <synapse sourceNeuronName = "14" targetNeuronName = "40" weight = "0.8090513938340951" />
    <synapse sourceNeuronName = "14" targetNeuronName = "41" weight = "-0.7786084749940274" />
    <synapse sourceNeuronName = "14" targetNeuronName = "42" weight = "0.3846669719732836" />
    <synapse sourceNeuronName = "14" targetNeuronName = "43" weight = "0.9544116139539833" />
    <synapse sourceNeuronName = "14" targetNeuronName = "44" weight = "-0.1609113520784935" />
    <synapse sourceNeuronName = "14" targetNeuronName = "45" weight = "-0.03751613544963206" />
    <synapse sourceNeuronName = "14" targetNeuronName = "46" weight = "0.44466604929573506" />
    <synapse sourceNeuronName = "14" targetNeuronName = "47" weight = "-0.6902724555711599" />
    <synapse sourceNeuronName = "14" targetNeuronName = "48" weight = "0.6319234607040849" />
    <synapse sourceNeuronName = "14" targetNeuronName = "49" weight = "-0.450720598784105" />
    <synapse sourceNeuronName = "14" targetNeuronName = "50" weight = "-0.45221502089099097" />
    <synapse sourceNeuronName = "14" targetNeuronName = "51" weight = "-0.13378965101298568" />
    <synapse sourceNeuronName = "14" targetNeuronName = "52" weight = "-0.6591373277954089" />
    <synapse sourceNeuronName = "14" targetNeuronName = "53" weight = "0.7756733578087052" />
    <synapse sourceNeuronName = "14" targetNeuronName = "54" weight = "-0.5446882817116823" />
    <synapse sourceNeuronName = "14" targetNeuronName = "55" weight = "-0.5278670419010301" />
    <synapse sourceNeuronName = "14" targetNeuronName = "56" weight = "0.1935772223004617" />
    <synapse sourceNeuronName = "14" targetNeuronName = "57" weight = "0.42359220985313817" />
    <synapse sourceNeuronName = "14" targetNeuronName = "58" weight = "0.609710654449847" />
    <synapse sourceNeuronName = "14" targetNeuronName = "59" weight = "-0.3137487418504523" />
    <synapse sourceNeuronName = "14" targetNeuronName = "60" weight = "0.8937299086770321" />
    <synapse sourceNeuronName = "14" targetNeuronName = "61" weight = "0.3940598122802068" />
    <synapse sourceNeuronName = "14" targetNeuronName = "62" weight = "0.9782705351686984" />
    <synapse sourceNeuronName = "14" targetNeuronName = "63" weight = "-0.47206867256905194" />
    <synapse sourceNeuronName = "14" targetNeuronName = "64" weight = "-0.03629944624522574" />
    <synapse sourceNeuronName = "14" targetNeuronName = "65" weight = "0.9580549668366638" />
    <synapse sourceNeuronName = "14" targetNeuronName = "66" weight = "0.43229213096135943" />
    <synapse sourceNeuronName = "14" targetNeuronName = "67" weight = "0.37998194747314207" />
    <synapse sourceNeuronName = "14" targetNeuronName = "68" weight = "-0.045379306603978486" />
    <synapse sourceNeuronName = "14" targetNeuronName = "69" weight = "0.6047448483585449" />
    <synapse sourceNeuronName = "14" targetNeuronName = "70" weight = "0.1917138010157915" />
    <synapse sourceNeuronName = "14" targetNeuronName = "71" weight = "0.1555911495619462" />
    <synapse sourceNeuronName = "14" targetNeuronName = "72" weight = "-0.4174998371569376" />
    <synapse sourceNeuronName = "15" targetNeuronName = "37" weight = "-0.30971026759963327" />
    <synapse sourceNeuronName = "15" targetNeuronName = "38" weight = "0.808327861374118" />
    <synapse sourceNeuronName = "15" targetNeuronName = "39" weight = "0.19512105103559585" />
    <synapse sourceNeuronName = "15" targetNeuronName = "40" weight = "0.487438687834471" />
    <synapse sourceNeuronName = "15" targetNeuronName = "41" weight = "-0.2430004964264023" />
    <synapse sourceNeuronName = "15" targetNeuronName = "42" weight = "-0.8280433678361367" />
    <synapse sourceNeuronName = "15" targetNeuronName = "43" weight = "0.7047584951570416" />
    <synapse sourceNeuronName = "15" targetNeuronName = "44" weight = "0.23269185405277382" />
    <synapse sourceNeuronName = "15" targetNeuronName = "45" weight = "0.02221626701402335" />
    <synapse sourceNeuronName = "15" targetNeuronName = "46" weight = "-0.6911887697341674" />
    <synapse sourceNeuronName = "15" targetNeuronName = "47" weight = "-0.7133431979007663" />
    <synapse sourceNeuronName = "15" targetNeuronName = "48" weight = "0.8599406982173068" />
    <synapse sourceNeuronName = "15" targetNeuronName = "49" weight = "-0.2375456364893036" />
    <synapse sourceNeuronName = "15" targetNeuronName = "50" weight = "0.13156549463716982" />
    <synapse sourceNeuronName = "15" targetNeuronName = "51" weight = "0.4271274643092309" />
    <synapse sourceNeuronName = "15" targetNeuronName = "52" weight = "-0.005385410998822282" />
    <synapse sourceNeuronName = "15" targetNeuronName = "53" weight = "0.36484220332910544" />
    <synapse sourceNeuronName = "15" targetNeuronName = "54" weight = "-0.301692006818441" />
    <synapse sourceNeuronName = "15" targetNeuronName = "55" weight = "0.681519632632634" />
    <synapse sourceNeuronName = "15" targetNeuronName = "56" weight = "-0.36906204761366457" />
    <synapse sourceNeuronName = "15" targetNeuronName = "57" weight = "0.9804587305100954" />
    <synapse sourceNeuronName = "15" targetNeuronName = "58" weight = "0.928888419483727" />
    <synapse sourceNeuronName = "15" targetNeuronName = "59" weight = "-0.5793681675577165" />
    <synapse sourceNeuronName = "15" targetNeuronName = "60" weight = "-0.9444277880040239" />
    <synapse sourceNeuronName = "15" targetNeuronName = "61" weight = "0.06739868959561113" />
    <synapse sourceNeuronName = "15" targetNeuronName = "62" weight = "0.9781966002684315" />
    <synapse sourceNeuronName = "15" targetNeuronName = "63" weight = "0.02150177698452249" />
    <synapse sourceNeuronName = "15" targetNeuronName = "64" weight = "0.47658067688122374" />
    <synapse sourceNeuronName = "15" targetNeuronName = "65" weight = "-0.9687055347214502" />
    <synapse sourceNeuronName = "15" targetNeuronName = "66" weight = "0.913400837582784" />
    <synapse sourceNeuronName = "15" targetNeuronName = "67" weight = "-0.449036525112277" />
    <synapse sourceNeuronName = "15" targetNeuronName = "68" weight = "-0.4444714893602042" />
    <synapse sourceNeuronName = "15" targetNeuronName = "69" weight = "0.41894145209816025" />
    <synapse sourceNeuronName = "15" targetNeuronName = "70" weight = "-0.20797208757733343" />
    <synapse sourceNeuronName = "15" targetNeuronName = "71" weight = "-0.6369161248350463" />
    <synapse sourceNeuronName = "15" targetNeuronName = "72" weight = "-0.5842112071889041" />
    <synapse sourceNeuronName = "16" targetNeuronName = "37" weight = "0.4578094891903197" />
    <synapse sourceNeuronName = "16" targetNeuronName = "38" weight = "-0.628252419437904" />
    <synapse sourceNeuronName = "16" targetNeuronName = "39" weight = "0.40869767109262045" />
    <synapse sourceNeuronName = "16" targetNeuronName = "40" weight = "0.8086329757292012" />
    <synapse sourceNeuronName = "16" targetNeuronName = "41" weight = "-0.3412538439647961" />
    <synapse sourceNeuronName = "16" targetNeuronName = "42" weight = "0.17868048488256139" />
    <synapse sourceNeuronName = "16" targetNeuronName = "43" weight = "-0.6912999453692394" />
    <synapse sourceNeuronName = "16" targetNeuronName = "44" weight = "0.0388040740656852" />
    <synapse sourceNeuronName = "16" targetNeuronName = "45" weight = "-0.08690764310255061" />
    <synapse sourceNeuronName = "16" targetNeuronName = "46" weight = "-0.46452262555510315" />
    <synapse sourceNeuronName = "16" targetNeuronName = "47" weight = "-0.05822217767425286" />
    <synapse sourceNeuronName = "16" targetNeuronName = "48" weight = "0.19263473064858094" />
    <synapse sourceNeuronName = "16" targetNeuronName = "49" weight = "-0.01715544261180524" />
    <synapse sourceNeuronName = "16" targetNeuronName = "50" weight = "0.2330086277685568" />
    <synapse sourceNeuronName = "16" targetNeuronName = "51" weight = "0.361545021946134" />
    <synapse sourceNeuronName = "16" targetNeuronName = "52" weight = "0.34267784899010634" />
    <synapse sourceNeuronName = "16" targetNeuronName = "53" weight = "-0.014694328401013923" />
    <synapse sourceNeuronName = "16" targetNeuronName = "54" weight = "0.8941413528794178" />
    <synapse sourceNeuronName = "16" targetNeuronName = "55" weight = "0.0724416177733811" />
    <synapse sourceNeuronName = "16" targetNeuronName = "56" weight = "-0.7291560956332961" />
    <synapse sourceNeuronName = "16" targetNeuronName = "57" weight = "0.521829193543877" />
    <synapse sourceNeuronName = "16" targetNeuronName = "58" weight = "-0.19074254832315618" />
    <synapse sourceNeuronName = "16" targetNeuronName = "59" weight = "0.11098579976973233" />
    <synapse sourceNeuronName = "16" targetNeuronName = "60" weight = "-0.9501734456319253" />
    <synapse sourceNeuronName = "16" targetNeuronName = "61" weight = "-0.47255476592018564" />
    <synapse sourceNeuronName = "16" targetNeuronName = "62" weight = "0.5529446111467449" />
    <synapse sourceNeuronName = "16" targetNeuronName = "63" weight = "-0.3188851942179578" />
    <synapse sourceNeuronName = "16" targetNeuronName = "64" weight = "-0.47550303242586467" />
    <synapse sourceNeuronName = "16" targetNeuronName = "65" weight = "0.8425075481436353" />
    <synapse sourceNeuronName = "16" targetNeuronName = "66" weight = "0.7940837363771691" />
    <synapse sourceNeuronName = "16" targetNeuronName = "67" weight = "-0.6895338230989885" />
    <synapse sourceNeuronName = "16" targetNeuronName = "68" weight = "-0.1509719309094646" />
    <synapse sourceNeuronName = "16" targetNeuronName = "69" weight = "0.8770374514574837" />
    <synapse sourceNeuronName = "16" targetNeuronName = "70" weight = "0.9664577904481213" />
    <synapse sourceNeuronName = "16" targetNeuronName = "71" weight = "-0.5853437186922155" />
    <synapse sourceNeuronName = "16" targetNeuronName = "72" weight = "0.41299222372146827" />
    <synapse sourceNeuronName = "17" targetNeuronName = "37" weight = "0.2457540815083581" />
    <synapse sourceNeuronName = "17" targetNeuronName = "38" weight = "0.8255862039633546" />
    <synapse sourceNeuronName = "17" targetNeuronName = "39" weight = "-0.6280267943742155" />
    <synapse sourceNeuronName = "17" targetNeuronName = "40" weight = "-0.7779311747918982" />
    <synapse sourceNeuronName = "17" targetNeuronName = "41" weight = "-0.60158639445861" />
    <synapse sourceNeuronName = "17" targetNeuronName = "42" weight = "-0.3842075058036727" />
    <synapse sourceNeuronName = "17" targetNeuronName = "43" weight = "-0.06959021355396122" />
    <synapse sourceNeuronName = "17" targetNeuronName = "44" weight = "0.680381743391475" />
    <synapse sourceNeuronName = "17" targetNeuronName = "45" weight = "0.3700892448063948" />
    <synapse sourceNeuronName = "17" targetNeuronName = "46" weight = "0.8413417300768229" />
    <synapse sourceNeuronName = "17" targetNeuronName = "47" weight = "-0.9023607937451223" />
    <synapse sourceNeuronName = "17" targetNeuronName = "48" weight = "0.2536619647107017" />
    <synapse sourceNeuronName = "17" targetNeuronName = "49" weight = "0.09650303847060226" />
    <synapse sourceNeuronName = "17" targetNeuronName = "50" weight = "-0.38065677774101325" />
    <synapse sourceNeuronName = "17" targetNeuronName = "51" weight = "-0.13234796292113926" />
    <synapse sourceNeuronName = "17" targetNeuronName = "52" weight = "-0.7991703922872404" />
    <synapse sourceNeuronName = "17" targetNeuronName = "53" weight = "0.050891831269390675" />
    <synapse sourceNeuronName = "17" targetNeuronName = "54" weight = "0.772292558329501" />
    <synapse sourceNeuronName = "17" targetNeuronName = "55" weight = "-0.9240840658406224" />
    <synapse sourceNeuronName = "17" targetNeuronName = "56" weight = "0.5098654885246017" />
    <synapse sourceNeuronName = "17" targetNeuronName = "57" weight = "0.23835956932701263" />
    <synapse sourceNeuronName = "17" targetNeuronName = "58" weight = "-0.6651953394004706" />
    <synapse sourceNeuronName = "17" targetNeuronName = "59" weight = "0.6483460531350069" />
    <synapse sourceNeuronName = "17" targetNeuronName = "60" weight = "-0.8554695844102986" />
    <synapse sourceNeuronName = "17" targetNeuronName = "61" weight = "-0.7399280107555761" />
    <synapse sourceNeuronName = "17" targetNeuronName = "62" weight = "-0.7403398113188824" />
    <synapse sourceNeuronName = "17" targetNeuronName = "63" weight = "-0.799664382866974" />
    <synapse sourceNeuronName = "17" targetNeuronName = "64" weight = "-0.12052044831323028" />
    <synapse sourceNeuronName = "17" targetNeuronName = "65" weight = "0.5367804219835473" />
    <synapse sourceNeuronName = "17" targetNeuronName = "66" weight = "-0.8686482350896858" />
    <synapse sourceNeuronName = "17" targetNeuronName = "67" weight = "0.15901126924588582" />
    <synapse sourceNeuronName = "17" targetNeuronName = "68" weight = "-0.05662463907659854" />
    <synapse sourceNeuronName = "17" targetNeuronName = "69" weight = "0.27765848135611293" />
    <synapse sourceNeuronName = "17" targetNeuronName = "70" weight = "0.20517831086891736" />
    <synapse sourceNeuronName = "17" targetNeuronName = "71" weight = "0.040740746701913855" />
    <synapse sourceNeuronName = "17" targetNeuronName = "72" weight = "0.35981282897090283" />
    <synapse sourceNeuronName = "18" targetNeuronName = "37" weight = "-0.3833892641678709" />
    <synapse sourceNeuronName = "18" targetNeuronName = "38" weight = "0.053058995587400126" />
    <synapse sourceNeuronName = "18" targetNeuronName = "39" weight = "-0.2781678850173279" />
    <synapse sourceNeuronName = "18" targetNeuronName = "40" weight = "0.28690217169584176" />
    <synapse sourceNeuronName = "18" targetNeuronName = "41" weight = "0.12104565084726215" />
    <synapse sourceNeuronName = "18" targetNeuronName = "42" weight = "0.4735444629071339" />
    <synapse sourceNeuronName = "18" targetNeuronName = "43" weight = "-0.19087227467675238" />
    <synapse sourceNeuronName = "18" targetNeuronName = "44" weight = "-0.40062185947254614" />
    <synapse sourceNeuronName = "18" targetNeuronName = "45" weight = "-0.022247469440696" />
    <synapse sourceNeuronName = "18" targetNeuronName = "46" weight = "0.8529431036914426" />
    <synapse sourceNeuronName = "18" targetNeuronName = "47" weight = "-0.2757896307749905" />
    <synapse sourceNeuronName = "18" targetNeuronName = "48" weight = "0.8897238031229733" />
    <synapse sourceNeuronName = "18" targetNeuronName = "49" weight = "-0.1876774131070904" />
    <synapse sourceNeuronName = "18" targetNeuronName = "50" weight = "-0.3829811348235854" />
    <synapse sourceNeuronName = "18" targetNeuronName = "51" weight = "-0.9336432111613362" />
    <synapse sourceNeuronName = "18" targetNeuronName = "52" weight = "0.09456171430496751" />
    <synapse sourceNeuronName = "18" targetNeuronName = "53" weight = "-0.3199445114879933" />
    <synapse sourceNeuronName = "18" targetNeuronName = "54" weight = "-0.9388401264541271" />
    <synapse sourceNeuronName = "18" targetNeuronName = "55" weight = "-0.3756591419543227" />
    <synapse sourceNeuronName = "18" targetNeuronName = "56" weight = "0.768134617700982" />
    <synapse sourceNeuronName = "18" targetNeuronName = "57" weight = "0.46980220301094033" />
    <synapse sourceNeuronName = "18" targetNeuronName = "58" weight = "0.013092739469788395" />
    <synapse sourceNeuronName = "18" targetNeuronName = "59" weight = "0.8940101639286209" />
    <synapse sourceNeuronName = "18" targetNeuronName = "60" weight = "-0.959813123507854" />
    <synapse sourceNeuronName = "18" targetNeuronName = "61" weight = "0.7789903226828632" />
    <synapse sourceNeuronName = "18" targetNeuronName = "62" weight = "0.11330765588818581" />
    <synapse sourceNeuronName = "18" targetNeuronName = "63" weight = "0.6660522094995078" />
    <synapse sourceNeuronName = "18" targetNeuronName = "64" weight = "0.6875458884693164" />
    <synapse sourceNeuronName = "18" targetNeuronName = "65" weight = "0.5213124916792276" />
    <synapse sourceNeuronName = "18" targetNeuronName = "66" weight = "0.8521778840275787" />
    <synapse sourceNeuronName = "18" targetNeuronName = "67" weight = "-0.7082999526055538" />
    <synapse sourceNeuronName = "18" targetNeuronName = "68" weight = "0.6456168282813368" />
    <synapse sourceNeuronName = "18" targetNeuronName = "69" weight = "-0.04638178617383515" />
    <synapse sourceNeuronName = "18" targetNeuronName = "70" weight = "0.8439311184571552" />
    <synapse sourceNeuronName = "18" targetNeuronName = "71" weight = "0.019472011039846526" />
    <synapse sourceNeuronName = "18" targetNeuronName = "72" weight = "-0.933279354174626" />
    <synapse sourceNeuronName = "19" targetNeuronName = "37" weight = "0.8877687563148788" />
    <synapse sourceNeuronName = "19" targetNeuronName = "38" weight = "0.6886674565163522" />
    <synapse sourceNeuronName = "19" targetNeuronName = "39" weight = "-0.24328828471283548" />
    <synapse sourceNeuronName = "19" targetNeuronName = "40" weight = "0.6320625055916422" />
    <synapse sourceNeuronName = "19" targetNeuronName = "41" weight = "-0.7222772926134562" />
    <synapse sourceNeuronName = "19" targetNeuronName = "42" weight = "0.8688128652783931" />
    <synapse sourceNeuronName = "19" targetNeuronName = "43" weight = "-0.6530538236248662" />
    <synapse sourceNeuronName = "19" targetNeuronName = "44" weight = "0.9050310927595655" />
    <synapse sourceNeuronName = "19" targetNeuronName = "45" weight = "0.9163515711684944" />
    <synapse sourceNeuronName = "19" targetNeuronName = "46" weight = "0.2500094329371376" />
    <synapse sourceNeuronName = "19" targetNeuronName = "47" weight = "0.25865377441574133" />
    <synapse sourceNeuronName = "19" targetNeuronName = "48" weight = "0.19771534887341247" />
    <synapse sourceNeuronName = "19" targetNeuronName = "49" weight = "0.45063382272021735" />
    <synapse sourceNeuronName = "19" targetNeuronName = "50" weight = "-0.7654500223079037" />
    <synapse sourceNeuronName = "19" targetNeuronName = "51" weight = "0.5538883204012559" />
    <synapse sourceNeuronName = "19" targetNeuronName = "52" weight = "-0.05595016072781811" />
    <synapse sourceNeuronName = "19" targetNeuronName = "53" weight = "0.5766138525557118" />
    <synapse sourceNeuronName = "19" targetNeuronName = "54" weight = "-0.06414282177703856" />
    <synapse sourceNeuronName = "19" targetNeuronName = "55" weight = "0.04985861057433327" />
    <synapse sourceNeuronName = "19" targetNeuronName = "56" weight = "-0.6159235082910042" />
    <synapse sourceNeuronName = "19" targetNeuronName = "57" weight = "0.8682549608031136" />
    <synapse sourceNeuronName = "19" targetNeuronName = "58" weight = "-0.08172027692473938" />
    <synapse sourceNeuronName = "19" targetNeuronName = "59" weight = "-0.01475035771803257" />
    <synapse sourceNeuronName = "19" targetNeuronName = "60" weight = "0.27473193428236686" />
    <synapse sourceNeuronName = "19" targetNeuronName = "61" weight = "0.7893784849887064" />
    <synapse sourceNeuronName = "19" targetNeuronName = "62" weight = "-0.42037792095622195" />
    <synapse sourceNeuronName = "19" targetNeuronName = "63" weight = "-0.04066651320818937" />
    <synapse sourceNeuronName = "19" targetNeuronName = "64" weight = "-0.5773878286229073" />
    <synapse sourceNeuronName = "19" targetNeuronName = "65" weight = "0.8709764937878104" />
    <synapse sourceNeuronName = "19" targetNeuronName = "66" weight = "0.18792650945644018" />
    <synapse sourceNeuronName = "19" targetNeuronName = "67" weight = "-0.31196513022893013" />
    <synapse sourceNeuronName = "19" targetNeuronName = "68" weight = "0.18485153145388633" />
    <synapse sourceNeuronName = "19" targetNeuronName = "69" weight = "0.4694246509342357" />
    <synapse sourceNeuronName = "19" targetNeuronName = "70" weight = "-0.19633942065601473" />
    <synapse sourceNeuronName = "19" targetNeuronName = "71" weight = "-0.2997571183927137" />
    <synapse sourceNeuronName = "19" targetNeuronName = "72" weight = "0.710747266403841" />
    <synapse sourceNeuronName = "20" targetNeuronName = "37" weight = "-0.4157652768553066" />
    <synapse sourceNeuronName = "20" targetNeuronName = "38" weight = "-0.19411100756172406" />
    <synapse sourceNeuronName = "20" targetNeuronName = "39" weight = "0.9340323735276455" />
    <synapse sourceNeuronName = "20" targetNeuronName = "40" weight = "-0.4296768280458043" />
    <synapse sourceNeuronName = "20" targetNeuronName = "41" weight = "0.29445721141898495" />
    <synapse sourceNeuronName = "20" targetNeuronName = "42" weight = "-0.12659338686539812" />
    <synapse sourceNeuronName = "20" targetNeuronName = "43" weight = "-0.8073519893257117" />
    <synapse sourceNeuronName = "20" targetNeuronName = "44" weight = "-0.9476281101745523" />
    <synapse sourceNeuronName = "20" targetNeuronName = "45" weight = "-0.6265365208386842" />
    <synapse sourceNeuronName = "20" targetNeuronName = "46" weight = "-0.8280758796329049" />
    <synapse sourceNeuronName = "20" targetNeuronName = "47" weight = "0.2354961731471905" />
    <synapse sourceNeuronName = "20" targetNeuronName = "48" weight = "-0.8002527770321362" />
    <synapse sourceNeuronName = "20" targetNeuronName = "49" weight = "-0.6559462224715489" />
    <synapse sourceNeuronName = "20" targetNeuronName = "50" weight = "0.7800963810709616" />
    <synapse sourceNeuronName = "20" targetNeuronName = "51" weight = "0.8920929892497571" />
    <synapse sourceNeuronName = "20" targetNeuronName = "52" weight = "-0.38142072143856787" />
    <synapse sourceNeuronName = "20" targetNeuronName = "53" weight = "0.6164692180195719" />
    <synapse sourceNeuronName = "20" targetNeuronName = "54" weight = "-0.5079508143432669" />
    <synapse sourceNeuronName = "20" targetNeuronName = "55" weight = "-0.670392110881834" />
    <synapse sourceNeuronName = "20" targetNeuronName = "56" weight = "0.3528005259661806" />
    <synapse sourceNeuronName = "20" targetNeuronName = "57" weight = "-0.060820866892361325" />
    <synapse sourceNeuronName = "20" targetNeuronName = "58" weight = "0.5579522596173287" />
    <synapse sourceNeuronName = "20" targetNeuronName = "59" weight = "-0.5896811838344929" />
    <synapse sourceNeuronName = "20" targetNeuronName = "60" weight = "-0.30279316313050275" />
    <synapse sourceNeuronName = "20" targetNeuronName = "61" weight = "-0.709228143908915" />
    <synapse sourceNeuronName = "20" targetNeuronName = "62" weight = "0.6870021153307209" />
    <synapse sourceNeuronName = "20" targetNeuronName = "63" weight = "-0.8814956731705272" />
    <synapse sourceNeuronName = "20" targetNeuronName = "64" weight = "0.884147304594378" />
    <synapse sourceNeuronName = "20" targetNeuronName = "65" weight = "0.3375606131706479" />
    <synapse sourceNeuronName = "20" targetNeuronName = "66" weight = "0.8886070487660085" />
    <synapse sourceNeuronName = "20" targetNeuronName = "67" weight = "0.12334360195798388" />
    <synapse sourceNeuronName = "20" targetNeuronName = "68" weight = "-0.37071457078414505" />
    <synapse sourceNeuronName = "20" targetNeuronName = "69" weight = "-0.6583416918163594" />
    <synapse sourceNeuronName = "20" targetNeuronName = "70" weight = "0.07092670015147307" />
    <synapse sourceNeuronName = "20" targetNeuronName = "71" weight = "0.13096828370546398" />
    <synapse sourceNeuronName = "20" targetNeuronName = "72" weight = "0.001248506651524428" />
    <synapse sourceNeuronName = "21" targetNeuronName = "37" weight = "-0.510968683678805" />
    <synapse sourceNeuronName = "21" targetNeuronName = "38" weight = "-0.17560012914670264" />
    <synapse sourceNeuronName = "21" targetNeuronName = "39" weight = "-0.9602431347411999" />
    <synapse sourceNeuronName = "21" targetNeuronName = "40" weight = "0.9548323522453417" />
    <synapse sourceNeuronName = "21" targetNeuronName = "41" weight = "0.10080547469184786" />
    <synapse sourceNeuronName = "21" targetNeuronName = "42" weight = "0.8670530499947153" />
    <synapse sourceNeuronName = "21" targetNeuronName = "43" weight = "-0.06997970291594613" />
    <synapse sourceNeuronName = "21" targetNeuronName = "44" weight = "-0.11328680199022201" />
    <synapse sourceNeuronName = "21" targetNeuronName = "45" weight = "-0.9112499904388651" />
    <synapse sourceNeuronName = "21" targetNeuronName = "46" weight = "-0.48651657809548676" />
    <synapse sourceNeuronName = "21" targetNeuronName = "47" weight = "0.7156082176844389" />
    <synapse sourceNeuronName = "21" targetNeuronName = "48" weight = "0.7215026124986341" />
    <synapse sourceNeuronName = "21" targetNeuronName = "49" weight = "-0.26188292758155907" />
    <synapse sourceNeuronName = "21" targetNeuronName = "50" weight = "0.7207279397918036" />
    <synapse sourceNeuronName = "21" targetNeuronName = "51" weight = "0.800230236783777" />
    <synapse sourceNeuronName = "21" targetNeuronName = "52" weight = "0.23980528285988134" />
    <synapse sourceNeuronName = "21" targetNeuronName = "53" weight = "0.5568744167580819" />
    <synapse sourceNeuronName = "21" targetNeuronName = "54" weight = "-0.7811185622084957" />
    <synapse sourceNeuronName = "21" targetNeuronName = "55" weight = "0.8412146285939497" />
    <synapse sourceNeuronName = "21" targetNeuronName = "56" weight = "0.6359675550681541" />
    <synapse sourceNeuronName = "21" targetNeuronName = "57" weight = "-0.8945650417027418" />
    <synapse sourceNeuronName = "21" targetNeuronName = "58" weight = "-0.45681998629290144" />
    <synapse sourceNeuronName = "21" targetNeuronName = "59" weight = "0.3433717235303031" />
    <synapse sourceNeuronName = "21" targetNeuronName = "60" weight = "0.824975322868428" />
    <synapse sourceNeuronName = "21" targetNeuronName = "61" weight = "0.7016287143836193" />
    <synapse sourceNeuronName = "21" targetNeuronName = "62" weight = "0.42878577851618593" />
    <synapse sourceNeuronName = "21" targetNeuronName = "63" weight = "0.1285764453305409" />
    <synapse sourceNeuronName = "21" targetNeuronName = "64" weight = "0.36306507072389405" />
    <synapse sourceNeuronName = "21" targetNeuronName = "65" weight = "-0.5287035468324832" />
    <synapse sourceNeuronName = "21" targetNeuronName = "66" weight = "-0.8655275447329183" />
    <synapse sourceNeuronName = "21" targetNeuronName = "67" weight = "0.011873986993695462" />
    <synapse sourceNeuronName = "21" targetNeuronName = "68" weight = "0.31284930381273224" />
    <synapse sourceNeuronName = "21" targetNeuronName = "69" weight = "0.3447934574568192" />
    <synapse sourceNeuronName = "21" targetNeuronName = "70" weight = "0.42501176052038625" />
    <synapse sourceNeuronName = "21" targetNeuronName = "71" weight = "0.8435549293955629" />
    <synapse sourceNeuronName = "21" targetNeuronName = "72" weight = "-0.044092514668705673" />
    <synapse sourceNeuronName = "22" targetNeuronName = "37" weight = "-0.6011599734244994" />
    <synapse sourceNeuronName = "22" targetNeuronName = "38" weight = "0.7296446763265783" />
    <synapse sourceNeuronName = "22" targetNeuronName = "39" weight = "0.24606314772040094" />
    <synapse sourceNeuronName = "22" targetNeuronName = "40" weight = "0.8061575782855777" />
    <synapse sourceNeuronName = "22" targetNeuronName = "41" weight = "-0.709120117673445" />
    <synapse sourceNeuronName = "22" targetNeuronName = "42" weight = "0.24565254165105088" />
    <synapse sourceNeuronName = "22" targetNeuronName = "43" weight = "0.9126425742199815" />
    <synapse sourceNeuronName = "22" targetNeuronName = "44" weight = "-0.8712870189248922" />
    <synapse sourceNeuronName = "22" targetNeuronName = "45" weight = "-0.04418200092757352" />
    <synapse sourceNeuronName = "22" targetNeuronName = "46" weight = "-0.28884368176286035" />
    <synapse sourceNeuronName = "22" targetNeuronName = "47" weight = "0.9002351582658736" />
    <synapse sourceNeuronName = "22" targetNeuronName = "48" weight = "0.181731691926579" />
    <synapse sourceNeuronName = "22" targetNeuronName = "49" weight = "-0.7279965222776852" />
    <synapse sourceNeuronName = "22" targetNeuronName = "50" weight = "0.9836668907866188" />
    <synapse sourceNeuronName = "22" targetNeuronName = "51" weight = "-0.5517384214385421" />
    <synapse sourceNeuronName = "22" targetNeuronName = "52" weight = "0.3664322025368669" />
    <synapse sourceNeuronName = "22" targetNeuronName = "53" weight = "0.36604128453598417" />
    <synapse sourceNeuronName = "22" targetNeuronName = "54" weight = "-0.9812285168560273" />
    <synapse sourceNeuronName = "22" targetNeuronName = "55" weight = "0.608206722369601" />
    <synapse sourceNeuronName = "22" targetNeuronName = "56" weight = "-0.9621304403844904" />
    <synapse sourceNeuronName = "22" targetNeuronName = "57" weight = "-0.7137388311392643" />
    <synapse sourceNeuronName = "22" targetNeuronName = "58" weight = "-0.3291546358781885" />
    <synapse sourceNeuronName = "22" targetNeuronName = "59" weight = "0.7888433334246712" />
    <synapse sourceNeuronName = "22" targetNeuronName = "60" weight = "-0.9246501942997045" />
    <synapse sourceNeuronName = "22" targetNeuronName = "61" weight = "-0.6551877283117669" />
    <synapse sourceNeuronName = "22" targetNeuronName = "62" weight = "-0.9980587865792747" />
    <synapse sourceNeuronName = "22" targetNeuronName = "63" weight = "-0.43917679123385955" />
    <synapse sourceNeuronName = "22" targetNeuronName = "64" weight = "-0.22452046589987207" />
    <synapse sourceNeuronName = "22" targetNeuronName = "65" weight = "-0.05551810726543649" />
    <synapse sourceNeuronName = "22" targetNeuronName = "66" weight = "-0.7572788757177631" />
    <synapse sourceNeuronName = "22" targetNeuronName = "67" weight = "-0.18900719562456136" />
    <synapse sourceNeuronName = "22" targetNeuronName = "68" weight = "0.7253635773054996" />
    <synapse sourceNeuronName = "22" targetNeuronName = "69" weight = "-0.528735664143384" />
    <synapse sourceNeuronName = "22" targetNeuronName = "70" weight = "-0.5848386538714425" />
    <synapse sourceNeuronName = "22" targetNeuronName = "71" weight = "0.23581317421090886" />
    <synapse sourceNeuronName = "22" targetNeuronName = "72" weight = "0.3134220573413049" />
    <synapse sourceNeuronName = "23" targetNeuronName = "37" weight = "0.2868694064497541" />
    <synapse sourceNeuronName = "23" targetNeuronName = "38" weight = "-0.9484789121635908" />
    <synapse sourceNeuronName = "23" targetNeuronName = "39" weight = "-0.3671589697682367" />
    <synapse sourceNeuronName = "23" targetNeuronName = "40" weight = "-0.7226830936789708" />
    <synapse sourceNeuronName = "23" targetNeuronName = "41" weight = "0.02401251335356136" />
    <synapse sourceNeuronName = "23" targetNeuronName = "42" weight = "0.4057874828199659" />
    <synapse sourceNeuronName = "23" targetNeuronName = "43" weight = "0.25412832339422664" />
    <synapse sourceNeuronName = "23" targetNeuronName = "44" weight = "0.20039108554067298" />
    <synapse sourceNeuronName = "23" targetNeuronName = "45" weight = "-0.8463304487447787" />
    <synapse sourceNeuronName = "23" targetNeuronName = "46" weight = "-0.03533346535985227" />
    <synapse sourceNeuronName = "23" targetNeuronName = "47" weight = "-0.78413153711551" />
    <synapse sourceNeuronName = "23" targetNeuronName = "48" weight = "-0.36571794930007795" />
    <synapse sourceNeuronName = "23" targetNeuronName = "49" weight = "-0.9368121248793269" />
    <synapse sourceNeuronName = "23" targetNeuronName = "50" weight = "0.3181708177478355" />
    <synapse sourceNeuronName = "23" targetNeuronName = "51" weight = "0.505372540906845" />
    <synapse sourceNeuronName = "23" targetNeuronName = "52" weight = "0.6307406879698316" />
    <synapse sourceNeuronName = "23" targetNeuronName = "53" weight = "0.5569202665131403" />
    <synapse sourceNeuronName = "23" targetNeuronName = "54" weight = "0.14701967360205437" />
    <synapse sourceNeuronName = "23" targetNeuronName = "55" weight = "-0.6807075951590882" />
    <synapse sourceNeuronName = "23" targetNeuronName = "56" weight = "0.5537206619358339" />
    <synapse sourceNeuronName = "23" targetNeuronName = "57" weight = "-0.6893736638432804" />
    <synapse sourceNeuronName = "23" targetNeuronName = "58" weight = "-0.3488284201061931" />
    <synapse sourceNeuronName = "23" targetNeuronName = "59" weight = "0.8486280008194771" />
    <synapse sourceNeuronName = "23" targetNeuronName = "60" weight = "-0.0773407139839315" />
    <synapse sourceNeuronName = "23" targetNeuronName = "61" weight = "-0.5712841511515123" />
    <synapse sourceNeuronName = "23" targetNeuronName = "62" weight = "-0.8885978664516319" />
    <synapse sourceNeuronName = "23" targetNeuronName = "63" weight = "-0.479142890419197" />
    <synapse sourceNeuronName = "23" targetNeuronName = "64" weight = "-0.6840304957913201" />
    <synapse sourceNeuronName = "23" targetNeuronName = "65" weight = "-0.6169221320708516" />
    <synapse sourceNeuronName = "23" targetNeuronName = "66" weight = "-0.6353763075715153" />
    <synapse sourceNeuronName = "23" targetNeuronName = "67" weight = "0.4245977055017245" />
    <synapse sourceNeuronName = "23" targetNeuronName = "68" weight = "0.9226676982053632" />
    <synapse sourceNeuronName = "23" targetNeuronName = "69" weight = "-0.1941896141446806" />
    <synapse sourceNeuronName = "23" targetNeuronName = "70" weight = "0.8838538581936732" />
    <synapse sourceNeuronName = "23" targetNeuronName = "71" weight = "-0.6302262568231853" />
    <synapse sourceNeuronName = "23" targetNeuronName = "72" weight = "0.5206838538537473" />
    <synapse sourceNeuronName = "24" targetNeuronName = "37" weight = "-0.7628648153794835" />
    <synapse sourceNeuronName = "24" targetNeuronName = "38" weight = "-0.3440730547802673" />
    <synapse sourceNeuronName = "24" targetNeuronName = "39" weight = "-0.1186135803240762" />
    <synapse sourceNeuronName = "24" targetNeuronName = "40" weight = "-0.21362958389302356" />
    <synapse sourceNeuronName = "24" targetNeuronName = "41" weight = "0.2780851871839791" />
    <synapse sourceNeuronName = "24" targetNeuronName = "42" weight = "-0.928656175485979" />
    <synapse sourceNeuronName = "24" targetNeuronName = "43" weight = "-0.9514145409280146" />
    <synapse sourceNeuronName = "24" targetNeuronName = "44" weight = "-0.654817264294302" />
    <synapse sourceNeuronName = "24" targetNeuronName = "45" weight = "0.6011037915435942" />
    <synapse sourceNeuronName = "24" targetNeuronName = "46" weight = "0.556433308199602" />
    <synapse sourceNeuronName = "24" targetNeuronName = "47" weight = "-0.3622890863144128" />
    <synapse sourceNeuronName = "24" targetNeuronName = "48" weight = "0.8931657694595441" />
    <synapse sourceNeuronName = "24" targetNeuronName = "49" weight = "0.1491423859061094" />
    <synapse sourceNeuronName = "24" targetNeuronName = "50" weight = "0.28178359540475495" />
    <synapse sourceNeuronName = "24" targetNeuronName = "51" weight = "-0.9122085862995528" />
    <synapse sourceNeuronName = "24" targetNeuronName = "52" weight = "-0.30527139813021575" />
    <synapse sourceNeuronName = "24" targetNeuronName = "53" weight = "-0.4595216027603628" />
    <synapse sourceNeuronName = "24" targetNeuronName = "54" weight = "-0.5988084673101495" />
    <synapse sourceNeuronName = "24" targetNeuronName = "55" weight = "0.5846488569342452" />
    <synapse sourceNeuronName = "24" targetNeuronName = "56" weight = "-0.154428627374239" />
    <synapse sourceNeuronName = "24" targetNeuronName = "57" weight = "-0.5363407294823213" />
    <synapse sourceNeuronName = "24" targetNeuronName = "58" weight = "0.8896236124960211" />
    <synapse sourceNeuronName = "24" targetNeuronName = "59" weight = "0.8005112215989594" />
    <synapse sourceNeuronName = "24" targetNeuronName = "60" weight = "-0.17844923022539416" />
    <synapse sourceNeuronName = "24" targetNeuronName = "61" weight = "0.5476720101861836" />
    <synapse sourceNeuronName = "24" targetNeuronName = "62" weight = "-0.8349953301673001" />
    <synapse sourceNeuronName = "24" targetNeuronName = "63" weight = "0.10938312204909462" />
    <synapse sourceNeuronName = "24" targetNeuronName = "64" weight = "0.9556491665649698" />
    <synapse sourceNeuronName = "24" targetNeuronName = "65" weight = "0.10604692458146592" />
    <synapse sourceNeuronName = "24" targetNeuronName = "66" weight = "-0.15926660785877855" />
    <synapse sourceNeuronName = "24" targetNeuronName = "67" weight = "0.47047448585995966" />
    <synapse sourceNeuronName = "24" targetNeuronName = "68" weight = "-0.5124402368160543" />
    <synapse sourceNeuronName = "24" targetNeuronName = "69" weight = "0.9507474998516239" />
    <synapse sourceNeuronName = "24" targetNeuronName = "70" weight = "0.3397312397274437" />
    <synapse sourceNeuronName = "24" targetNeuronName = "71" weight = "-0.3693991621865249" />
    <synapse sourceNeuronName = "24" targetNeuronName = "72" weight = "0.22172400510432677" />
    <synapse sourceNeuronName = "25" targetNeuronName = "37" weight = "0.14228222688977366" />
    <synapse sourceNeuronName = "25" targetNeuronName = "38" weight = "-0.7318270060956134" />
    <synapse sourceNeuronName = "25" targetNeuronName = "39" weight = "-0.8344239935103115" />
    <synapse sourceNeuronName = "25" targetNeuronName = "40" weight = "-0.1659062334507715" />
    <synapse sourceNeuronName = "25" targetNeuronName = "41" weight = "0.7198968355705806" />
    <synapse sourceNeuronName = "25" targetNeuronName = "42" weight = "0.8606616478525566" />
    <synapse sourceNeuronName = "25" targetNeuronName = "43" weight = "-0.8779966950082241" />
    <synapse sourceNeuronName = "25" targetNeuronName = "44" weight = "0.6448307862917146" />
    <synapse sourceNeuronName = "25" targetNeuronName = "45" weight = "0.10879462692967667" />
    <synapse sourceNeuronName = "25" targetNeuronName = "46" weight = "-0.8900847886167653" />
    <synapse sourceNeuronName = "25" targetNeuronName = "47" weight = "-0.8892946227504579" />
    <synapse sourceNeuronName = "25" targetNeuronName = "48" weight = "-0.21222306113447953" />
    <synapse sourceNeuronName = "25" targetNeuronName = "49" weight = "-0.1274436570266011" />
    <synapse sourceNeuronName = "25" targetNeuronName = "50" weight = "-0.6075512747289331" />
    <synapse sourceNeuronName = "25" targetNeuronName = "51" weight = "0.9785920643667108" />
    <synapse sourceNeuronName = "25" targetNeuronName = "52" weight = "-0.4413078784228224" />
    <synapse sourceNeuronName = "25" targetNeuronName = "53" weight = "0.059813653787260224" />
    <synapse sourceNeuronName = "25" targetNeuronName = "54" weight = "0.8283336200821323" />
    <synapse sourceNeuronName = "25" targetNeuronName = "55" weight = "-0.3145919477282" />
    <synapse sourceNeuronName = "25" targetNeuronName = "56" weight = "-0.009606371082230503" />
    <synapse sourceNeuronName = "25" targetNeuronName = "57" weight = "0.4779640036050774" />
    <synapse sourceNeuronName = "25" targetNeuronName = "58" weight = "0.6409704292276719" />
    <synapse sourceNeuronName = "25" targetNeuronName = "59" weight = "-0.18957024819825796" />
    <synapse sourceNeuronName = "25" targetNeuronName = "60" weight = "-0.1592628341269704" />
    <synapse sourceNeuronName = "25" targetNeuronName = "61" weight = "0.06529159857013656" />
    <synapse sourceNeuronName = "25" targetNeuronName = "62" weight = "0.6982245265905238" />
    <synapse sourceNeuronName = "25" targetNeuronName = "63" weight = "0.5947009816326616" />
    <synapse sourceNeuronName = "25" targetNeuronName = "64" weight = "0.8726425469667944" />
    <synapse sourceNeuronName = "25" targetNeuronName = "65" weight = "0.4471629688982779" />
    <synapse sourceNeuronName = "25" targetNeuronName = "66" weight = "0.19873511458072035" />
    <synapse sourceNeuronName = "25" targetNeuronName = "67" weight = "0.595572924360338" />
    <synapse sourceNeuronName = "25" targetNeuronName = "68" weight = "0.03214089216831817" />
    <synapse sourceNeuronName = "25" targetNeuronName = "69" weight = "-0.45437775550659665" />
    <synapse sourceNeuronName = "25" targetNeuronName = "70" weight = "0.7400759540536441" />
    <synapse sourceNeuronName = "25" targetNeuronName = "71" weight = "0.6859875182205182" />
    <synapse sourceNeuronName = "25" targetNeuronName = "72" weight = "-0.8142604579369994" />
    <synapse sourceNeuronName = "26" targetNeuronName = "37" weight = "0.4357619647960218" />
    <synapse sourceNeuronName = "26" targetNeuronName = "38" weight = "0.297209506861156" />
    <synapse sourceNeuronName = "26" targetNeuronName = "39" weight = "0.8444849106862686" />
    <synapse sourceNeuronName = "26" targetNeuronName = "40" weight = "0.9916646974645329" />
    <synapse sourceNeuronName = "26" targetNeuronName = "41" weight = "0.7116436588970638" />
    <synapse sourceNeuronName = "26" targetNeuronName = "42" weight = "-0.4614802570389982" />
    <synapse sourceNeuronName = "26" targetNeuronName = "43" weight = "0.9837549352303119" />
    <synapse sourceNeuronName = "26" targetNeuronName = "44" weight = "0.7091741111739318" />
    <synapse sourceNeuronName = "26" targetNeuronName = "45" weight = "-0.9578694896172355" />
    <synapse sourceNeuronName = "26" targetNeuronName = "46" weight = "0.5345371519196485" />
    <synapse sourceNeuronName = "26" targetNeuronName = "47" weight = "0.5465415827108198" />
    <synapse sourceNeuronName = "26" targetNeuronName = "48" weight = "-0.10756426402874397" />
    <synapse sourceNeuronName = "26" targetNeuronName = "49" weight = "-0.9399271005550724" />
    <synapse sourceNeuronName = "26" targetNeuronName = "50" weight = "0.0790268138475223" />
    <synapse sourceNeuronName = "26" targetNeuronName = "51" weight = "0.03567836119643486" />
    <synapse sourceNeuronName = "26" targetNeuronName = "52" weight = "-0.7016902313883691" />
    <synapse sourceNeuronName = "26" targetNeuronName = "53" weight = "-0.9350824028624831" />
    <synapse sourceNeuronName = "26" targetNeuronName = "54" weight = "-0.6018779467452859" />
    <synapse sourceNeuronName = "26" targetNeuronName = "55" weight = "-0.6881586870443559" />
    <synapse sourceNeuronName = "26" targetNeuronName = "56" weight = "0.9029168086486032" />
    <synapse sourceNeuronName = "26" targetNeuronName = "57" weight = "-0.6818737471090948" />
    <synapse sourceNeuronName = "26" targetNeuronName = "58" weight = "-0.6131993565971228" />
    <synapse sourceNeuronName = "26" targetNeuronName = "59" weight = "-0.9146005594939532" />
    <synapse sourceNeuronName = "26" targetNeuronName = "60" weight = "0.7115863589083338" />
    <synapse sourceNeuronName = "26" targetNeuronName = "61" weight = "-0.747567403763874" />
    <synapse sourceNeuronName = "26" targetNeuronName = "62" weight = "0.927928467230299" />
    <synapse sourceNeuronName = "26" targetNeuronName = "63" weight = "0.03233555527932519" />
    <synapse sourceNeuronName = "26" targetNeuronName = "64" weight = "-0.02501379342327925" />
    <synapse sourceNeuronName = "26" targetNeuronName = "65" weight = "-0.6467245653506242" />
    <synapse sourceNeuronName = "26" targetNeuronName = "66" weight = "-0.16358542904361562" />
    <synapse sourceNeuronName = "26" targetNeuronName = "67" weight = "-0.5948612452430004" />
    <synapse sourceNeuronName = "26" targetNeuronName = "68" weight = "0.04768056595194392" />
    <synapse sourceNeuronName = "26" targetNeuronName = "69" weight = "-0.26334377924632313" />
    <synapse sourceNeuronName = "26" targetNeuronName = "70" weight = "-0.8078666290756846" />
    <synapse sourceNeuronName = "26" targetNeuronName = "71" weight = "0.19775255173383322" />
    <synapse sourceNeuronName = "26" targetNeuronName = "72" weight = "0.6506193518419057" />
    <synapse sourceNeuronName = "27" targetNeuronName = "37" weight = "0.8040226882497128" />
    <synapse sourceNeuronName = "27" targetNeuronName = "38" weight = "0.13303783839012273" />
    <synapse sourceNeuronName = "27" targetNeuronName = "39" weight = "0.44361654260622907" />
    <synapse sourceNeuronName = "27" targetNeuronName = "40" weight = "-0.37433779454793514" />
    <synapse sourceNeuronName = "27" targetNeuronName = "41" weight = "0.3309225934755049" />
    <synapse sourceNeuronName = "27" targetNeuronName = "42" weight = "0.8851271071402795" />
    <synapse sourceNeuronName = "27" targetNeuronName = "43" weight = "0.7314705386616907" />
    <synapse sourceNeuronName = "27" targetNeuronName = "44" weight = "-0.9340602688046473" />
    <synapse sourceNeuronName = "27" targetNeuronName = "45" weight = "0.2751275207310975" />
    <synapse sourceNeuronName = "27" targetNeuronName = "46" weight = "-0.33845160049915624" />
    <synapse sourceNeuronName = "27" targetNeuronName = "47" weight = "0.14731868798380554" />
    <synapse sourceNeuronName = "27" targetNeuronName = "48" weight = "0.7066410811177681" />
    <synapse sourceNeuronName = "27" targetNeuronName = "49" weight = "0.04317228032085274" />
    <synapse sourceNeuronName = "27" targetNeuronName = "50" weight = "0.09619077636670759" />
    <synapse sourceNeuronName = "27" targetNeuronName = "51" weight = "0.22795692119671007" />
    <synapse sourceNeuronName = "27" targetNeuronName = "52" weight = "0.09491443215385265" />
    <synapse sourceNeuronName = "27" targetNeuronName = "53" weight = "0.3741364753295613" />
    <synapse sourceNeuronName = "27" targetNeuronName = "54" weight = "-0.907135896925916" />
    <synapse sourceNeuronName = "27" targetNeuronName = "55" weight = "-0.973927824087564" />
    <synapse sourceNeuronName = "27" targetNeuronName = "56" weight = "0.6287936158680427" />
    <synapse sourceNeuronName = "27" targetNeuronName = "57" weight = "-0.6336745836686299" />
    <synapse sourceNeuronName = "27" targetNeuronName = "58" weight = "0.6961138051117466" />
    <synapse sourceNeuronName = "27" targetNeuronName = "59" weight = "-0.8681785345624189" />
    <synapse sourceNeuronName = "27" targetNeuronName = "60" weight = "0.953221184454839" />
    <synapse sourceNeuronName = "27" targetNeuronName = "61" weight = "0.8863677650931763" />
    <synapse sourceNeuronName = "27" targetNeuronName = "62" weight = "0.1351533610285245" />
    <synapse sourceNeuronName = "27" targetNeuronName = "63" weight = "-0.3849162342177086" />
    <synapse sourceNeuronName = "27" targetNeuronName = "64" weight = "0.6506418423887417" />
    <synapse sourceNeuronName = "27" targetNeuronName = "65" weight = "0.885344683074548" />
    <synapse sourceNeuronName = "27" targetNeuronName = "66" weight = "-0.42117446324443386" />
