<neuralNetwork>
    <neuron name = "0" type = "sensor" linkName = "01_Carput" />
    <neuron name = "1" type = "sensor" linkName = "02_Prothorax" />
    <neuron name = "2" type = "sensor" linkName = "03_Mesothorax" />
    <neuron name = "3" type = "sensor" linkName = "04_Metathorax" />
    <neuron name = "4" type = "sensor" linkName = "05_Abdomen_3" />
    <neuron name = "5" type = "sensor" linkName = "06_Abdomen_2" />
    <neuron name = "6" type = "sensor" linkName = "07_Abdomen_1" />
    <neuron name = "7" type = "sensor" linkName = "08_Abdomen_0" />
    <neuron name = "8" type = "sensor" linkName = "09_HL_CT_L" />
    <neuron name = "9" type = "sensor" linkName = "10_HL_Femur_L" />
    <neuron name = "10" type = "sensor" linkName = "11_HL_Tibia_L" />
    <neuron name = "11" type = "sensor" linkName = "12_HL_Tarsus_L" />
    <neuron name = "12" type = "sensor" linkName = "13_HL_Pretarsus_L" />
    <neuron name = "13" type = "sensor" linkName = "14_HL_CT_R" />
    <neuron name = "14" type = "sensor" linkName = "15_HL_Femur_R" />
    <neuron name = "15" type = "sensor" linkName = "16_HL_Tibia_R" />
    <neuron name = "16" type = "sensor" linkName = "17_HL_Tarsus_R" />
    <neuron name = "17" type = "sensor" linkName = "18_HL_Pretarsus_R" />
    <neuron name = "18" type = "sensor" linkName = "19_ML_CT_L" />
    <neuron name = "19" type = "sensor" linkName = "20_ML_Femur_L" />
    <neuron name = "20" type = "sensor" linkName = "21_ML_Tibia_L" />
    <neuron name = "21" type = "sensor" linkName = "22_ML_Tarsus_L" />
    <neuron name = "22" type = "sensor" linkName = "23_ML_Pretarsus_L" />
    <neuron name = "23" type = "sensor" linkName = "24_ML_CT_R" />
    <neuron name = "24" type = "sensor" linkName = "25_ML_Femur_R" />
    <neuron name = "25" type = "sensor" linkName = "26_ML_Tibia_R" />
    <neuron name = "26" type = "sensor" linkName = "27_ML_Tarsus_R" />
    <neuron name = "27" type = "sensor" linkName = "28_ML_Pretarsus_R" />
    <neuron name = "28" type = "sensor" linkName = "29_FL_CT_L" />
    <neuron name = "29" type = "sensor" linkName = "30_FL_Femur_L" />
    <neuron name = "30" type = "sensor" linkName = "31_FL_Tibia_L" />
    <neuron name = "31" type = "sensor" linkName = "32_FL_Tarsus_L" />
    <neuron name = "32" type = "sensor" linkName = "33_FL_Pretarsus_L" />
    <neuron name = "33" type = "sensor" linkName = "34_FL_CT_R" />
    <neuron name = "34" type = "sensor" linkName = "35_FL_Femur_R" />
    <neuron name = "35" type = "sensor" linkName = "36_FL_Tibia_R" />
    <neuron name = "36" type = "sensor" linkName = "37_FL_Tarsus_R" />
    <neuron name = "37" type = "sensor" linkName = "38_FL_Pretarsus_R" />
    <neuron name = "38" type = "motor"  jointName = "02_Prothorax" />
    <neuron name = "39" type = "motor"  jointName = "03_Mesothorax" />
    <neuron name = "40" type = "motor"  jointName = "04_Metathorax" />
    <neuron name = "41" type = "motor"  jointName = "05_Abdomen_3" />
    <neuron name = "42" type = "motor"  jointName = "06_Abdomen_2" />
    <neuron name = "43" type = "motor"  jointName = "07_Abdomen_1" />
    <neuron name = "44" type = "motor"  jointName = "08_Abdomen_0" />
    <neuron name = "45" type = "motor"  jointName = "09_HL_CT_L" />
    <neuron name = "46" type = "motor"  jointName = "10_HL_Femur_L" />
    <neuron name = "47" type = "motor"  jointName = "11_HL_Tibia_L" />
    <neuron name = "48" type = "motor"  jointName = "12_HL_Tarsus_L" />
    <neuron name = "49" type = "motor"  jointName = "13_HL_Pretarsus_L" />
    <neuron name = "50" type = "motor"  jointName = "14_HL_CT_R" />
    <neuron name = "51" type = "motor"  jointName = "15_HL_Femur_R" />
    <neuron name = "52" type = "motor"  jointName = "16_HL_Tibia_R" />
    <neuron name = "53" type = "motor"  jointName = "17_HL_Tarsus_R" />
    <neuron name = "54" type = "motor"  jointName = "18_HL_Pretarsus_R" />
    <neuron name = "55" type = "motor"  jointName = "19_ML_CT_L" />
    <neuron name = "56" type = "motor"  jointName = "20_ML_Femur_L" />
    <neuron name = "57" type = "motor"  jointName = "21_ML_Tibia_L" />
    <neuron name = "58" type = "motor"  jointName = "22_ML_Tarsus_L" />
    <neuron name = "59" type = "motor"  jointName = "23_ML_Pretarsus_L" />
    <neuron name = "60" type = "motor"  jointName = "24_ML_CT_R" />
    <neuron name = "61" type = "motor"  jointName = "25_ML_Femur_R" />
    <neuron name = "62" type = "motor"  jointName = "26_ML_Tibia_R" />
    <neuron name = "63" type = "motor"  jointName = "27_ML_Tarsus_R" />
    <neuron name = "64" type = "motor"  jointName = "28_ML_Pretarsus_R" />
    <neuron name = "65" type = "motor"  jointName = "29_FL_CT_L" />
    <neuron name = "66" type = "motor"  jointName = "30_FL_Femur_L" />
    <neuron name = "67" type = "motor"  jointName = "31_FL_Tibia_L" />
    <neuron name = "68" type = "motor"  jointName = "32_FL_Tarsus_L" />
    <neuron name = "69" type = "motor"  jointName = "33_FL_Pretarsus_L" />
    <neuron name = "70" type = "motor"  jointName = "34_FL_CT_R" />
    <neuron name = "71" type = "motor"  jointName = "35_FL_Femur_R" />
    <neuron name = "72" type = "motor"  jointName = "36_FL_Tibia_R" />
    <neuron name = "73" type = "motor"  jointName = "37_FL_Tarsus_R" />
    <neuron name = "74" type = "motor"  jointName = "38_FL_Pretarsus_R" />
    <synapse sourceNeuronName = "0" targetNeuronName = "37" weight = "-0.17067174124164253" />
    <synapse sourceNeuronName = "0" targetNeuronName = "38" weight = "0.040769180615000344" />
    <synapse sourceNeuronName = "0" targetNeuronName = "39" weight = "-0.63333142481604" />
    <synapse sourceNeuronName = "0" targetNeuronName = "40" weight = "0.9366384782720385" />
    <synapse sourceNeuronName = "0" targetNeuronName = "41" weight = "0.883979296105337" />
    <synapse sourceNeuronName = "0" targetNeuronName = "42" weight = "-0.2928209767078185" />
    <synapse sourceNeuronName = "0" targetNeuronName = "43" weight = "-0.7375150036110738" />
    <synapse sourceNeuronName = "0" targetNeuronName = "44" weight = "-0.019828176483689175" />
    <synapse sourceNeuronName = "0" targetNeuronName = "45" weight = "-0.31843329505528817" />
    <synapse sourceNeuronName = "0" targetNeuronName = "46" weight = "0.4235365597702445" />
    <synapse sourceNeuronName = "0" targetNeuronName = "47" weight = "0.15083123800647313" />
    <synapse sourceNeuronName = "0" targetNeuronName = "48" weight = "-0.22687467499850134" />
    <synapse sourceNeuronName = "0" targetNeuronName = "49" weight = "-0.3228811507562921" />
    <synapse sourceNeuronName = "0" targetNeuronName = "50" weight = "0.976644668287904" />
    <synapse sourceNeuronName = "0" targetNeuronName = "51" weight = "0.9694752156745459" />
    <synapse sourceNeuronName = "0" targetNeuronName = "52" weight = "-0.5544343927740871" />
    <synapse sourceNeuronName = "0" targetNeuronName = "53" weight = "-0.5245037140205204" />
    <synapse sourceNeuronName = "0" targetNeuronName = "54" weight = "-0.6161876930863044" />
    <synapse sourceNeuronName = "0" targetNeuronName = "55" weight = "0.10792588109420742" />
    <synapse sourceNeuronName = "0" targetNeuronName = "56" weight = "0.8434046373882627" />
    <synapse sourceNeuronName = "0" targetNeuronName = "57" weight = "0.3658511859478899" />
    <synapse sourceNeuronName = "0" targetNeuronName = "58" weight = "0.4447456742681408" />
    <synapse sourceNeuronName = "0" targetNeuronName = "59" weight = "-0.7709240823457604" />
    <synapse sourceNeuronName = "0" targetNeuronName = "60" weight = "-0.9548673178768055" />
    <synapse sourceNeuronName = "0" targetNeuronName = "61" weight = "0.36215010919336743" />
    <synapse sourceNeuronName = "0" targetNeuronName = "62" weight = "0.3786009150749996" />
    <synapse sourceNeuronName = "0" targetNeuronName = "63" weight = "0.0024351903207640024" />
    <synapse sourceNeuronName = "0" targetNeuronName = "64" weight = "-0.13545308987017846" />
    <synapse sourceNeuronName = "0" targetNeuronName = "65" weight = "-0.09998197284715693" />
    <synapse sourceNeuronName = "0" targetNeuronName = "66" weight = "-0.32644874414879266" />
    <synapse sourceNeuronName = "0" targetNeuronName = "67" weight = "-0.2186108134989928" />
    <synapse sourceNeuronName = "0" targetNeuronName = "68" weight = "-0.3855745422556274" />
    <synapse sourceNeuronName = "0" targetNeuronName = "69" weight = "-0.06081714078437317" />
    <synapse sourceNeuronName = "0" targetNeuronName = "70" weight = "0.3213481424892759" />
    <synapse sourceNeuronName = "0" targetNeuronName = "71" weight = "0.7639515099073251" />
    <synapse sourceNeuronName = "0" targetNeuronName = "72" weight = "0.2193980421233761" />
    <synapse sourceNeuronName = "1" targetNeuronName = "37" weight = "-0.5031164373835717" />
    <synapse sourceNeuronName = "1" targetNeuronName = "38" weight = "0.12349387357125119" />
    <synapse sourceNeuronName = "1" targetNeuronName = "39" weight = "0.4736333051764561" />
    <synapse sourceNeuronName = "1" targetNeuronName = "40" weight = "-0.7181006868758659" />
    <synapse sourceNeuronName = "1" targetNeuronName = "41" weight = "-0.3717656581611135" />
    <synapse sourceNeuronName = "1" targetNeuronName = "42" weight = "0.3020443418058656" />
    <synapse sourceNeuronName = "1" targetNeuronName = "43" weight = "0.18267095361575114" />
    <synapse sourceNeuronName = "1" targetNeuronName = "44" weight = "-0.24814445722488476" />
    <synapse sourceNeuronName = "1" targetNeuronName = "45" weight = "0.8984509432441945" />
    <synapse sourceNeuronName = "1" targetNeuronName = "46" weight = "0.46803669508231294" />
    <synapse sourceNeuronName = "1" targetNeuronName = "47" weight = "0.8858140222896631" />
    <synapse sourceNeuronName = "1" targetNeuronName = "48" weight = "-0.2983528680969134" />
    <synapse sourceNeuronName = "1" targetNeuronName = "49" weight = "0.7842337312674761" />
    <synapse sourceNeuronName = "1" targetNeuronName = "50" weight = "0.5995811392637433" />
    <synapse sourceNeuronName = "1" targetNeuronName = "51" weight = "0.13330278409783203" />
    <synapse sourceNeuronName = "1" targetNeuronName = "52" weight = "0.9301425218578205" />
    <synapse sourceNeuronName = "1" targetNeuronName = "53" weight = "-0.7372892295422446" />
    <synapse sourceNeuronName = "1" targetNeuronName = "54" weight = "0.9953141494282733" />
    <synapse sourceNeuronName = "1" targetNeuronName = "55" weight = "0.6297256737246995" />
    <synapse sourceNeuronName = "1" targetNeuronName = "56" weight = "-0.05389947640992676" />
    <synapse sourceNeuronName = "1" targetNeuronName = "57" weight = "-0.4361725913344201" />
    <synapse sourceNeuronName = "1" targetNeuronName = "58" weight = "-0.7705208849413085" />
    <synapse sourceNeuronName = "1" targetNeuronName = "59" weight = "0.8920646480818044" />
    <synapse sourceNeuronName = "1" targetNeuronName = "60" weight = "0.2316362360959361" />
    <synapse sourceNeuronName = "1" targetNeuronName = "61" weight = "-0.2953895846715948" />
    <synapse sourceNeuronName = "1" targetNeuronName = "62" weight = "-0.8018191639627408" />
    <synapse sourceNeuronName = "1" targetNeuronName = "63" weight = "-0.8594529636977486" />
    <synapse sourceNeuronName = "1" targetNeuronName = "64" weight = "-0.1729017460633233" />
    <synapse sourceNeuronName = "1" targetNeuronName = "65" weight = "0.6276689121510843" />
    <synapse sourceNeuronName = "1" targetNeuronName = "66" weight = "-0.6162264632021908" />
    <synapse sourceNeuronName = "1" targetNeuronName = "67" weight = "0.19204300534482344" />
    <synapse sourceNeuronName = "1" targetNeuronName = "68" weight = "-0.4667684426079737" />
    <synapse sourceNeuronName = "1" targetNeuronName = "69" weight = "0.5730760906537309" />
    <synapse sourceNeuronName = "1" targetNeuronName = "70" weight = "0.002641838465565982" />
    <synapse sourceNeuronName = "1" targetNeuronName = "71" weight = "0.38278769042239924" />
    <synapse sourceNeuronName = "1" targetNeuronName = "72" weight = "0.14339462359214794" />
    <synapse sourceNeuronName = "2" targetNeuronName = "37" weight = "0.4662882217916402" />
    <synapse sourceNeuronName = "2" targetNeuronName = "38" weight = "0.6312716074114035" />
    <synapse sourceNeuronName = "2" targetNeuronName = "39" weight = "0.6938578104040185" />
    <synapse sourceNeuronName = "2" targetNeuronName = "40" weight = "-0.5342332616554653" />
    <synapse sourceNeuronName = "2" targetNeuronName = "41" weight = "-0.5134689236091678" />
    <synapse sourceNeuronName = "2" targetNeuronName = "42" weight = "0.20538425951901984" />
    <synapse sourceNeuronName = "2" targetNeuronName = "43" weight = "0.05835081931017361" />
    <synapse sourceNeuronName = "2" targetNeuronName = "44" weight = "0.6363971471664851" />
    <synapse sourceNeuronName = "2" targetNeuronName = "45" weight = "-0.4002416142316716" />
    <synapse sourceNeuronName = "2" targetNeuronName = "46" weight = "0.40657698322891367" />
    <synapse sourceNeuronName = "2" targetNeuronName = "47" weight = "0.47883825928738544" />
    <synapse sourceNeuronName = "2" targetNeuronName = "48" weight = "-0.6101384920936168" />
    <synapse sourceNeuronName = "2" targetNeuronName = "49" weight = "-0.6693601055876293" />
    <synapse sourceNeuronName = "2" targetNeuronName = "50" weight = "-0.3055505989280052" />
    <synapse sourceNeuronName = "2" targetNeuronName = "51" weight = "-0.9236678194409578" />
    <synapse sourceNeuronName = "2" targetNeuronName = "52" weight = "0.3585100324884396" />
    <synapse sourceNeuronName = "2" targetNeuronName = "53" weight = "-0.6970645745226052" />
    <synapse sourceNeuronName = "2" targetNeuronName = "54" weight = "-0.6719442411166414" />
    <synapse sourceNeuronName = "2" targetNeuronName = "55" weight = "0.8863308001724888" />
    <synapse sourceNeuronName = "2" targetNeuronName = "56" weight = "-0.4250418015205686" />
    <synapse sourceNeuronName = "2" targetNeuronName = "57" weight = "0.12838406282583747" />
    <synapse sourceNeuronName = "2" targetNeuronName = "58" weight = "0.4452495480711953" />
    <synapse sourceNeuronName = "2" targetNeuronName = "59" weight = "0.47307555259717926" />
    <synapse sourceNeuronName = "2" targetNeuronName = "60" weight = "0.9934732974945881" />
    <synapse sourceNeuronName = "2" targetNeuronName = "61" weight = "0.2242699009844631" />
    <synapse sourceNeuronName = "2" targetNeuronName = "62" weight = "0.6400780090170899" />
    <synapse sourceNeuronName = "2" targetNeuronName = "63" weight = "-0.8915482978278113" />
    <synapse sourceNeuronName = "2" targetNeuronName = "64" weight = "-0.5556361430416024" />
    <synapse sourceNeuronName = "2" targetNeuronName = "65" weight = "-0.3519192560770872" />
    <synapse sourceNeuronName = "2" targetNeuronName = "66" weight = "-0.273651432634489" />
    <synapse sourceNeuronName = "2" targetNeuronName = "67" weight = "0.5936466649248429" />
    <synapse sourceNeuronName = "2" targetNeuronName = "68" weight = "0.5313376016191875" />
    <synapse sourceNeuronName = "2" targetNeuronName = "69" weight = "-0.4427456544547357" />
    <synapse sourceNeuronName = "2" targetNeuronName = "70" weight = "0.10622449524424038" />
    <synapse sourceNeuronName = "2" targetNeuronName = "71" weight = "-0.7280636684454735" />
    <synapse sourceNeuronName = "2" targetNeuronName = "72" weight = "0.8245065178737792" />
    <synapse sourceNeuronName = "3" targetNeuronName = "37" weight = "-0.04396025739165066" />
    <synapse sourceNeuronName = "3" targetNeuronName = "38" weight = "-0.3747772453017948" />
    <synapse sourceNeuronName = "3" targetNeuronName = "39" weight = "0.3893440849417291" />
    <synapse sourceNeuronName = "3" targetNeuronName = "40" weight = "-0.1949221944174666" />
    <synapse sourceNeuronName = "3" targetNeuronName = "41" weight = "-0.19875120286724046" />
    <synapse sourceNeuronName = "3" targetNeuronName = "42" weight = "0.38611366360600674" />
    <synapse sourceNeuronName = "3" targetNeuronName = "43" weight = "-0.7412899809936444" />
    <synapse sourceNeuronName = "3" targetNeuronName = "44" weight = "-0.27802062597295163" />
    <synapse sourceNeuronName = "3" targetNeuronName = "45" weight = "0.6198507200333931" />
    <synapse sourceNeuronName = "3" targetNeuronName = "46" weight = "-0.1804047435489271" />
    <synapse sourceNeuronName = "3" targetNeuronName = "47" weight = "-0.11536542333363231" />
    <synapse sourceNeuronName = "3" targetNeuronName = "48" weight = "-0.3634884602220714" />
    <synapse sourceNeuronName = "3" targetNeuronName = "49" weight = "-0.5936207949999366" />
    <synapse sourceNeuronName = "3" targetNeuronName = "50" weight = "-0.20362159192696638" />
    <synapse sourceNeuronName = "3" targetNeuronName = "51" weight = "0.011473771395652532" />
    <synapse sourceNeuronName = "3" targetNeuronName = "52" weight = "-0.4274888850446692" />
    <synapse sourceNeuronName = "3" targetNeuronName = "53" weight = "-0.147174946620368" />
    <synapse sourceNeuronName = "3" targetNeuronName = "54" weight = "-0.8598854842107457" />
    <synapse sourceNeuronName = "3" targetNeuronName = "55" weight = "-0.4994772567259802" />
    <synapse sourceNeuronName = "3" targetNeuronName = "56" weight = "0.42407554466753616" />
    <synapse sourceNeuronName = "3" targetNeuronName = "57" weight = "0.2574106696246248" />
    <synapse sourceNeuronName = "3" targetNeuronName = "58" weight = "-0.5986976859521016" />
    <synapse sourceNeuronName = "3" targetNeuronName = "59" weight = "-0.22224359852248265" />
    <synapse sourceNeuronName = "3" targetNeuronName = "60" weight = "0.6984147838044907" />
    <synapse sourceNeuronName = "3" targetNeuronName = "61" weight = "-0.7085760407552479" />
    <synapse sourceNeuronName = "3" targetNeuronName = "62" weight = "0.7234929518477748" />
    <synapse sourceNeuronName = "3" targetNeuronName = "63" weight = "0.9268126983066263" />
    <synapse sourceNeuronName = "3" targetNeuronName = "64" weight = "0.969110969466763" />
    <synapse sourceNeuronName = "3" targetNeuronName = "65" weight = "0.5967227603406509" />
    <synapse sourceNeuronName = "3" targetNeuronName = "66" weight = "0.37528446435922036" />
    <synapse sourceNeuronName = "3" targetNeuronName = "67" weight = "-0.5624098384528904" />
    <synapse sourceNeuronName = "3" targetNeuronName = "68" weight = "-0.2462665805661568" />
    <synapse sourceNeuronName = "3" targetNeuronName = "69" weight = "0.805785536366227" />
    <synapse sourceNeuronName = "3" targetNeuronName = "70" weight = "-0.39566885704897214" />
    <synapse sourceNeuronName = "3" targetNeuronName = "71" weight = "-0.011010132854209598" />
    <synapse sourceNeuronName = "3" targetNeuronName = "72" weight = "0.4545994470674495" />
    <synapse sourceNeuronName = "4" targetNeuronName = "37" weight = "0.2304037319181571" />
    <synapse sourceNeuronName = "4" targetNeuronName = "38" weight = "0.22316092104555585" />
    <synapse sourceNeuronName = "4" targetNeuronName = "39" weight = "0.7050168889497621" />
    <synapse sourceNeuronName = "4" targetNeuronName = "40" weight = "0.8767890187457303" />
    <synapse sourceNeuronName = "4" targetNeuronName = "41" weight = "0.32374087818105224" />
    <synapse sourceNeuronName = "4" targetNeuronName = "42" weight = "-0.2846298062167245" />
    <synapse sourceNeuronName = "4" targetNeuronName = "43" weight = "0.5724660009548213" />
    <synapse sourceNeuronName = "4" targetNeuronName = "44" weight = "0.19843646957303185" />
    <synapse sourceNeuronName = "4" targetNeuronName = "45" weight = "-0.6310613373179788" />
    <synapse sourceNeuronName = "4" targetNeuronName = "46" weight = "0.7400175779497324" />
    <synapse sourceNeuronName = "4" targetNeuronName = "47" weight = "0.9962832531283552" />
    <synapse sourceNeuronName = "4" targetNeuronName = "48" weight = "0.8914496510572567" />
    <synapse sourceNeuronName = "4" targetNeuronName = "49" weight = "0.3031774087016248" />
    <synapse sourceNeuronName = "4" targetNeuronName = "50" weight = "-0.7517676224424326" />
    <synapse sourceNeuronName = "4" targetNeuronName = "51" weight = "-0.6316470135472143" />
    <synapse sourceNeuronName = "4" targetNeuronName = "52" weight = "-0.6666265701498111" />
    <synapse sourceNeuronName = "4" targetNeuronName = "53" weight = "0.978978255606971" />
    <synapse sourceNeuronName = "4" targetNeuronName = "54" weight = "0.34756047323600026" />
    <synapse sourceNeuronName = "4" targetNeuronName = "55" weight = "-0.9340596529648684" />
    <synapse sourceNeuronName = "4" targetNeuronName = "56" weight = "-0.6894633544986355" />
    <synapse sourceNeuronName = "4" targetNeuronName = "57" weight = "0.5437637492396361" />
    <synapse sourceNeuronName = "4" targetNeuronName = "58" weight = "0.4309397195118352" />
    <synapse sourceNeuronName = "4" targetNeuronName = "59" weight = "-0.6193113705696573" />
    <synapse sourceNeuronName = "4" targetNeuronName = "60" weight = "-0.21843053595496253" />
    <synapse sourceNeuronName = "4" targetNeuronName = "61" weight = "-0.6009217909592646" />
    <synapse sourceNeuronName = "4" targetNeuronName = "62" weight = "-0.4440757123998158" />
    <synapse sourceNeuronName = "4" targetNeuronName = "63" weight = "-0.13553015137003532" />
    <synapse sourceNeuronName = "4" targetNeuronName = "64" weight = "-0.522157014629187" />
    <synapse sourceNeuronName = "4" targetNeuronName = "65" weight = "0.8906459580224575" />
    <synapse sourceNeuronName = "4" targetNeuronName = "66" weight = "-0.25706361721395954" />
    <synapse sourceNeuronName = "4" targetNeuronName = "67" weight = "0.9537510522827077" />
    <synapse sourceNeuronName = "4" targetNeuronName = "68" weight = "0.17803023383214178" />
    <synapse sourceNeuronName = "4" targetNeuronName = "69" weight = "-0.27532011105980003" />
    <synapse sourceNeuronName = "4" targetNeuronName = "70" weight = "-0.9859629175754105" />
    <synapse sourceNeuronName = "4" targetNeuronName = "71" weight = "-0.6653638054534863" />
    <synapse sourceNeuronName = "4" targetNeuronName = "72" weight = "-0.812077952157731" />
    <synapse sourceNeuronName = "5" targetNeuronName = "37" weight = "-0.49109902197413313" />
    <synapse sourceNeuronName = "5" targetNeuronName = "38" weight = "0.4649364450917981" />
    <synapse sourceNeuronName = "5" targetNeuronName = "39" weight = "0.11564997337902061" />
    <synapse sourceNeuronName = "5" targetNeuronName = "40" weight = "-0.698802707476792" />
    <synapse sourceNeuronName = "5" targetNeuronName = "41" weight = "-0.7581484481774279" />
    <synapse sourceNeuronName = "5" targetNeuronName = "42" weight = "-0.20418428309386338" />
    <synapse sourceNeuronName = "5" targetNeuronName = "43" weight = "-0.13652736977375746" />
    <synapse sourceNeuronName = "5" targetNeuronName = "44" weight = "-0.47909597656193803" />
    <synapse sourceNeuronName = "5" targetNeuronName = "45" weight = "0.7965628884407878" />
    <synapse sourceNeuronName = "5" targetNeuronName = "46" weight = "0.3937321703220531" />
    <synapse sourceNeuronName = "5" targetNeuronName = "47" weight = "-0.2074037336898671" />
    <synapse sourceNeuronName = "5" targetNeuronName = "48" weight = "-0.7651447878788813" />
    <synapse sourceNeuronName = "5" targetNeuronName = "49" weight = "-0.4910991534554854" />
    <synapse sourceNeuronName = "5" targetNeuronName = "50" weight = "0.6147297486435288" />
    <synapse sourceNeuronName = "5" targetNeuronName = "51" weight = "-0.6042118097944484" />
    <synapse sourceNeuronName = "5" targetNeuronName = "52" weight = "0.9493694963097992" />
    <synapse sourceNeuronName = "5" targetNeuronName = "53" weight = "0.8794406766869061" />
    <synapse sourceNeuronName = "5" targetNeuronName = "54" weight = "-0.4825028146748629" />
    <synapse sourceNeuronName = "5" targetNeuronName = "55" weight = "0.19733668715828756" />
    <synapse sourceNeuronName = "5" targetNeuronName = "56" weight = "-0.47635861355252573" />
    <synapse sourceNeuronName = "5" targetNeuronName = "57" weight = "-0.9229767726596241" />
    <synapse sourceNeuronName = "5" targetNeuronName = "58" weight = "0.7621555099140369" />
    <synapse sourceNeuronName = "5" targetNeuronName = "59" weight = "-0.751528212465153" />
    <synapse sourceNeuronName = "5" targetNeuronName = "60" weight = "-0.6983138286584214" />
    <synapse sourceNeuronName = "5" targetNeuronName = "61" weight = "0.4276008555502029" />
    <synapse sourceNeuronName = "5" targetNeuronName = "62" weight = "-0.48143325354290467" />
    <synapse sourceNeuronName = "5" targetNeuronName = "63" weight = "-0.5919500220516243" />
    <synapse sourceNeuronName = "5" targetNeuronName = "64" weight = "-0.9931338061218336" />
    <synapse sourceNeuronName = "5" targetNeuronName = "65" weight = "0.013379712588945436" />
    <synapse sourceNeuronName = "5" targetNeuronName = "66" weight = "-0.24546317420914132" />
    <synapse sourceNeuronName = "5" targetNeuronName = "67" weight = "-0.4739482729440383" />
    <synapse sourceNeuronName = "5" targetNeuronName = "68" weight = "-0.40372695052460306" />
    <synapse sourceNeuronName = "5" targetNeuronName = "69" weight = "0.2975235209727747" />
    <synapse sourceNeuronName = "5" targetNeuronName = "70" weight = "0.9738023420271051" />
    <synapse sourceNeuronName = "5" targetNeuronName = "71" weight = "0.9712898363257261" />
    <synapse sourceNeuronName = "5" targetNeuronName = "72" weight = "0.23211123007917278" />
    <synapse sourceNeuronName = "6" targetNeuronName = "37" weight = "-0.5279302442672982" />
    <synapse sourceNeuronName = "6" targetNeuronName = "38" weight = "0.896357406049701" />
    <synapse sourceNeuronName = "6" targetNeuronName = "39" weight = "0.7586449750490809" />
    <synapse sourceNeuronName = "6" targetNeuronName = "40" weight = "-0.5362709485152484" />
    <synapse sourceNeuronName = "6" targetNeuronName = "41" weight = "0.6603902167956825" />
    <synapse sourceNeuronName = "6" targetNeuronName = "42" weight = "-0.34198759690589786" />
    <synapse sourceNeuronName = "6" targetNeuronName = "43" weight = "-0.8719765274522915" />
    <synapse sourceNeuronName = "6" targetNeuronName = "44" weight = "0.977285507388781" />
    <synapse sourceNeuronName = "6" targetNeuronName = "45" weight = "-0.11832355995817401" />
    <synapse sourceNeuronName = "6" targetNeuronName = "46" weight = "-0.8534951834863189" />
    <synapse sourceNeuronName = "6" targetNeuronName = "47" weight = "0.155784280263227" />
    <synapse sourceNeuronName = "6" targetNeuronName = "48" weight = "-0.47458544054336715" />
    <synapse sourceNeuronName = "6" targetNeuronName = "49" weight = "0.16728247310590882" />
    <synapse sourceNeuronName = "6" targetNeuronName = "50" weight = "0.9700299119858389" />
    <synapse sourceNeuronName = "6" targetNeuronName = "51" weight = "-0.5669897959675834" />
    <synapse sourceNeuronName = "6" targetNeuronName = "52" weight = "-0.5882820864997935" />
    <synapse sourceNeuronName = "6" targetNeuronName = "53" weight = "-0.982792196416783" />
    <synapse sourceNeuronName = "6" targetNeuronName = "54" weight = "-0.804334303926749" />
    <synapse sourceNeuronName = "6" targetNeuronName = "55" weight = "-0.9687617279982836" />
    <synapse sourceNeuronName = "6" targetNeuronName = "56" weight = "0.2767323726901776" />
    <synapse sourceNeuronName = "6" targetNeuronName = "57" weight = "-0.5761869031648237" />
    <synapse sourceNeuronName = "6" targetNeuronName = "58" weight = "0.2976645614206417" />
    <synapse sourceNeuronName = "6" targetNeuronName = "59" weight = "-0.4679486358703282" />
    <synapse sourceNeuronName = "6" targetNeuronName = "60" weight = "-0.3608674029891217" />
    <synapse sourceNeuronName = "6" targetNeuronName = "61" weight = "-0.8340609321329877" />
    <synapse sourceNeuronName = "6" targetNeuronName = "62" weight = "-0.8031007305259434" />
    <synapse sourceNeuronName = "6" targetNeuronName = "63" weight = "-0.574387217708558" />
    <synapse sourceNeuronName = "6" targetNeuronName = "64" weight = "-0.590671266631362" />
    <synapse sourceNeuronName = "6" targetNeuronName = "65" weight = "-0.5458754588688217" />
    <synapse sourceNeuronName = "6" targetNeuronName = "66" weight = "-0.8774014392059069" />
    <synapse sourceNeuronName = "6" targetNeuronName = "67" weight = "0.6270017805894921" />
    <synapse sourceNeuronName = "6" targetNeuronName = "68" weight = "0.4923582832732365" />
    <synapse sourceNeuronName = "6" targetNeuronName = "69" weight = "0.08736385872297858" />
    <synapse sourceNeuronName = "6" targetNeuronName = "70" weight = "-0.5148319294493213" />
    <synapse sourceNeuronName = "6" targetNeuronName = "71" weight = "0.5120497996415805" />
    <synapse sourceNeuronName = "6" targetNeuronName = "72" weight = "-0.8475136227971205" />
    <synapse sourceNeuronName = "7" targetNeuronName = "37" weight = "-0.4888385280368397" />
    <synapse sourceNeuronName = "7" targetNeuronName = "38" weight = "0.0790074690628364" />
    <synapse sourceNeuronName = "7" targetNeuronName = "39" weight = "0.7003934906315756" />
    <synapse sourceNeuronName = "7" targetNeuronName = "40" weight = "0.6927701805156548" />
    <synapse sourceNeuronName = "7" targetNeuronName = "41" weight = "-0.4495103768285216" />
    <synapse sourceNeuronName = "7" targetNeuronName = "42" weight = "-0.1430090456444233" />
    <synapse sourceNeuronName = "7" targetNeuronName = "43" weight = "-0.059568444918367325" />
    <synapse sourceNeuronName = "7" targetNeuronName = "44" weight = "-0.15494104725707625" />
    <synapse sourceNeuronName = "7" targetNeuronName = "45" weight = "-0.24484309669622184" />
    <synapse sourceNeuronName = "7" targetNeuronName = "46" weight = "-0.7273576982516203" />
    <synapse sourceNeuronName = "7" targetNeuronName = "47" weight = "-0.7942656566812107" />
    <synapse sourceNeuronName = "7" targetNeuronName = "48" weight = "0.6962229874160495" />
    <synapse sourceNeuronName = "7" targetNeuronName = "49" weight = "-0.4711365869310977" />
    <synapse sourceNeuronName = "7" targetNeuronName = "50" weight = "0.3819879706942737" />
    <synapse sourceNeuronName = "7" targetNeuronName = "51" weight = "0.03598292175072415" />
    <synapse sourceNeuronName = "7" targetNeuronName = "52" weight = "0.7132908254901102" />
    <synapse sourceNeuronName = "7" targetNeuronName = "53" weight = "-0.5255687201040138" />
    <synapse sourceNeuronName = "7" targetNeuronName = "54" weight = "0.4182737902682603" />
    <synapse sourceNeuronName = "7" targetNeuronName = "55" weight = "0.0901373102939016" />
    <synapse sourceNeuronName = "7" targetNeuronName = "56" weight = "0.22738516652380514" />
    <synapse sourceNeuronName = "7" targetNeuronName = "57" weight = "-0.6399756697639949" />
    <synapse sourceNeuronName = "7" targetNeuronName = "58" weight = "0.8674074308900601" />
    <synapse sourceNeuronName = "7" targetNeuronName = "59" weight = "-0.042696157501804555" />
    <synapse sourceNeuronName = "7" targetNeuronName = "60" weight = "-0.4379282751253002" />
    <synapse sourceNeuronName = "7" targetNeuronName = "61" weight = "-0.39120849055144014" />
    <synapse sourceNeuronName = "7" targetNeuronName = "62" weight = "-0.3108620744263553" />
    <synapse sourceNeuronName = "7" targetNeuronName = "63" weight = "0.857014691362687" />
    <synapse sourceNeuronName = "7" targetNeuronName = "64" weight = "0.016632489792879346" />
    <synapse sourceNeuronName = "7" targetNeuronName = "65" weight = "0.858021634664049" />
    <synapse sourceNeuronName = "7" targetNeuronName = "66" weight = "0.4234388350324738" />
    <synapse sourceNeuronName = "7" targetNeuronName = "67" weight = "0.6691418254828199" />
    <synapse sourceNeuronName = "7" targetNeuronName = "68" weight = "-0.9319758922116679" />
    <synapse sourceNeuronName = "7" targetNeuronName = "69" weight = "0.15566011965316706" />
    <synapse sourceNeuronName = "7" targetNeuronName = "70" weight = "-0.23838044740221687" />
    <synapse sourceNeuronName = "7" targetNeuronName = "71" weight = "0.3497244973193119" />
    <synapse sourceNeuronName = "7" targetNeuronName = "72" weight = "-0.019017425225482443" />
    <synapse sourceNeuronName = "8" targetNeuronName = "37" weight = "0.01554216259851926" />
    <synapse sourceNeuronName = "8" targetNeuronName = "38" weight = "0.5927057654040779" />
    <synapse sourceNeuronName = "8" targetNeuronName = "39" weight = "-0.43348619144025125" />
    <synapse sourceNeuronName = "8" targetNeuronName = "40" weight = "0.013091765821350299" />
    <synapse sourceNeuronName = "8" targetNeuronName = "41" weight = "-0.3534401389269388" />
    <synapse sourceNeuronName = "8" targetNeuronName = "42" weight = "0.5734760926141369" />
    <synapse sourceNeuronName = "8" targetNeuronName = "43" weight = "-0.9638308772218704" />
    <synapse sourceNeuronName = "8" targetNeuronName = "44" weight = "0.8110327115563567" />
    <synapse sourceNeuronName = "8" targetNeuronName = "45" weight = "0.9276534636637519" />
    <synapse sourceNeuronName = "8" targetNeuronName = "46" weight = "-0.34022206585258385" />
    <synapse sourceNeuronName = "8" targetNeuronName = "47" weight = "0.5396215082193683" />
    <synapse sourceNeuronName = "8" targetNeuronName = "48" weight = "-0.5594163675709971" />
    <synapse sourceNeuronName = "8" targetNeuronName = "49" weight = "0.07346739853266948" />
    <synapse sourceNeuronName = "8" targetNeuronName = "50" weight = "0.7071591437860156" />
    <synapse sourceNeuronName = "8" targetNeuronName = "51" weight = "-0.8028425186348682" />
    <synapse sourceNeuronName = "8" targetNeuronName = "52" weight = "0.511382191958583" />
    <synapse sourceNeuronName = "8" targetNeuronName = "53" weight = "0.4129767195515808" />
    <synapse sourceNeuronName = "8" targetNeuronName = "54" weight = "-0.42961738228082713" />
    <synapse sourceNeuronName = "8" targetNeuronName = "55" weight = "-0.6421079860809404" />
    <synapse sourceNeuronName = "8" targetNeuronName = "56" weight = "0.05553868188943589" />
    <synapse sourceNeuronName = "8" targetNeuronName = "57" weight = "0.23226218078343286" />
    <synapse sourceNeuronName = "8" targetNeuronName = "58" weight = "0.5843639869509936" />
    <synapse sourceNeuronName = "8" targetNeuronName = "59" weight = "-0.9675075065539018" />
    <synapse sourceNeuronName = "8" targetNeuronName = "60" weight = "0.5155430200555733" />
    <synapse sourceNeuronName = "8" targetNeuronName = "61" weight = "0.12756211781217686" />
    <synapse sourceNeuronName = "8" targetNeuronName = "62" weight = "-0.4570905488921606" />
    <synapse sourceNeuronName = "8" targetNeuronName = "63" weight = "0.9705218903767912" />
    <synapse sourceNeuronName = "8" targetNeuronName = "64" weight = "-0.20866929245048738" />
    <synapse sourceNeuronName = "8" targetNeuronName = "65" weight = "-0.7675945643920208" />
    <synapse sourceNeuronName = "8" targetNeuronName = "66" weight = "-0.7482605372009656" />
    <synapse sourceNeuronName = "8" targetNeuronName = "67" weight = "0.036394997923133277" />
    <synapse sourceNeuronName = "8" targetNeuronName = "68" weight = "-0.691611116821808" />
    <synapse sourceNeuronName = "8" targetNeuronName = "69" weight = "0.5152190776776238" />
    <synapse sourceNeuronName = "8" targetNeuronName = "70" weight = "0.4906719465640399" />
    <synapse sourceNeuronName = "8" targetNeuronName = "71" weight = "0.9497039180839573" />
    <synapse sourceNeuronName = "8" targetNeuronName = "72" weight = "-0.20854357486104758" />
    <synapse sourceNeuronName = "9" targetNeuronName = "37" weight = "0.9232795419033741" />
    <synapse sourceNeuronName = "9" targetNeuronName = "38" weight = "-0.5155540430213232" />
    <synapse sourceNeuronName = "9" targetNeuronName = "39" weight = "0.24967346194879392" />
    <synapse sourceNeuronName = "9" targetNeuronName = "40" weight = "-0.8649091261435708" />
    <synapse sourceNeuronName = "9" targetNeuronName = "41" weight = "0.34889749064433784" />
    <synapse sourceNeuronName = "9" targetNeuronName = "42" weight = "-0.471550523530311" />
    <synapse sourceNeuronName = "9" targetNeuronName = "43" weight = "0.40540504940067135" />
    <synapse sourceNeuronName = "9" targetNeuronName = "44" weight = "-0.8948008555821187" />
    <synapse sourceNeuronName = "9" targetNeuronName = "45" weight = "-0.051896411726247704" />
    <synapse sourceNeuronName = "9" targetNeuronName = "46" weight = "-0.1326478114801637" />
    <synapse sourceNeuronName = "9" targetNeuronName = "47" weight = "-0.5601684411124053" />
    <synapse sourceNeuronName = "9" targetNeuronName = "48" weight = "-0.19854488038745277" />
    <synapse sourceNeuronName = "9" targetNeuronName = "49" weight = "-0.8751746386750998" />
    <synapse sourceNeuronName = "9" targetNeuronName = "50" weight = "0.8491028957008953" />
    <synapse sourceNeuronName = "9" targetNeuronName = "51" weight = "0.5014171015463758" />
    <synapse sourceNeuronName = "9" targetNeuronName = "52" weight = "0.26669803143528426" />
    <synapse sourceNeuronName = "9" targetNeuronName = "53" weight = "0.11744271105650372" />
    <synapse sourceNeuronName = "9" targetNeuronName = "54" weight = "-0.3856023727775735" />
    <synapse sourceNeuronName = "9" targetNeuronName = "55" weight = "-0.3447252106795562" />
    <synapse sourceNeuronName = "9" targetNeuronName = "56" weight = "-0.47038937144325255" />
    <synapse sourceNeuronName = "9" targetNeuronName = "57" weight = "-0.8975836158659984" />
    <synapse sourceNeuronName = "9" targetNeuronName = "58" weight = "0.1779715887027684" />
    <synapse sourceNeuronName = "9" targetNeuronName = "59" weight = "-0.3080411659981126" />
    <synapse sourceNeuronName = "9" targetNeuronName = "60" weight = "-0.7643825101410371" />
    <synapse sourceNeuronName = "9" targetNeuronName = "61" weight = "-0.9859302979199289" />
    <synapse sourceNeuronName = "9" targetNeuronName = "62" weight = "0.021273363802248424" />
    <synapse sourceNeuronName = "9" targetNeuronName = "63" weight = "-0.654361250317359" />
    <synapse sourceNeuronName = "9" targetNeuronName = "64" weight = "0.6921838719395028" />
    <synapse sourceNeuronName = "9" targetNeuronName = "65" weight = "0.35773446922251084" />
    <synapse sourceNeuronName = "9" targetNeuronName = "66" weight = "-0.8343682780963722" />
    <synapse sourceNeuronName = "9" targetNeuronName = "67" weight = "-0.054888802576448015" />
    <synapse sourceNeuronName = "9" targetNeuronName = "68" weight = "0.3001660944249436" />
    <synapse sourceNeuronName = "9" targetNeuronName = "69" weight = "-0.39768364540481116" />
    <synapse sourceNeuronName = "9" targetNeuronName = "70" weight = "-0.15900630987034736" />
    <synapse sourceNeuronName = "9" targetNeuronName = "71" weight = "0.33301483218481165" />
    <synapse sourceNeuronName = "9" targetNeuronName = "72" weight = "0.3938180894921446" />
    <synapse sourceNeuronName = "10" targetNeuronName = "37" weight = "0.08675501369562055" />
    <synapse sourceNeuronName = "10" targetNeuronName = "38" weight = "0.3081106151663764" />
    <synapse sourceNeuronName = "10" targetNeuronName = "39" weight = "-0.8982679625387839" />
    <synapse sourceNeuronName = "10" targetNeuronName = "40" weight = "-0.31253925946311" />
    <synapse sourceNeuronName = "10" targetNeuronName = "41" weight = "-0.3795215287505578" />
    <synapse sourceNeuronName = "10" targetNeuronName = "42" weight = "0.2502806925552783" />
    <synapse sourceNeuronName = "10" targetNeuronName = "43" weight = "-0.2647166753906345" />
    <synapse sourceNeuronName = "10" targetNeuronName = "44" weight = "0.17469793911513842" />
    <synapse sourceNeuronName = "10" targetNeuronName = "45" weight = "0.33173216737920463" />
    <synapse sourceNeuronName = "10" targetNeuronName = "46" weight = "0.7236710602551619" />
    <synapse sourceNeuronName = "10" targetNeuronName = "47" weight = "-0.7302483527826076" />
    <synapse sourceNeuronName = "10" targetNeuronName = "48" weight = "0.8936863933060268" />
    <synapse sourceNeuronName = "10" targetNeuronName = "49" weight = "0.2591385463148683" />
    <synapse sourceNeuronName = "10" targetNeuronName = "50" weight = "0.25190748410823804" />
    <synapse sourceNeuronName = "10" targetNeuronName = "51" weight = "-0.04527086017939608" />
    <synapse sourceNeuronName = "10" targetNeuronName = "52" weight = "-0.554722823218295" />
    <synapse sourceNeuronName = "10" targetNeuronName = "53" weight = "0.7435779919417183" />
    <synapse sourceNeuronName = "10" targetNeuronName = "54" weight = "0.7636292095617336" />
    <synapse sourceNeuronName = "10" targetNeuronName = "55" weight = "-0.4233073432514869" />
    <synapse sourceNeuronName = "10" targetNeuronName = "56" weight = "0.7873454446943451" />
    <synapse sourceNeuronName = "10" targetNeuronName = "57" weight = "-0.4830577995704155" />
    <synapse sourceNeuronName = "10" targetNeuronName = "58" weight = "-0.0629618921113635" />
    <synapse sourceNeuronName = "10" targetNeuronName = "59" weight = "-0.8859045586645562" />
    <synapse sourceNeuronName = "10" targetNeuronName = "60" weight = "-0.08764416646075301" />
    <synapse sourceNeuronName = "10" targetNeuronName = "61" weight = "-0.482116295517965" />
    <synapse sourceNeuronName = "10" targetNeuronName = "62" weight = "-0.7615445915146697" />
    <synapse sourceNeuronName = "10" targetNeuronName = "63" weight = "-0.7308093042950528" />
    <synapse sourceNeuronName = "10" targetNeuronName = "64" weight = "-0.8812994767117912" />
    <synapse sourceNeuronName = "10" targetNeuronName = "65" weight = "0.47691742695864514" />
    <synapse sourceNeuronName = "10" targetNeuronName = "66" weight = "-0.8184847782401059" />
    <synapse sourceNeuronName = "10" targetNeuronName = "67" weight = "0.5843459514894942" />
    <synapse sourceNeuronName = "10" targetNeuronName = "68" weight = "0.6884799695312751" />
    <synapse sourceNeuronName = "10" targetNeuronName = "69" weight = "-0.035706205075684894" />
    <synapse sourceNeuronName = "10" targetNeuronName = "70" weight = "0.8368366613927543" />
    <synapse sourceNeuronName = "10" targetNeuronName = "71" weight = "-0.0038439370591265565" />
    <synapse sourceNeuronName = "10" targetNeuronName = "72" weight = "-0.7427240634334626" />
    <synapse sourceNeuronName = "11" targetNeuronName = "37" weight = "-0.6400254072736093" />
    <synapse sourceNeuronName = "11" targetNeuronName = "38" weight = "-0.6036198520646474" />
    <synapse sourceNeuronName = "11" targetNeuronName = "39" weight = "-0.7818725884296487" />
    <synapse sourceNeuronName = "11" targetNeuronName = "40" weight = "0.9699899224806026" />
    <synapse sourceNeuronName = "11" targetNeuronName = "41" weight = "0.36793192667340047" />
    <synapse sourceNeuronName = "11" targetNeuronName = "42" weight = "0.20372293207777847" />
    <synapse sourceNeuronName = "11" targetNeuronName = "43" weight = "-0.5781067988030288" />
    <synapse sourceNeuronName = "11" targetNeuronName = "44" weight = "0.8540749779193109" />
    <synapse sourceNeuronName = "11" targetNeuronName = "45" weight = "0.530227033876703" />
    <synapse sourceNeuronName = "11" targetNeuronName = "46" weight = "0.11418908502254199" />
    <synapse sourceNeuronName = "11" targetNeuronName = "47" weight = "0.737377208556115" />
    <synapse sourceNeuronName = "11" targetNeuronName = "48" weight = "0.3257158427591158" />
    <synapse sourceNeuronName = "11" targetNeuronName = "49" weight = "-0.8300254877654754" />
    <synapse sourceNeuronName = "11" targetNeuronName = "50" weight = "-0.35262214544920756" />
    <synapse sourceNeuronName = "11" targetNeuronName = "51" weight = "-0.8932991475637464" />
    <synapse sourceNeuronName = "11" targetNeuronName = "52" weight = "0.9950634029853955" />
    <synapse sourceNeuronName = "11" targetNeuronName = "53" weight = "-0.3144301947799433" />
    <synapse sourceNeuronName = "11" targetNeuronName = "54" weight = "-0.392354271804064" />
    <synapse sourceNeuronName = "11" targetNeuronName = "55" weight = "-0.8425969799702189" />
    <synapse sourceNeuronName = "11" targetNeuronName = "56" weight = "0.7851115115026737" />
    <synapse sourceNeuronName = "11" targetNeuronName = "57" weight = "0.12592295206144133" />
    <synapse sourceNeuronName = "11" targetNeuronName = "58" weight = "0.4705939495732516" />
    <synapse sourceNeuronName = "11" targetNeuronName = "59" weight = "-0.02341451667931671" />
    <synapse sourceNeuronName = "11" targetNeuronName = "60" weight = "0.6816360797248255" />
    <synapse sourceNeuronName = "11" targetNeuronName = "61" weight = "-0.9287163329446542" />
    <synapse sourceNeuronName = "11" targetNeuronName = "62" weight = "-0.1631241895237856" />
    <synapse sourceNeuronName = "11" targetNeuronName = "63" weight = "0.07930425655544404" />
    <synapse sourceNeuronName = "11" targetNeuronName = "64" weight = "-0.31337767571324004" />
    <synapse sourceNeuronName = "11" targetNeuronName = "65" weight = "-0.048004951192000656" />
    <synapse sourceNeuronName = "11" targetNeuronName = "66" weight = "0.6791591486197928" />
    <synapse sourceNeuronName = "11" targetNeuronName = "67" weight = "-0.7998395441390971" />
    <synapse sourceNeuronName = "11" targetNeuronName = "68" weight = "0.2798959092965865" />
    <synapse sourceNeuronName = "11" targetNeuronName = "69" weight = "0.6021897243176453" />
    <synapse sourceNeuronName = "11" targetNeuronName = "70" weight = "0.8537557715727968" />
    <synapse sourceNeuronName = "11" targetNeuronName = "71" weight = "0.8773151581247394" />
    <synapse sourceNeuronName = "11" targetNeuronName = "72" weight = "-0.3755818651985974" />
    <synapse sourceNeuronName = "12" targetNeuronName = "37" weight = "0.494821765691122" />
    <synapse sourceNeuronName = "12" targetNeuronName = "38" weight = "-0.8922744456889911" />
    <synapse sourceNeuronName = "12" targetNeuronName = "39" weight = "0.5409047887760705" />
    <synapse sourceNeuronName = "12" targetNeuronName = "40" weight = "-0.7549273418979472" />
    <synapse sourceNeuronName = "12" targetNeuronName = "41" weight = "0.02694670387868192" />
    <synapse sourceNeuronName = "12" targetNeuronName = "42" weight = "-0.5901954692735223" />
    <synapse sourceNeuronName = "12" targetNeuronName = "43" weight = "0.5171345401299083" />
    <synapse sourceNeuronName = "12" targetNeuronName = "44" weight = "-0.5195872731297422" />
    <synapse sourceNeuronName = "12" targetNeuronName = "45" weight = "-0.05632625409365799" />
    <synapse sourceNeuronName = "12" targetNeuronName = "46" weight = "-0.8247777066508706" />
    <synapse sourceNeuronName = "12" targetNeuronName = "47" weight = "-0.07206503231836203" />
    <synapse sourceNeuronName = "12" targetNeuronName = "48" weight = "-0.031985291319456266" />
    <synapse sourceNeuronName = "12" targetNeuronName = "49" weight = "-0.22216780197913666" />
    <synapse sourceNeuronName = "12" targetNeuronName = "50" weight = "0.6255105639466241" />
    <synapse sourceNeuronName = "12" targetNeuronName = "51" weight = "-0.3780240354863158" />
    <synapse sourceNeuronName = "12" targetNeuronName = "52" weight = "-0.9380323153652388" />
    <synapse sourceNeuronName = "12" targetNeuronName = "53" weight = "0.18268976489033362" />
    <synapse sourceNeuronName = "12" targetNeuronName = "54" weight = "0.6611207463465905" />
    <synapse sourceNeuronName = "12" targetNeuronName = "55" weight = "0.06923983049941396" />
    <synapse sourceNeuronName = "12" targetNeuronName = "56" weight = "0.4573147072087742" />
    <synapse sourceNeuronName = "12" targetNeuronName = "57" weight = "-0.5644775341098569" />
    <synapse sourceNeuronName = "12" targetNeuronName = "58" weight = "0.49347342589583354" />
    <synapse sourceNeuronName = "12" targetNeuronName = "59" weight = "0.8233968124525899" />
    <synapse sourceNeuronName = "12" targetNeuronName = "60" weight = "-0.7671952647782878" />
    <synapse sourceNeuronName = "12" targetNeuronName = "61" weight = "0.3797380468738507" />
    <synapse sourceNeuronName = "12" targetNeuronName = "62" weight = "0.8380429905666611" />
    <synapse sourceNeuronName = "12" targetNeuronName = "63" weight = "-0.527555040406744" />
    <synapse sourceNeuronName = "12" targetNeuronName = "64" weight = "0.6324887105699211" />
    <synapse sourceNeuronName = "12" targetNeuronName = "65" weight = "-0.6548539880841859" />
    <synapse sourceNeuronName = "12" targetNeuronName = "66" weight = "0.11016385524896877" />
    <synapse sourceNeuronName = "12" targetNeuronName = "67" weight = "0.7407220965815962" />
    <synapse sourceNeuronName = "12" targetNeuronName = "68" weight = "0.007857779094440964" />
    <synapse sourceNeuronName = "12" targetNeuronName = "69" weight = "0.09851261253582422" />
    <synapse sourceNeuronName = "12" targetNeuronName = "70" weight = "0.9481805542361768" />
    <synapse sourceNeuronName = "12" targetNeuronName = "71" weight = "0.17459847733935918" />
    <synapse sourceNeuronName = "12" targetNeuronName = "72" weight = "-0.33621308272479467" />
    <synapse sourceNeuronName = "13" targetNeuronName = "37" weight = "-0.989258196627943" />
    <synapse sourceNeuronName = "13" targetNeuronName = "38" weight = "-0.30126689465740175" />
    <synapse sourceNeuronName = "13" targetNeuronName = "39" weight = "-0.7768077823614028" />
    <synapse sourceNeuronName = "13" targetNeuronName = "40" weight = "0.08724546871601713" />
    <synapse sourceNeuronName = "13" targetNeuronName = "41" weight = "0.264373509002241" />
    <synapse sourceNeuronName = "13" targetNeuronName = "42" weight = "0.9758539035758016" />
    <synapse sourceNeuronName = "13" targetNeuronName = "43" weight = "0.1207615622658007" />
    <synapse sourceNeuronName = "13" targetNeuronName = "44" weight = "0.24522406134747898" />
    <synapse sourceNeuronName = "13" targetNeuronName = "45" weight = "-0.14658944259087003" />
    <synapse sourceNeuronName = "13" targetNeuronName = "46" weight = "-0.11363783459196442" />
    <synapse sourceNeuronName = "13" targetNeuronName = "47" weight = "0.5660557236192834" />
    <synapse sourceNeuronName = "13" targetNeuronName = "48" weight = "0.4913290862422184" />
    <synapse sourceNeuronName = "13" targetNeuronName = "49" weight = "0.8681883711637288" />
    <synapse sourceNeuronName = "13" targetNeuronName = "50" weight = "-0.6529560479234351" />
    <synapse sourceNeuronName = "13" targetNeuronName = "51" weight = "0.32436579284635947" />
    <synapse sourceNeuronName = "13" targetNeuronName = "52" weight = "-0.7845601109051747" />
    <synapse sourceNeuronName = "13" targetNeuronName = "53" weight = "0.42479811780177523" />
    <synapse sourceNeuronName = "13" targetNeuronName = "54" weight = "0.001383677930931304" />
    <synapse sourceNeuronName = "13" targetNeuronName = "55" weight = "0.7353878883679044" />
    <synapse sourceNeuronName = "13" targetNeuronName = "56" weight = "-0.4728567864421356" />
    <synapse sourceNeuronName = "13" targetNeuronName = "57" weight = "-0.9957384175439596" />
    <synapse sourceNeuronName = "13" targetNeuronName = "58" weight = "-0.4597750805982388" />
    <synapse sourceNeuronName = "13" targetNeuronName = "59" weight = "0.7270386770561568" />
    <synapse sourceNeuronName = "13" targetNeuronName = "60" weight = "0.3268694049256511" />
    <synapse sourceNeuronName = "13" targetNeuronName = "61" weight = "0.37166722329873214" />
    <synapse sourceNeuronName = "13" targetNeuronName = "62" weight = "0.9541609228936996" />
    <synapse sourceNeuronName = "13" targetNeuronName = "63" weight = "-0.03288263603948827" />
    <synapse sourceNeuronName = "13" targetNeuronName = "64" weight = "0.7458958104732389" />
    <synapse sourceNeuronName = "13" targetNeuronName = "65" weight = "-0.5045323658323044" />
    <synapse sourceNeuronName = "13" targetNeuronName = "66" weight = "-0.2483750176235957" />
    <synapse sourceNeuronName = "13" targetNeuronName = "67" weight = "-0.921767361551634" />
    <synapse sourceNeuronName = "13" targetNeuronName = "68" weight = "-0.0071853183135879295" />
    <synapse sourceNeuronName = "13" targetNeuronName = "69" weight = "-0.8508136806932325" />
    <synapse sourceNeuronName = "13" targetNeuronName = "70" weight = "0.6771930561857493" />
    <synapse sourceNeuronName = "13" targetNeuronName = "71" weight = "0.2082601125825052" />
    <synapse sourceNeuronName = "13" targetNeuronName = "72" weight = "-0.4845297989228554" />
    <synapse sourceNeuronName = "14" targetNeuronName = "37" weight = "0.42385571838052005" />
    <synapse sourceNeuronName = "14" targetNeuronName = "38" weight = "-0.05661124755288349" />
    <synapse sourceNeuronName = "14" targetNeuronName = "39" weight = "-0.6548125274503191" />
    <synapse sourceNeuronName = "14" targetNeuronName = "40" weight = "0.9132014150524006" />
    <synapse sourceNeuronName = "14" targetNeuronName = "41" weight = "-0.7020334177440439" />
    <synapse sourceNeuronName = "14" targetNeuronName = "42" weight = "-0.2035784330227095" />
    <synapse sourceNeuronName = "14" targetNeuronName = "43" weight = "0.22046906208128192" />
    <synapse sourceNeuronName = "14" targetNeuronName = "44" weight = "0.11457189668859558" />
    <synapse sourceNeuronName = "14" targetNeuronName = "45" weight = "0.3489608039433034" />
    <synapse sourceNeuronName = "14" targetNeuronName = "46" weight = "-0.7939534501558201" />
    <synapse sourceNeuronName = "14" targetNeuronName = "47" weight = "-0.2882467532027706" />
    <synapse sourceNeuronName = "14" targetNeuronName = "48" weight = "-0.3603439582239574" />
    <synapse sourceNeuronName = "14" targetNeuronName = "49" weight = "0.4944646575029603" />
    <synapse sourceNeuronName = "14" targetNeuronName = "50" weight = "-0.7618252368713287" />
    <synapse sourceNeuronName = "14" targetNeuronName = "51" weight = "-0.3479610975361327" />
    <synapse sourceNeuronName = "14" targetNeuronName = "52" weight = "0.9608467349875718" />
    <synapse sourceNeuronName = "14" targetNeuronName = "53" weight = "-0.03339139554233683" />
    <synapse sourceNeuronName = "14" targetNeuronName = "54" weight = "0.6991603857320059" />
    <synapse sourceNeuronName = "14" targetNeuronName = "55" weight = "0.09229486921490504" />
    <synapse sourceNeuronName = "14" targetNeuronName = "56" weight = "-0.9800263038306498" />
    <synapse sourceNeuronName = "14" targetNeuronName = "57" weight = "-0.4175340001879073" />
    <synapse sourceNeuronName = "14" targetNeuronName = "58" weight = "0.9396739478901155" />
    <synapse sourceNeuronName = "14" targetNeuronName = "59" weight = "-0.37022578654293925" />
    <synapse sourceNeuronName = "14" targetNeuronName = "60" weight = "-0.0999429215043619" />
    <synapse sourceNeuronName = "14" targetNeuronName = "61" weight = "0.7948816054152585" />
    <synapse sourceNeuronName = "14" targetNeuronName = "62" weight = "0.5361731597002051" />
    <synapse sourceNeuronName = "14" targetNeuronName = "63" weight = "0.30331694973354084" />
    <synapse sourceNeuronName = "14" targetNeuronName = "64" weight = "0.8556015734121385" />
    <synapse sourceNeuronName = "14" targetNeuronName = "65" weight = "-0.8695032699999232" />
    <synapse sourceNeuronName = "14" targetNeuronName = "66" weight = "0.03788697680959907" />
    <synapse sourceNeuronName = "14" targetNeuronName = "67" weight = "0.049048366412917765" />
    <synapse sourceNeuronName = "14" targetNeuronName = "68" weight = "0.587255727978601" />
    <synapse sourceNeuronName = "14" targetNeuronName = "69" weight = "-0.0642497580402015" />
    <synapse sourceNeuronName = "14" targetNeuronName = "70" weight = "-0.5152077798322552" />
    <synapse sourceNeuronName = "14" targetNeuronName = "71" weight = "0.6316298030413103" />
    <synapse sourceNeuronName = "14" targetNeuronName = "72" weight = "-0.036101028318797024" />
    <synapse sourceNeuronName = "15" targetNeuronName = "37" weight = "0.46812121538101525" />
    <synapse sourceNeuronName = "15" targetNeuronName = "38" weight = "0.7535647080581753" />
    <synapse sourceNeuronName = "15" targetNeuronName = "39" weight = "0.6801324688636075" />
    <synapse sourceNeuronName = "15" targetNeuronName = "40" weight = "0.0030606468047393864" />
    <synapse sourceNeuronName = "15" targetNeuronName = "41" weight = "0.32946726801428916" />
    <synapse sourceNeuronName = "15" targetNeuronName = "42" weight = "-0.11828539483967715" />
    <synapse sourceNeuronName = "15" targetNeuronName = "43" weight = "0.1740836154164047" />
    <synapse sourceNeuronName = "15" targetNeuronName = "44" weight = "0.43605833734143395" />
    <synapse sourceNeuronName = "15" targetNeuronName = "45" weight = "-0.8451629272280157" />
    <synapse sourceNeuronName = "15" targetNeuronName = "46" weight = "0.9385287299611278" />
    <synapse sourceNeuronName = "15" targetNeuronName = "47" weight = "0.6469345972268941" />
    <synapse sourceNeuronName = "15" targetNeuronName = "48" weight = "-0.8526321616777417" />
    <synapse sourceNeuronName = "15" targetNeuronName = "49" weight = "0.5505517643862048" />
    <synapse sourceNeuronName = "15" targetNeuronName = "50" weight = "-0.9749337065175119" />
    <synapse sourceNeuronName = "15" targetNeuronName = "51" weight = "0.2573782255600261" />
    <synapse sourceNeuronName = "15" targetNeuronName = "52" weight = "-0.644407621964306" />
    <synapse sourceNeuronName = "15" targetNeuronName = "53" weight = "-0.9114231130316532" />
    <synapse sourceNeuronName = "15" targetNeuronName = "54" weight = "0.7460744181498999" />
    <synapse sourceNeuronName = "15" targetNeuronName = "55" weight = "-0.46264125305106374" />
    <synapse sourceNeuronName = "15" targetNeuronName = "56" weight = "-0.5076656930982077" />
    <synapse sourceNeuronName = "15" targetNeuronName = "57" weight = "-0.29389093184289883" />
    <synapse sourceNeuronName = "15" targetNeuronName = "58" weight = "0.41986637970068696" />
    <synapse sourceNeuronName = "15" targetNeuronName = "59" weight = "0.24378076236550217" />
    <synapse sourceNeuronName = "15" targetNeuronName = "60" weight = "-0.9686262920996023" />
    <synapse sourceNeuronName = "15" targetNeuronName = "61" weight = "0.18868313120924474" />
    <synapse sourceNeuronName = "15" targetNeuronName = "62" weight = "-0.9804291940003855" />
    <synapse sourceNeuronName = "15" targetNeuronName = "63" weight = "0.046140614945897385" />
    <synapse sourceNeuronName = "15" targetNeuronName = "64" weight = "0.9209885190846621" />
    <synapse sourceNeuronName = "15" targetNeuronName = "65" weight = "-0.8546354028959566" />
    <synapse sourceNeuronName = "15" targetNeuronName = "66" weight = "0.5582297269188081" />
    <synapse sourceNeuronName = "15" targetNeuronName = "67" weight = "-0.49627129832516514" />
    <synapse sourceNeuronName = "15" targetNeuronName = "68" weight = "0.6807019568868444" />
    <synapse sourceNeuronName = "15" targetNeuronName = "69" weight = "-0.37719509467733103" />
    <synapse sourceNeuronName = "15" targetNeuronName = "70" weight = "0.9664793390376389" />
    <synapse sourceNeuronName = "15" targetNeuronName = "71" weight = "-0.3269661251807974" />
    <synapse sourceNeuronName = "15" targetNeuronName = "72" weight = "-0.5479901143129375" />
    <synapse sourceNeuronName = "16" targetNeuronName = "37" weight = "-0.8633278652927445" />
    <synapse sourceNeuronName = "16" targetNeuronName = "38" weight = "0.23753807619162104" />
    <synapse sourceNeuronName = "16" targetNeuronName = "39" weight = "-0.4636271008166195" />
    <synapse sourceNeuronName = "16" targetNeuronName = "40" weight = "-0.01611788729213215" />
    <synapse sourceNeuronName = "16" targetNeuronName = "41" weight = "0.14218647640597393" />
    <synapse sourceNeuronName = "16" targetNeuronName = "42" weight = "-0.6640400032532012" />
    <synapse sourceNeuronName = "16" targetNeuronName = "43" weight = "-0.8118007898123061" />
    <synapse sourceNeuronName = "16" targetNeuronName = "44" weight = "-0.605437345100061" />
    <synapse sourceNeuronName = "16" targetNeuronName = "45" weight = "0.9818638883293545" />
    <synapse sourceNeuronName = "16" targetNeuronName = "46" weight = "0.21257140075074998" />
    <synapse sourceNeuronName = "16" targetNeuronName = "47" weight = "0.7320586365439756" />
    <synapse sourceNeuronName = "16" targetNeuronName = "48" weight = "0.7906857037106723" />
    <synapse sourceNeuronName = "16" targetNeuronName = "49" weight = "0.5415278448303786" />
    <synapse sourceNeuronName = "16" targetNeuronName = "50" weight = "-0.699182711829839" />
    <synapse sourceNeuronName = "16" targetNeuronName = "51" weight = "0.06326547655170978" />
    <synapse sourceNeuronName = "16" targetNeuronName = "52" weight = "0.26788930421465107" />
    <synapse sourceNeuronName = "16" targetNeuronName = "53" weight = "-0.3750338312770489" />
    <synapse sourceNeuronName = "16" targetNeuronName = "54" weight = "-0.23395561363457418" />
    <synapse sourceNeuronName = "16" targetNeuronName = "55" weight = "0.7714147138943119" />
    <synapse sourceNeuronName = "16" targetNeuronName = "56" weight = "-0.6016167793061404" />
    <synapse sourceNeuronName = "16" targetNeuronName = "57" weight = "-0.7098548712684836" />
    <synapse sourceNeuronName = "16" targetNeuronName = "58" weight = "-0.4985951594317273" />
    <synapse sourceNeuronName = "16" targetNeuronName = "59" weight = "0.05986913373984537" />
    <synapse sourceNeuronName = "16" targetNeuronName = "60" weight = "-0.6768787171156663" />
    <synapse sourceNeuronName = "16" targetNeuronName = "61" weight = "-0.9596412886716263" />
    <synapse sourceNeuronName = "16" targetNeuronName = "62" weight = "-0.1534206171528807" />
    <synapse sourceNeuronName = "16" targetNeuronName = "63" weight = "0.11709455874753583" />
    <synapse sourceNeuronName = "16" targetNeuronName = "64" weight = "0.5063301219399365" />
    <synapse sourceNeuronName = "16" targetNeuronName = "65" weight = "-0.8258682425790072" />
    <synapse sourceNeuronName = "16" targetNeuronName = "66" weight = "-0.20344662805269276" />
    <synapse sourceNeuronName = "16" targetNeuronName = "67" weight = "-0.5420041657339476" />
    <synapse sourceNeuronName = "16" targetNeuronName = "68" weight = "0.32198293852952875" />
    <synapse sourceNeuronName = "16" targetNeuronName = "69" weight = "-0.08719362386071094" />
    <synapse sourceNeuronName = "16" targetNeuronName = "70" weight = "-0.7026810982086724" />
    <synapse sourceNeuronName = "16" targetNeuronName = "71" weight = "0.17633587909949422" />
    <synapse sourceNeuronName = "16" targetNeuronName = "72" weight = "-0.9352815094641145" />
    <synapse sourceNeuronName = "17" targetNeuronName = "37" weight = "0.13899636048057107" />
    <synapse sourceNeuronName = "17" targetNeuronName = "38" weight = "-0.8182109792138783" />
    <synapse sourceNeuronName = "17" targetNeuronName = "39" weight = "0.5613007073272476" />
    <synapse sourceNeuronName = "17" targetNeuronName = "40" weight = "-0.8587902169446111" />
    <synapse sourceNeuronName = "17" targetNeuronName = "41" weight = "-0.35337384417908835" />
    <synapse sourceNeuronName = "17" targetNeuronName = "42" weight = "0.372072208211758" />
    <synapse sourceNeuronName = "17" targetNeuronName = "43" weight = "-0.6756874183721266" />
    <synapse sourceNeuronName = "17" targetNeuronName = "44" weight = "-0.2991219738310371" />
    <synapse sourceNeuronName = "17" targetNeuronName = "45" weight = "0.7182120191369492" />
    <synapse sourceNeuronName = "17" targetNeuronName = "46" weight = "-0.3719188952854533" />
    <synapse sourceNeuronName = "17" targetNeuronName = "47" weight = "-0.16355540652846257" />
    <synapse sourceNeuronName = "17" targetNeuronName = "48" weight = "-0.7073554511836686" />
    <synapse sourceNeuronName = "17" targetNeuronName = "49" weight = "0.7249992528227616" />
    <synapse sourceNeuronName = "17" targetNeuronName = "50" weight = "0.9340688777355328" />
    <synapse sourceNeuronName = "17" targetNeuronName = "51" weight = "-0.5098350328663679" />
    <synapse sourceNeuronName = "17" targetNeuronName = "52" weight = "0.9137159347493089" />
    <synapse sourceNeuronName = "17" targetNeuronName = "53" weight = "0.47415065523429467" />
    <synapse sourceNeuronName = "17" targetNeuronName = "54" weight = "-0.1393244113451113" />
    <synapse sourceNeuronName = "17" targetNeuronName = "55" weight = "-0.26740484862696334" />
    <synapse sourceNeuronName = "17" targetNeuronName = "56" weight = "0.03477606854413273" />
    <synapse sourceNeuronName = "17" targetNeuronName = "57" weight = "0.8052748934736356" />
    <synapse sourceNeuronName = "17" targetNeuronName = "58" weight = "-0.7180624618348486" />
    <synapse sourceNeuronName = "17" targetNeuronName = "59" weight = "-0.9746996606750165" />
    <synapse sourceNeuronName = "17" targetNeuronName = "60" weight = "-0.6643577375225949" />
    <synapse sourceNeuronName = "17" targetNeuronName = "61" weight = "0.7797351684058453" />
    <synapse sourceNeuronName = "17" targetNeuronName = "62" weight = "0.14673843721631874" />
    <synapse sourceNeuronName = "17" targetNeuronName = "63" weight = "-0.24519912790499876" />
    <synapse sourceNeuronName = "17" targetNeuronName = "64" weight = "-0.09226178654907402" />
    <synapse sourceNeuronName = "17" targetNeuronName = "65" weight = "-0.4753521240351417" />
    <synapse sourceNeuronName = "17" targetNeuronName = "66" weight = "-0.3364664379786564" />
    <synapse sourceNeuronName = "17" targetNeuronName = "67" weight = "0.3738299796292166" />
    <synapse sourceNeuronName = "17" targetNeuronName = "68" weight = "-0.6970211333020622" />
    <synapse sourceNeuronName = "17" targetNeuronName = "69" weight = "0.24050014536005637" />
    <synapse sourceNeuronName = "17" targetNeuronName = "70" weight = "-0.7887115342782898" />
    <synapse sourceNeuronName = "17" targetNeuronName = "71" weight = "-0.6268072855281954" />
    <synapse sourceNeuronName = "17" targetNeuronName = "72" weight = "-0.3604898880819396" />
    <synapse sourceNeuronName = "18" targetNeuronName = "37" weight = "-0.16495936143048007" />
    <synapse sourceNeuronName = "18" targetNeuronName = "38" weight = "0.08033076954571272" />
    <synapse sourceNeuronName = "18" targetNeuronName = "39" weight = "0.6607853307795359" />
    <synapse sourceNeuronName = "18" targetNeuronName = "40" weight = "-0.20921710266806692" />
    <synapse sourceNeuronName = "18" targetNeuronName = "41" weight = "-0.43807590432103627" />
    <synapse sourceNeuronName = "18" targetNeuronName = "42" weight = "0.5309380412781584" />
    <synapse sourceNeuronName = "18" targetNeuronName = "43" weight = "0.6944853902010475" />
    <synapse sourceNeuronName = "18" targetNeuronName = "44" weight = "0.057147525413459466" />
    <synapse sourceNeuronName = "18" targetNeuronName = "45" weight = "0.12094669124841673" />
    <synapse sourceNeuronName = "18" targetNeuronName = "46" weight = "-0.17550990486130602" />
    <synapse sourceNeuronName = "18" targetNeuronName = "47" weight = "0.7604156901588608" />
    <synapse sourceNeuronName = "18" targetNeuronName = "48" weight = "-0.7101865173675612" />
    <synapse sourceNeuronName = "18" targetNeuronName = "49" weight = "-0.04946606703383405" />
    <synapse sourceNeuronName = "18" targetNeuronName = "50" weight = "0.9192142147973361" />
    <synapse sourceNeuronName = "18" targetNeuronName = "51" weight = "-0.15581449287689475" />
    <synapse sourceNeuronName = "18" targetNeuronName = "52" weight = "0.6423665061589827" />
    <synapse sourceNeuronName = "18" targetNeuronName = "53" weight = "-0.567176973858672" />
    <synapse sourceNeuronName = "18" targetNeuronName = "54" weight = "0.8528452048837176" />
    <synapse sourceNeuronName = "18" targetNeuronName = "55" weight = "0.47500330023345305" />
    <synapse sourceNeuronName = "18" targetNeuronName = "56" weight = "-0.5131421105499057" />
    <synapse sourceNeuronName = "18" targetNeuronName = "57" weight = "-0.799725938175488" />
    <synapse sourceNeuronName = "18" targetNeuronName = "58" weight = "0.5889051769367024" />
    <synapse sourceNeuronName = "18" targetNeuronName = "59" weight = "-0.17345100550150971" />
    <synapse sourceNeuronName = "18" targetNeuronName = "60" weight = "0.30691023152805474" />
    <synapse sourceNeuronName = "18" targetNeuronName = "61" weight = "0.42182008318244923" />
    <synapse sourceNeuronName = "18" targetNeuronName = "62" weight = "-0.2164940341420991" />
    <synapse sourceNeuronName = "18" targetNeuronName = "63" weight = "-0.7925723132820532" />
    <synapse sourceNeuronName = "18" targetNeuronName = "64" weight = "0.2681222248298303" />
    <synapse sourceNeuronName = "18" targetNeuronName = "65" weight = "0.216441489755264" />
    <synapse sourceNeuronName = "18" targetNeuronName = "66" weight = "-0.8090197942746888" />
    <synapse sourceNeuronName = "18" targetNeuronName = "67" weight = "0.6849026375480785" />
    <synapse sourceNeuronName = "18" targetNeuronName = "68" weight = "-0.6242843373335341" />
    <synapse sourceNeuronName = "18" targetNeuronName = "69" weight = "0.8925730135968186" />
    <synapse sourceNeuronName = "18" targetNeuronName = "70" weight = "-0.6681009162079758" />
    <synapse sourceNeuronName = "18" targetNeuronName = "71" weight = "-0.773128915121841" />
    <synapse sourceNeuronName = "18" targetNeuronName = "72" weight = "-0.3816948723829785" />
    <synapse sourceNeuronName = "19" targetNeuronName = "37" weight = "-0.061266462012365075" />
    <synapse sourceNeuronName = "19" targetNeuronName = "38" weight = "-0.986287251939445" />
    <synapse sourceNeuronName = "19" targetNeuronName = "39" weight = "0.24284920935080434" />
    <synapse sourceNeuronName = "19" targetNeuronName = "40" weight = "-0.6006875711351389" />
    <synapse sourceNeuronName = "19" targetNeuronName = "41" weight = "0.8024773105960126" />
    <synapse sourceNeuronName = "19" targetNeuronName = "42" weight = "-0.42089173189646356" />
    <synapse sourceNeuronName = "19" targetNeuronName = "43" weight = "-0.4094323860793134" />
    <synapse sourceNeuronName = "19" targetNeuronName = "44" weight = "-0.9297151032358144" />
    <synapse sourceNeuronName = "19" targetNeuronName = "45" weight = "0.6740959387146479" />
    <synapse sourceNeuronName = "19" targetNeuronName = "46" weight = "0.7737479273370185" />
    <synapse sourceNeuronName = "19" targetNeuronName = "47" weight = "-0.5648494578539331" />
    <synapse sourceNeuronName = "19" targetNeuronName = "48" weight = "0.6980849141579593" />
    <synapse sourceNeuronName = "19" targetNeuronName = "49" weight = "0.7176694332821243" />
    <synapse sourceNeuronName = "19" targetNeuronName = "50" weight = "0.4566247261981169" />
    <synapse sourceNeuronName = "19" targetNeuronName = "51" weight = "-0.3502122407556163" />
    <synapse sourceNeuronName = "19" targetNeuronName = "52" weight = "0.8335347366407544" />
    <synapse sourceNeuronName = "19" targetNeuronName = "53" weight = "-0.5074034474560742" />
    <synapse sourceNeuronName = "19" targetNeuronName = "54" weight = "-0.2970283202795494" />
    <synapse sourceNeuronName = "19" targetNeuronName = "55" weight = "-0.9622967453964983" />
    <synapse sourceNeuronName = "19" targetNeuronName = "56" weight = "0.5011392675523376" />
    <synapse sourceNeuronName = "19" targetNeuronName = "57" weight = "0.3640237479288524" />
    <synapse sourceNeuronName = "19" targetNeuronName = "58" weight = "-0.33634884498345285" />
    <synapse sourceNeuronName = "19" targetNeuronName = "59" weight = "-0.8598976748420208" />
    <synapse sourceNeuronName = "19" targetNeuronName = "60" weight = "-0.9695386330678564" />
    <synapse sourceNeuronName = "19" targetNeuronName = "61" weight = "0.9159467360215816" />
    <synapse sourceNeuronName = "19" targetNeuronName = "62" weight = "0.2357891769544871" />
    <synapse sourceNeuronName = "19" targetNeuronName = "63" weight = "-0.17846016920186059" />
    <synapse sourceNeuronName = "19" targetNeuronName = "64" weight = "-0.943031022854409" />
    <synapse sourceNeuronName = "19" targetNeuronName = "65" weight = "0.13066573785896662" />
    <synapse sourceNeuronName = "19" targetNeuronName = "66" weight = "0.8378056027442238" />
    <synapse sourceNeuronName = "19" targetNeuronName = "67" weight = "-0.8371766362026909" />
    <synapse sourceNeuronName = "19" targetNeuronName = "68" weight = "-0.2846665253720979" />
    <synapse sourceNeuronName = "19" targetNeuronName = "69" weight = "0.9494716280948272" />
    <synapse sourceNeuronName = "19" targetNeuronName = "70" weight = "0.6779018753933579" />
    <synapse sourceNeuronName = "19" targetNeuronName = "71" weight = "0.11470281159858997" />
    <synapse sourceNeuronName = "19" targetNeuronName = "72" weight = "0.5020358271255285" />
    <synapse sourceNeuronName = "20" targetNeuronName = "37" weight = "-0.6296749979700604" />
    <synapse sourceNeuronName = "20" targetNeuronName = "38" weight = "0.6765530037023464" />
    <synapse sourceNeuronName = "20" targetNeuronName = "39" weight = "-0.27420799565405574" />
    <synapse sourceNeuronName = "20" targetNeuronName = "40" weight = "0.4350923829620512" />
    <synapse sourceNeuronName = "20" targetNeuronName = "41" weight = "-0.7317424899217728" />
    <synapse sourceNeuronName = "20" targetNeuronName = "42" weight = "-0.626467899492307" />
    <synapse sourceNeuronName = "20" targetNeuronName = "43" weight = "0.018716041560535857" />
    <synapse sourceNeuronName = "20" targetNeuronName = "44" weight = "-0.8863906634913701" />
    <synapse sourceNeuronName = "20" targetNeuronName = "45" weight = "-0.9998366836169916" />
    <synapse sourceNeuronName = "20" targetNeuronName = "46" weight = "-0.48115494925776936" />
    <synapse sourceNeuronName = "20" targetNeuronName = "47" weight = "-0.8522806558714551" />
    <synapse sourceNeuronName = "20" targetNeuronName = "48" weight = "0.35566819257543214" />
    <synapse sourceNeuronName = "20" targetNeuronName = "49" weight = "0.2616526056045365" />
    <synapse sourceNeuronName = "20" targetNeuronName = "50" weight = "0.8240869266855537" />
    <synapse sourceNeuronName = "20" targetNeuronName = "51" weight = "-0.9544905174192835" />
    <synapse sourceNeuronName = "20" targetNeuronName = "52" weight = "0.32327192975586816" />
    <synapse sourceNeuronName = "20" targetNeuronName = "53" weight = "-0.011803886816529108" />
    <synapse sourceNeuronName = "20" targetNeuronName = "54" weight = "-0.543533701259741" />
    <synapse sourceNeuronName = "20" targetNeuronName = "55" weight = "-0.3147963554120483" />
    <synapse sourceNeuronName = "20" targetNeuronName = "56" weight = "0.46293388613642694" />
    <synapse sourceNeuronName = "20" targetNeuronName = "57" weight = "0.8564460153543334" />
    <synapse sourceNeuronName = "20" targetNeuronName = "58" weight = "0.5524483819801891" />
    <synapse sourceNeuronName = "20" targetNeuronName = "59" weight = "0.6015098930314269" />
    <synapse sourceNeuronName = "20" targetNeuronName = "60" weight = "-0.013748857602714049" />
    <synapse sourceNeuronName = "20" targetNeuronName = "61" weight = "0.5077079986646038" />
    <synapse sourceNeuronName = "20" targetNeuronName = "62" weight = "-0.9643208710912043" />
    <synapse sourceNeuronName = "20" targetNeuronName = "63" weight = "0.8403571662619729" />
    <synapse sourceNeuronName = "20" targetNeuronName = "64" weight = "-0.205166590380222" />
    <synapse sourceNeuronName = "20" targetNeuronName = "65" weight = "-0.46953055539540545" />
    <synapse sourceNeuronName = "20" targetNeuronName = "66" weight = "0.8241993582369165" />
    <synapse sourceNeuronName = "20" targetNeuronName = "67" weight = "0.9482499803787474" />
    <synapse sourceNeuronName = "20" targetNeuronName = "68" weight = "-0.7333117652330878" />
    <synapse sourceNeuronName = "20" targetNeuronName = "69" weight = "0.9647696619222073" />
    <synapse sourceNeuronName = "20" targetNeuronName = "70" weight = "-0.9763702147820994" />
    <synapse sourceNeuronName = "20" targetNeuronName = "71" weight = "-0.24051822677233536" />
    <synapse sourceNeuronName = "20" targetNeuronName = "72" weight = "-0.2147192444308621" />
    <synapse sourceNeuronName = "21" targetNeuronName = "37" weight = "-0.7232303125448696" />
    <synapse sourceNeuronName = "21" targetNeuronName = "38" weight = "-0.018979911305156083" />
    <synapse sourceNeuronName = "21" targetNeuronName = "39" weight = "-0.07031185358403036" />
    <synapse sourceNeuronName = "21" targetNeuronName = "40" weight = "-0.8360817471113213" />
    <synapse sourceNeuronName = "21" targetNeuronName = "41" weight = "0.10034926157391189" />
    <synapse sourceNeuronName = "21" targetNeuronName = "42" weight = "0.9436368478549031" />
    <synapse sourceNeuronName = "21" targetNeuronName = "43" weight = "-0.3069755529969769" />
    <synapse sourceNeuronName = "21" targetNeuronName = "44" weight = "0.8646745364931556" />
    <synapse sourceNeuronName = "21" targetNeuronName = "45" weight = "0.8588019626660166" />
    <synapse sourceNeuronName = "21" targetNeuronName = "46" weight = "0.7941812687387839" />
    <synapse sourceNeuronName = "21" targetNeuronName = "47" weight = "0.8563305434550859" />
    <synapse sourceNeuronName = "21" targetNeuronName = "48" weight = "0.9886269023875063" />
    <synapse sourceNeuronName = "21" targetNeuronName = "49" weight = "0.9680842412032646" />
    <synapse sourceNeuronName = "21" targetNeuronName = "50" weight = "0.006248106607375181" />
    <synapse sourceNeuronName = "21" targetNeuronName = "51" weight = "0.20533427998311748" />
    <synapse sourceNeuronName = "21" targetNeuronName = "52" weight = "0.9607439631227304" />
    <synapse sourceNeuronName = "21" targetNeuronName = "53" weight = "0.6982615047367526" />
    <synapse sourceNeuronName = "21" targetNeuronName = "54" weight = "0.33653814629727274" />
    <synapse sourceNeuronName = "21" targetNeuronName = "55" weight = "-0.2547011587271033" />
    <synapse sourceNeuronName = "21" targetNeuronName = "56" weight = "0.5052882089208348" />
    <synapse sourceNeuronName = "21" targetNeuronName = "57" weight = "0.04673095823460005" />
    <synapse sourceNeuronName = "21" targetNeuronName = "58" weight = "-0.6955594666402711" />
    <synapse sourceNeuronName = "21" targetNeuronName = "59" weight = "-0.47159866859852984" />
    <synapse sourceNeuronName = "21" targetNeuronName = "60" weight = "-0.7842179520260266" />
    <synapse sourceNeuronName = "21" targetNeuronName = "61" weight = "-0.5093124687581803" />
    <synapse sourceNeuronName = "21" targetNeuronName = "62" weight = "0.5119637110642286" />
    <synapse sourceNeuronName = "21" targetNeuronName = "63" weight = "-0.7047882274651773" />
    <synapse sourceNeuronName = "21" targetNeuronName = "64" weight = "0.2945642876530883" />
    <synapse sourceNeuronName = "21" targetNeuronName = "65" weight = "-0.07324847284203373" />
    <synapse sourceNeuronName = "21" targetNeuronName = "66" weight = "0.706999700058677" />
    <synapse sourceNeuronName = "21" targetNeuronName = "67" weight = "-0.402748757825123" />
    <synapse sourceNeuronName = "21" targetNeuronName = "68" weight = "0.49447484042840384" />
    <synapse sourceNeuronName = "21" targetNeuronName = "69" weight = "0.0372070939958824" />
    <synapse sourceNeuronName = "21" targetNeuronName = "70" weight = "-0.06233815728972947" />
    <synapse sourceNeuronName = "21" targetNeuronName = "71" weight = "0.4128714969877205" />
    <synapse sourceNeuronName = "21" targetNeuronName = "72" weight = "-0.8047699740408782" />
    <synapse sourceNeuronName = "22" targetNeuronName = "37" weight = "-0.10009927265276541" />
    <synapse sourceNeuronName = "22" targetNeuronName = "38" weight = "-0.08616675214761194" />
    <synapse sourceNeuronName = "22" targetNeuronName = "39" weight = "0.6145508308694112" />
    <synapse sourceNeuronName = "22" targetNeuronName = "40" weight = "0.6210898364694155" />
    <synapse sourceNeuronName = "22" targetNeuronName = "41" weight = "0.7847425333116609" />
    <synapse sourceNeuronName = "22" targetNeuronName = "42" weight = "-0.9833567261119471" />
    <synapse sourceNeuronName = "22" targetNeuronName = "43" weight = "0.0352098601652957" />
    <synapse sourceNeuronName = "22" targetNeuronName = "44" weight = "-0.5689443871050384" />
    <synapse sourceNeuronName = "22" targetNeuronName = "45" weight = "0.9096194304030234" />
    <synapse sourceNeuronName = "22" targetNeuronName = "46" weight = "0.6552217363230397" />
    <synapse sourceNeuronName = "22" targetNeuronName = "47" weight = "0.3710143072764982" />
    <synapse sourceNeuronName = "22" targetNeuronName = "48" weight = "-0.6983398285277462" />
    <synapse sourceNeuronName = "22" targetNeuronName = "49" weight = "0.8709944332545743" />
    <synapse sourceNeuronName = "22" targetNeuronName = "50" weight = "0.32421164083155296" />
    <synapse sourceNeuronName = "22" targetNeuronName = "51" weight = "-0.8170348950207176" />
    <synapse sourceNeuronName = "22" targetNeuronName = "52" weight = "0.5438715986400919" />
    <synapse sourceNeuronName = "22" targetNeuronName = "53" weight = "-0.5481884265021206" />
    <synapse sourceNeuronName = "22" targetNeuronName = "54" weight = "-0.7623524340025334" />
    <synapse sourceNeuronName = "22" targetNeuronName = "55" weight = "0.32806657043644893" />
    <synapse sourceNeuronName = "22" targetNeuronName = "56" weight = "-0.8038101238273145" />
    <synapse sourceNeuronName = "22" targetNeuronName = "57" weight = "0.8721830666244117" />
    <synapse sourceNeuronName = "22" targetNeuronName = "58" weight = "-0.20358874722198528" />
    <synapse sourceNeuronName = "22" targetNeuronName = "59" weight = "-0.6636286016730018" />
    <synapse sourceNeuronName = "22" targetNeuronName = "60" weight = "0.3056385968766451" />
    <synapse sourceNeuronName = "22" targetNeuronName = "61" weight = "-0.6351344245520316" />
    <synapse sourceNeuronName = "22" targetNeuronName = "62" weight = "-0.5097201230649808" />
    <synapse sourceNeuronName = "22" targetNeuronName = "63" weight = "-0.878848551654519" />
    <synapse sourceNeuronName = "22" targetNeuronName = "64" weight = "-0.46101154413976264" />
    <synapse sourceNeuronName = "22" targetNeuronName = "65" weight = "-0.42414125728328456" />
    <synapse sourceNeuronName = "22" targetNeuronName = "66" weight = "0.399137721533634" />
    <synapse sourceNeuronName = "22" targetNeuronName = "67" weight = "0.2867402788806932" />
    <synapse sourceNeuronName = "22" targetNeuronName = "68" weight = "-0.32872715875630387" />
    <synapse sourceNeuronName = "22" targetNeuronName = "69" weight = "-0.38758055405908176" />
    <synapse sourceNeuronName = "22" targetNeuronName = "70" weight = "0.9193256156158478" />
    <synapse sourceNeuronName = "22" targetNeuronName = "71" weight = "-0.15813627739302283" />
    <synapse sourceNeuronName = "22" targetNeuronName = "72" weight = "-0.6223959749981325" />
    <synapse sourceNeuronName = "23" targetNeuronName = "37" weight = "-0.40062286509075906" />
    <synapse sourceNeuronName = "23" targetNeuronName = "38" weight = "0.6185241866438602" />
    <synapse sourceNeuronName = "23" targetNeuronName = "39" weight = "-0.8716050055832432" />
    <synapse sourceNeuronName = "23" targetNeuronName = "40" weight = "-0.8600393223126519" />
    <synapse sourceNeuronName = "23" targetNeuronName = "41" weight = "-0.19785744042644593" />
    <synapse sourceNeuronName = "23" targetNeuronName = "42" weight = "-0.5411156067894951" />
    <synapse sourceNeuronName = "23" targetNeuronName = "43" weight = "0.9382790536811156" />
    <synapse sourceNeuronName = "23" targetNeuronName = "44" weight = "0.016667697431098638" />
    <synapse sourceNeuronName = "23" targetNeuronName = "45" weight = "0.5746618237918604" />
    <synapse sourceNeuronName = "23" targetNeuronName = "46" weight = "0.8822139359871874" />
    <synapse sourceNeuronName = "23" targetNeuronName = "47" weight = "-0.22376726651405665" />
    <synapse sourceNeuronName = "23" targetNeuronName = "48" weight = "-0.15598631870685065" />
    <synapse sourceNeuronName = "23" targetNeuronName = "49" weight = "-0.4058699923321152" />
    <synapse sourceNeuronName = "23" targetNeuronName = "50" weight = "0.6791276613012809" />
    <synapse sourceNeuronName = "23" targetNeuronName = "51" weight = "-0.6605795735101656" />
    <synapse sourceNeuronName = "23" targetNeuronName = "52" weight = "0.014774584737971441" />
    <synapse sourceNeuronName = "23" targetNeuronName = "53" weight = "-0.9711751948728842" />
    <synapse sourceNeuronName = "23" targetNeuronName = "54" weight = "0.5705020791825273" />
    <synapse sourceNeuronName = "23" targetNeuronName = "55" weight = "0.3685092392147309" />
    <synapse sourceNeuronName = "23" targetNeuronName = "56" weight = "0.6827056616778346" />
    <synapse sourceNeuronName = "23" targetNeuronName = "57" weight = "0.21266847780546527" />
    <synapse sourceNeuronName = "23" targetNeuronName = "58" weight = "0.9390265474354509" />
    <synapse sourceNeuronName = "23" targetNeuronName = "59" weight = "-0.1463665127201006" />
    <synapse sourceNeuronName = "23" targetNeuronName = "60" weight = "-0.9574250802572453" />
    <synapse sourceNeuronName = "23" targetNeuronName = "61" weight = "0.9943760842420335" />
    <synapse sourceNeuronName = "23" targetNeuronName = "62" weight = "-0.7587642238643086" />
    <synapse sourceNeuronName = "23" targetNeuronName = "63" weight = "-0.9568323475551437" />
    <synapse sourceNeuronName = "23" targetNeuronName = "64" weight = "-0.9676138179274985" />
    <synapse sourceNeuronName = "23" targetNeuronName = "65" weight = "-0.6639790373116221" />
    <synapse sourceNeuronName = "23" targetNeuronName = "66" weight = "0.7238309112973211" />
    <synapse sourceNeuronName = "23" targetNeuronName = "67" weight = "0.14391872881311718" />
    <synapse sourceNeuronName = "23" targetNeuronName = "68" weight = "-0.053821443273296854" />
    <synapse sourceNeuronName = "23" targetNeuronName = "69" weight = "-0.3267319825708057" />
    <synapse sourceNeuronName = "23" targetNeuronName = "70" weight = "0.790633706241328" />
    <synapse sourceNeuronName = "23" targetNeuronName = "71" weight = "-0.16329634744769028" />
    <synapse sourceNeuronName = "23" targetNeuronName = "72" weight = "0.14686052201472322" />
    <synapse sourceNeuronName = "24" targetNeuronName = "37" weight = "0.6111597006877074" />
    <synapse sourceNeuronName = "24" targetNeuronName = "38" weight = "-0.8938338086186439" />
    <synapse sourceNeuronName = "24" targetNeuronName = "39" weight = "-0.8327562492314271" />
    <synapse sourceNeuronName = "24" targetNeuronName = "40" weight = "0.04954972723764284" />
    <synapse sourceNeuronName = "24" targetNeuronName = "41" weight = "-0.9289026929389783" />
    <synapse sourceNeuronName = "24" targetNeuronName = "42" weight = "0.47916532308638127" />
    <synapse sourceNeuronName = "24" targetNeuronName = "43" weight = "0.9292094409120757" />
    <synapse sourceNeuronName = "24" targetNeuronName = "44" weight = "-0.410059775622605" />
    <synapse sourceNeuronName = "24" targetNeuronName = "45" weight = "-0.43503603089424003" />
    <synapse sourceNeuronName = "24" targetNeuronName = "46" weight = "0.6647442567004545" />
    <synapse sourceNeuronName = "24" targetNeuronName = "47" weight = "0.46989117680367287" />
    <synapse sourceNeuronName = "24" targetNeuronName = "48" weight = "0.4286605258068281" />
    <synapse sourceNeuronName = "24" targetNeuronName = "49" weight = "-0.4944445700597542" />
    <synapse sourceNeuronName = "24" targetNeuronName = "50" weight = "-0.15091068232091676" />
    <synapse sourceNeuronName = "24" targetNeuronName = "51" weight = "-0.7733862432931422" />
    <synapse sourceNeuronName = "24" targetNeuronName = "52" weight = "-0.47712172641520234" />
    <synapse sourceNeuronName = "24" targetNeuronName = "53" weight = "0.4998823075181582" />
    <synapse sourceNeuronName = "24" targetNeuronName = "54" weight = "0.4054757158719049" />
    <synapse sourceNeuronName = "24" targetNeuronName = "55" weight = "-0.5217495771635432" />
    <synapse sourceNeuronName = "24" targetNeuronName = "56" weight = "-0.8101199944387709" />
    <synapse sourceNeuronName = "24" targetNeuronName = "57" weight = "-0.4183801659286577" />
    <synapse sourceNeuronName = "24" targetNeuronName = "58" weight = "0.05564041144648013" />
    <synapse sourceNeuronName = "24" targetNeuronName = "59" weight = "-0.9467624723746602" />
    <synapse sourceNeuronName = "24" targetNeuronName = "60" weight = "-0.014260738248405236" />
    <synapse sourceNeuronName = "24" targetNeuronName = "61" weight = "0.25349190719868475" />
    <synapse sourceNeuronName = "24" targetNeuronName = "62" weight = "-0.47085542484153065" />
    <synapse sourceNeuronName = "24" targetNeuronName = "63" weight = "0.6577409043338511" />
    <synapse sourceNeuronName = "24" targetNeuronName = "64" weight = "0.7356583766458833" />
    <synapse sourceNeuronName = "24" targetNeuronName = "65" weight = "-0.9803750037135586" />
    <synapse sourceNeuronName = "24" targetNeuronName = "66" weight = "0.2412747291327999" />
    <synapse sourceNeuronName = "24" targetNeuronName = "67" weight = "0.38414777981056525" />
    <synapse sourceNeuronName = "24" targetNeuronName = "68" weight = "-0.2901730967911138" />
    <synapse sourceNeuronName = "24" targetNeuronName = "69" weight = "-0.2046569321104681" />
    <synapse sourceNeuronName = "24" targetNeuronName = "70" weight = "0.10839296715666835" />
    <synapse sourceNeuronName = "24" targetNeuronName = "71" weight = "0.8896601577857934" />
    <synapse sourceNeuronName = "24" targetNeuronName = "72" weight = "0.40972936772015656" />
    <synapse sourceNeuronName = "25" targetNeuronName = "37" weight = "0.8080192005092639" />
    <synapse sourceNeuronName = "25" targetNeuronName = "38" weight = "-0.14578033020030845" />
    <synapse sourceNeuronName = "25" targetNeuronName = "39" weight = "-0.46429620860647725" />
    <synapse sourceNeuronName = "25" targetNeuronName = "40" weight = "-0.4129473066183811" />
    <synapse sourceNeuronName = "25" targetNeuronName = "41" weight = "0.8646451687949184" />
    <synapse sourceNeuronName = "25" targetNeuronName = "42" weight = "0.7312011624166375" />
    <synapse sourceNeuronName = "25" targetNeuronName = "43" weight = "-0.5611513695001402" />
    <synapse sourceNeuronName = "25" targetNeuronName = "44" weight = "-0.41375705426433895" />
    <synapse sourceNeuronName = "25" targetNeuronName = "45" weight = "0.5908646884545814" />
    <synapse sourceNeuronName = "25" targetNeuronName = "46" weight = "-0.0731767182137657" />
    <synapse sourceNeuronName = "25" targetNeuronName = "47" weight = "0.4762044553931002" />
    <synapse sourceNeuronName = "25" targetNeuronName = "48" weight = "0.8915046995573817" />
    <synapse sourceNeuronName = "25" targetNeuronName = "49" weight = "-0.3327669213029014" />
    <synapse sourceNeuronName = "25" targetNeuronName = "50" weight = "-0.18277869691670845" />
    <synapse sourceNeuronName = "25" targetNeuronName = "51" weight = "-0.6570507388969125" />
    <synapse sourceNeuronName = "25" targetNeuronName = "52" weight = "-0.5628281128388766" />
    <synapse sourceNeuronName = "25" targetNeuronName = "53" weight = "0.20417497767454407" />
    <synapse sourceNeuronName = "25" targetNeuronName = "54" weight = "0.8011330303193407" />
    <synapse sourceNeuronName = "25" targetNeuronName = "55" weight = "-0.6241386924149601" />
    <synapse sourceNeuronName = "25" targetNeuronName = "56" weight = "-0.09012057120834926" />
    <synapse sourceNeuronName = "25" targetNeuronName = "57" weight = "0.3080159863439236" />
    <synapse sourceNeuronName = "25" targetNeuronName = "58" weight = "0.7623888301476429" />
    <synapse sourceNeuronName = "25" targetNeuronName = "59" weight = "-0.8606416398720924" />
    <synapse sourceNeuronName = "25" targetNeuronName = "60" weight = "0.7618343789367292" />
    <synapse sourceNeuronName = "25" targetNeuronName = "61" weight = "0.5590178289288668" />
    <synapse sourceNeuronName = "25" targetNeuronName = "62" weight = "-0.26089526605302304" />
    <synapse sourceNeuronName = "25" targetNeuronName = "63" weight = "0.6466662472177769" />
    <synapse sourceNeuronName = "25" targetNeuronName = "64" weight = "0.4576295816641456" />
    <synapse sourceNeuronName = "25" targetNeuronName = "65" weight = "0.36086471364596506" />
    <synapse sourceNeuronName = "25" targetNeuronName = "66" weight = "-0.534442768524316" />
    <synapse sourceNeuronName = "25" targetNeuronName = "67" weight = "0.6179502670923263" />
    <synapse sourceNeuronName = "25" targetNeuronName = "68" weight = "0.49182743704515586" />
    <synapse sourceNeuronName = "25" targetNeuronName = "69" weight = "-0.5766195445503934" />
    <synapse sourceNeuronName = "25" targetNeuronName = "70" weight = "0.45105021275850277" />
    <synapse sourceNeuronName = "25" targetNeuronName = "71" weight = "-0.10892072601062153" />
    <synapse sourceNeuronName = "25" targetNeuronName = "72" weight = "0.8120754167798541" />
    <synapse sourceNeuronName = "26" targetNeuronName = "37" weight = "0.5258963322022876" />
    <synapse sourceNeuronName = "26" targetNeuronName = "38" weight = "0.8038727331347328" />
    <synapse sourceNeuronName = "26" targetNeuronName = "39" weight = "-0.6472980998745212" />
    <synapse sourceNeuronName = "26" targetNeuronName = "40" weight = "-0.610761199578209" />
    <synapse sourceNeuronName = "26" targetNeuronName = "41" weight = "-0.3972402445039527" />
    <synapse sourceNeuronName = "26" targetNeuronName = "42" weight = "0.6194671073970921" />
    <synapse sourceNeuronName = "26" targetNeuronName = "43" weight = "-0.8701832095933641" />
    <synapse sourceNeuronName = "26" targetNeuronName = "44" weight = "-0.16884445455715213" />
    <synapse sourceNeuronName = "26" targetNeuronName = "45" weight = "-0.08340315438743384" />
    <synapse sourceNeuronName = "26" targetNeuronName = "46" weight = "-0.18267493184908346" />
    <synapse sourceNeuronName = "26" targetNeuronName = "47" weight = "-0.5163793015703697" />
    <synapse sourceNeuronName = "26" targetNeuronName = "48" weight = "0.8729985064252841" />
    <synapse sourceNeuronName = "26" targetNeuronName = "49" weight = "-0.1712370334336435" />
    <synapse sourceNeuronName = "26" targetNeuronName = "50" weight = "0.0872309503397557" />
    <synapse sourceNeuronName = "26" targetNeuronName = "51" weight = "-0.8408863399039495" />
    <synapse sourceNeuronName = "26" targetNeuronName = "52" weight = "-0.5257034669725933" />
    <synapse sourceNeuronName = "26" targetNeuronName = "53" weight = "-0.7888906468146066" />
    <synapse sourceNeuronName = "26" targetNeuronName = "54" weight = "-0.986634022325986" />
    <synapse sourceNeuronName = "26" targetNeuronName = "55" weight = "-0.18623002587899573" />
    <synapse sourceNeuronName = "26" targetNeuronName = "56" weight = "-0.984700011741418" />
    <synapse sourceNeuronName = "26" targetNeuronName = "57" weight = "-0.1946945179566153" />
    <synapse sourceNeuronName = "26" targetNeuronName = "58" weight = "0.7740210701465977" />
    <synapse sourceNeuronName = "26" targetNeuronName = "59" weight = "0.07683804002929162" />
    <synapse sourceNeuronName = "26" targetNeuronName = "60" weight = "0.5813849312621904" />
    <synapse sourceNeuronName = "26" targetNeuronName = "61" weight = "0.9815878214968221" />
    <synapse sourceNeuronName = "26" targetNeuronName = "62" weight = "0.1793103593241121" />
    <synapse sourceNeuronName = "26" targetNeuronName = "63" weight = "0.44823145503032946" />
    <synapse sourceNeuronName = "26" targetNeuronName = "64" weight = "0.42604236020451647" />
    <synapse sourceNeuronName = "26" targetNeuronName = "65" weight = "-0.6938153491470058" />
    <synapse sourceNeuronName = "26" targetNeuronName = "66" weight = "0.053433610268652565" />
    <synapse sourceNeuronName = "26" targetNeuronName = "67" weight = "0.9815639440946273" />
    <synapse sourceNeuronName = "26" targetNeuronName = "68" weight = "0.24028525331603334" />
    <synapse sourceNeuronName = "26" targetNeuronName = "69" weight = "-0.13559892199955081" />
    <synapse sourceNeuronName = "26" targetNeuronName = "70" weight = "0.2011054192356556" />
    <synapse sourceNeuronName = "26" targetNeuronName = "71" weight = "-0.9419550101076628" />
    <synapse sourceNeuronName = "26" targetNeuronName = "72" weight = "0.1064636401784882" />
    <synapse sourceNeuronName = "27" targetNeuronName = "37" weight = "0.943423863649776" />
    <synapse sourceNeuronName = "27" targetNeuronName = "38" weight = "0.24835756066918635" />
    <synapse sourceNeuronName = "27" targetNeuronName = "39" weight = "0.8876475809629387" />
    <synapse sourceNeuronName = "27" targetNeuronName = "40" weight = "-0.7090697363826644" />
    <synapse sourceNeuronName = "27" targetNeuronName = "41" weight = "0.7697454766512513" />
    <synapse sourceNeuronName = "27" targetNeuronName = "42" weight = "0.8192167729545614" />
    <synapse sourceNeuronName = "27" targetNeuronName = "43" weight = "0.6037147174200699" />
    <synapse sourceNeuronName = "27" targetNeuronName = "44" weight = "-0.6749877181445261" />
    <synapse sourceNeuronName = "27" targetNeuronName = "45" weight = "0.8672502342621851" />
    <synapse sourceNeuronName = "27" targetNeuronName = "46" weight = "-0.9890171890101251" />
    <synapse sourceNeuronName = "27" targetNeuronName = "47" weight = "0.2131127480856967" />
    <synapse sourceNeuronName = "27" targetNeuronName = "48" weight = "-0.7805230542281303" />
    <synapse sourceNeuronName = "27" targetNeuronName = "49" weight = "-0.1454815881849203" />
    <synapse sourceNeuronName = "27" targetNeuronName = "50" weight = "0.36108753454521003" />
    <synapse sourceNeuronName = "27" targetNeuronName = "51" weight = "-0.510516581886939" />
    <synapse sourceNeuronName = "27" targetNeuronName = "52" weight = "-0.8269516724564114" />
    <synapse sourceNeuronName = "27" targetNeuronName = "53" weight = "0.06080644315411288" />
    <synapse sourceNeuronName = "27" targetNeuronName = "54" weight = "-0.7263572444438777" />
    <synapse sourceNeuronName = "27" targetNeuronName = "55" weight = "-0.24754530570295374" />
    <synapse sourceNeuronName = "27" targetNeuronName = "56" weight = "0.08953612950153134" />
    <synapse sourceNeuronName = "27" targetNeuronName = "57" weight = "-0.9627215148912291" />
    <synapse sourceNeuronName = "27" targetNeuronName = "58" weight = "-0.34010260602789866" />
    <synapse sourceNeuronName = "27" targetNeuronName = "59" weight = "0.6615236547441159" />
    <synapse sourceNeuronName = "27" targetNeuronName = "60" weight = "-0.33675332998384433" />
    <synapse sourceNeuronName = "27" targetNeuronName = "61" weight = "0.0862825765106312" />
    <synapse sourceNeuronName = "27" targetNeuronName = "62" weight = "-0.6752855948696066" />
    <synapse sourceNeuronName = "27" targetNeuronName = "63" weight = "0.2771848795009917" />
    <synapse sourceNeuronName = "27" targetNeuronName = "64" weight = "0.6876229084140411" />
    <synapse sourceNeuronName = "27" targetNeuronName = "65" weight = "0.8633987761594502" />
    <synapse sourceNeuronName = "27" targetNeuronName = "66" weight = "-0.45997710395599145" />
